-3.431631922721862793e-01,-7.614943981170654297e-01,1.283453553915023804e-01,2.184276133775711060e-01,-8.362252116203308105e-01,2.336912751197814941e-01,-1.220476478338241577e-01,-6.274455189704895020e-01,2.044976949691772461e-01,6.535868644714355469e-01,4.885024130344390869e-01,6.017315983772277832e-01,1.592365354299545288e-01,1.122507452964782715e+00,1.239746529608964920e-02,-3.993907868862152100e-01,-9.938567876815795898e-01,-1.585874706506729126e-01,2.099068611860275269e-01,-2.793573439121246338e-01,1.890699416399002075e-01,4.433108493685722351e-02,1.910072714090347290e-01,3.072191774845123291e-01,-1.582956463098526001e-01,4.027206003665924072e-01,-3.471607342362403870e-02,-9.298942983150482178e-02,-7.092976570129394531e-02,4.570238888263702393e-01,5.132764577865600586e-01,6.232638955116271973e-01,1.803227216005325317e-01,-2.786623835563659668e-01,6.053959727287292480e-01,-3.039672598242759705e-02,3.017158061265945435e-02,-1.369540542364120483e-01,9.690587520599365234e-01,-6.118159294128417969e-01,5.261589884757995605e-01,6.128666400909423828e-01,3.784251213073730469e-01,7.416835427284240723e-01,4.077553153038024902e-01,-7.189323306083679199e-01,-4.730868041515350342e-01,4.346740841865539551e-01,-2.652567923069000244e-01,-1.003787755966186523e+00,-5.763154625892639160e-01,1.006745100021362305e+00,-8.581688404083251953e-01,6.997231394052505493e-02,3.881818950176239014e-01,-3.289438784122467041e-01,2.923964560031890869e-01,-6.906957626342773438e-01,-1.269082069396972656e+00,2.675268054008483887e-01,-1.859353333711624146e-01,-8.853237330913543701e-02,-3.741706907749176025e-01,1.763660758733749390e-01,-6.916481256484985352e-01,-3.828377127647399902e-01,1.063834309577941895e+00,-4.336316287517547607e-01,-8.163313567638397217e-02,1.262952685356140137e-01,-4.610701203346252441e-01,-6.879943013191223145e-01,6.703604459762573242e-01,6.239906325936317444e-02,-5.535758733749389648e-01,-4.516096711158752441e-01,7.166657447814941406e-01,4.967171847820281982e-01,-1.989034116268157959e-01,-5.429666042327880859e-01,-3.303827047348022461e-01,8.893856406211853027e-01,2.812805473804473877e-01,7.713264822959899902e-01,2.863068282604217529e-01,9.891560077667236328e-01,-2.966279089450836182e-01,4.204828441143035889e-01,-1.979666799306869507e-01,-2.166728079319000244e-01,-6.013224124908447266e-01,1.424835920333862305e-01,4.643490612506866455e-01,-6.592858433723449707e-01,4.743497371673583984e-01,-1.148423273116350174e-02,9.467148780822753906e-01,3.677702248096466064e-01,-1.035581946372985840e+00,-3.346342146396636963e-01,-1.002015352249145508e+00,2.664392590522766113e-01,3.942275047302246094e-02,-3.764429688453674316e-01,3.232650756835937500e-01,1.008892774581909180e+00,2.058029873296618462e-03,-1.355877984315156937e-02,7.312234044075012207e-01,4.435388743877410889e-01,2.986713349819183350e-01,4.639417529106140137e-01,-8.216243982315063477e-01,-8.415818214416503906e-02,9.564109146595001221e-02,1.075302481651306152e+00,-2.780599296092987061e-01,5.664917230606079102e-01,-4.684522449970245361e-01,-5.902985930442810059e-01,3.174740076065063477e-01,4.142256379127502441e-01,1.188691034913063049e-01,4.977494478225708008e-01,-1.620073020458221436e-01,4.596172273159027100e-02,-4.186353087425231934e-01,-4.831576347351074219e-01
-1.003784313797950745e-02,5.150109902024269104e-02,-5.909050628542900085e-02,-7.840631902217864990e-02,-6.270481646060943604e-02,-8.924657106399536133e-02,8.889407664537429810e-02,-7.965873181819915771e-02,1.755829155445098877e-01,-1.832996495068073273e-02,-1.112254858016967773e-01,5.987234413623809814e-02,-8.153492212295532227e-02,4.380020312964916229e-03,-3.725180774927139282e-02,1.427349746227264404e-01,6.367713212966918945e-02,-7.691439986228942871e-02,7.355400174856185913e-02,1.752981096506118774e-01,5.841283872723579407e-02,-2.585219778120517731e-02,1.859647780656814575e-01,2.952463109977543354e-04,-3.749569412320852280e-03,-1.267517507076263428e-01,1.105412468314170837e-02,-1.588362269103527069e-02,-1.976902931928634644e-01,-1.777369230985641479e-01,1.915380060672760010e-01,4.540707543492317200e-02,-8.530965447425842285e-02,-1.626449525356292725e-01,5.463279783725738525e-02,3.588306158781051636e-02,-6.936173886060714722e-02,8.730313926935195923e-02,-1.382594555616378784e-01,-6.662020832300186157e-02,-1.149949654936790466e-01,-6.933159381151199341e-02,2.289342880249023438e-02,6.640200968831777573e-03,4.914643708616495132e-03,-2.007083147764205933e-01,4.674850031733512878e-02,5.362769961357116699e-02,-1.079338639974594116e-01,-4.804690554738044739e-02,-6.232376024127006531e-02,-1.913441121578216553e-01,-9.093251824378967285e-02,2.119102515280246735e-02,1.473694145679473877e-01,-2.336906269192695618e-02,1.386613100767135620e-01,-8.344057947397232056e-02,-1.100024357438087463e-01,-1.828209459781646729e-01,-1.090763956308364868e-01,1.820886433124542236e-01,-8.587319403886795044e-02,1.500299870967864990e-01,9.967699646949768066e-02,-1.255448162555694580e-01,-4.368861764669418335e-02,-9.859709069132804871e-03,-1.841240674257278442e-01,-6.031495332717895508e-02,-2.039564400911331177e-02,1.302168518304824829e-01,-1.083767190575599670e-01,-8.116710186004638672e-02,1.711034588515758514e-02,-7.939618825912475586e-02,-2.098722904920578003e-01,1.086387131363153458e-02,5.930734053254127502e-02,-3.562038391828536987e-02,1.995227038860321045e-01,-2.936275675892829895e-02,-1.036297343671321869e-02,8.106765896081924438e-02,-1.668417304754257202e-01,2.018160559237003326e-02,1.393358558416366577e-01,-1.939753443002700806e-02,5.881092324852943420e-02,-1.632480770349502563e-01,-1.509432047605514526e-01,1.291128098964691162e-01,-2.663255110383033752e-02,-8.018702268600463867e-02,-1.568662226200103760e-01,-2.058572918176651001e-01,-9.320485591888427734e-02,-8.981192857027053833e-02,-2.580226957798004150e-02,9.057758003473281860e-02,1.622741073369979858e-01,-1.944388896226882935e-01,-2.416220307350158691e-02,-1.524436566978693008e-02,-1.205794885754585266e-01,4.024728760123252869e-02,-7.557422667741775513e-02,-2.020630687475204468e-01,4.031561315059661865e-02,-1.293911039829254150e-01,1.118523627519607544e-01,2.634696662425994873e-02,-6.224347278475761414e-02,-1.010150089859962463e-01,-1.844103932380676270e-01,-4.754230752587318420e-02,-1.282138377428054810e-01,-1.627996116876602173e-01,1.663314402103424072e-01,-5.490336567163467407e-02,1.915860325098037720e-01,1.026274934411048889e-01,-6.616163998842239380e-02,3.467668220400810242e-02,5.482048541307449341e-02,-8.811444044113159180e-02,1.020160019397735596e-01,1.545344591140747070e-01
-5.084796994924545288e-02,-1.800355017185211182e-01,8.970066905021667480e-02,1.746614277362823486e-01,-6.604132801294326782e-02,1.987160891294479370e-01,1.281806081533432007e-01,1.538240611553192139e-01,2.321123890578746796e-02,-1.887385174632072449e-02,-6.733517348766326904e-02,3.355971723794937134e-02,-2.788133919239044189e-02,5.469120666384696960e-02,-6.174048408865928650e-02,-1.976242810487747192e-01,-8.592746406793594360e-02,2.194653451442718506e-02,3.441439196467399597e-02,1.898996978998184204e-01,2.052962630987167358e-01,-1.940908879041671753e-01,-9.064678847789764404e-02,-1.752526015043258667e-01,1.829825639724731445e-01,-2.110072225332260132e-01,-3.923156857490539551e-02,4.022622480988502502e-02,-8.686351776123046875e-02,-7.691136747598648071e-02,-3.534343466162681580e-02,4.361728671938180923e-03,-1.664916425943374634e-01,6.143710017204284668e-02,7.873939722776412964e-02,3.952959924936294556e-02,1.559450179338455200e-01,-2.397348545491695404e-02,-2.046359479427337646e-01,-2.017380297183990479e-01,2.385483682155609131e-02,2.028985619544982910e-01,4.349176958203315735e-02,-6.021574139595031738e-02,-9.739165753126144409e-02,-6.562527269124984741e-02,-1.798346489667892456e-01,1.419165581464767456e-01,-1.558350324630737305e-01,-1.363514512777328491e-01,5.669861659407615662e-02,-1.577523946762084961e-01,1.961760371923446655e-01,2.017017155885696411e-01,-9.021046757698059082e-02,6.154261529445648193e-02,6.944335252046585083e-02,1.555020362138748169e-01,1.321594566106796265e-01,1.932394951581954956e-01,-1.280632913112640381e-01,8.054953068494796753e-02,3.040070272982120514e-02,8.110173977911472321e-03,-1.787094771862030029e-01,-5.706778168678283691e-02,-3.551534563302993774e-02,-4.418431594967842102e-02,-4.513970576226711273e-03,-7.714754343032836914e-02,1.973057985305786133e-01,1.068768501281738281e-01,7.963643409311771393e-03,-4.915700107812881470e-02,-3.334388881921768188e-02,1.617127954959869385e-01,-1.688537299633026123e-01,-7.319346815347671509e-02,8.146001398563385010e-02,6.068813055753707886e-02,-3.987566754221916199e-02,-1.289457231760025024e-01,-1.566656380891799927e-01,1.536004096269607544e-01,-1.218613088130950928e-01,4.833495244383811951e-02,7.903999648988246918e-03,-1.112904921174049377e-01,-2.111518830060958862e-01,-1.381605565547943115e-01,-1.284313350915908813e-01,-1.395069295540452003e-03,3.376278653740882874e-02,1.535919755697250366e-01,1.421525180339813232e-01,-7.278413325548171997e-02,1.929971873760223389e-01,5.167365819215774536e-02,-1.850026845932006836e-01,5.276266485452651978e-02,-6.835082918405532837e-02,9.245686233043670654e-02,-5.393633991479873657e-02,1.944609358906745911e-02,-3.722807019948959351e-02,-3.259935602545738220e-02,2.112528383731842041e-01,1.712243445217609406e-02,-7.372649013996124268e-02,-1.428604573011398315e-01,-2.867945097386837006e-02,4.262514412403106689e-02,4.436725005507469177e-02,-7.355421781539916992e-02,8.788982778787612915e-02,-7.001336663961410522e-02,-1.753820031881332397e-01,1.764089763164520264e-01,-2.092906832695007324e-02,4.330126941204071045e-02,3.832561895251274109e-02,1.872342973947525024e-01,-1.071709915995597839e-01,1.096317991614341736e-01,1.423979736864566803e-02,9.966484270989894867e-03,6.126013025641441345e-02,-1.378680951893329620e-02
1.695634983479976654e-02,-1.262549608945846558e-01,6.919934600591659546e-02,6.850671023130416870e-02,-1.691728234291076660e-01,-5.183912813663482666e-02,1.276683658361434937e-01,1.169835552573204041e-01,-2.417698353528976440e-01,-1.764177344739437103e-02,6.971795856952667236e-02,-4.850388690829277039e-02,-1.641898006200790405e-01,-6.805191189050674438e-02,8.808712661266326904e-02,-2.353144735097885132e-01,9.479223936796188354e-02,-6.114709749817848206e-02,-3.506504744291305542e-02,-4.792036116123199463e-02,1.308779418468475342e-01,-1.186669394373893738e-01,-3.809460252523422241e-02,-4.466669633984565735e-02,-5.141793191432952881e-02,-1.323680281639099121e-01,4.795450717210769653e-02,-6.404808163642883301e-02,-1.808596849441528320e-01,-3.322586417198181152e-03,3.772086650133132935e-02,-1.060331463813781738e-01,-1.188663467764854431e-01,3.324427083134651184e-02,-2.875180914998054504e-02,8.099743723869323730e-02,2.019770070910453796e-02,1.975349709391593933e-02,-1.603471934795379639e-01,-1.580139994621276855e-02,-3.554559871554374695e-02,1.185960695147514343e-01,-1.672557741403579712e-01,-1.502531766891479492e-02,-1.677838265895843506e-01,2.595207653939723969e-02,-8.670695871114730835e-02,-7.863286137580871582e-02,-3.624565154314041138e-02,-1.798206418752670288e-01,4.833300784230232239e-02,-9.438744187355041504e-02,-2.267630957067012787e-02,2.130965590476989746e-01,3.282769396901130676e-02,-2.072408348321914673e-01,1.125781759619712830e-01,1.256465315818786621e-01,5.462693050503730774e-03,-7.263830304145812988e-02,6.570034474134445190e-02,2.032870948314666748e-01,-1.822526752948760986e-01,1.560693681240081787e-01,-1.952388286590576172e-01,-1.140419095754623413e-01,9.223244339227676392e-02,-1.738241314888000488e-01,-6.101910490542650223e-03,9.259925782680511475e-02,8.291994221508502960e-03,-2.752956748008728027e-02,3.839644417166709900e-02,-5.516569595783948898e-03,5.072973296046257019e-02,2.900210581719875336e-02,-1.692547798156738281e-01,-1.664780527353286743e-01,6.641539186239242554e-02,-2.404201589524745941e-02,6.328655779361724854e-02,-1.461053341627120972e-01,-1.053784713149070740e-01,7.324304431676864624e-02,3.323704376816749573e-02,-1.480159461498260498e-01,1.014638319611549377e-01,-2.812420763075351715e-02,-1.816844493150711060e-01,9.112942963838577271e-02,1.825620792806148529e-02,8.049140125513076782e-02,-3.736478835344314575e-02,1.597779989242553711e-01,3.099014237523078918e-02,3.112983703613281250e-02,7.700160890817642212e-02,2.667793771252036095e-03,3.597819805145263672e-02,5.609835311770439148e-02,1.882099807262420654e-01,-6.460347771644592285e-02,5.507224425673484802e-02,-3.933185711503028870e-02,-2.153559029102325439e-01,3.158422932028770447e-02,-5.241050571203231812e-02,-5.831341445446014404e-02,5.478007253259420395e-03,-3.674758598208427429e-02,6.312577426433563232e-02,-5.212607607245445251e-02,6.659783422946929932e-02,-1.946963816881179810e-01,-1.923127621412277222e-01,-1.292909383773803711e-01,5.495960265398025513e-02,-3.371832519769668579e-02,1.577725857496261597e-01,3.500585630536079407e-02,2.062715440988540649e-01,-7.011964917182922363e-02,9.423980955034494400e-04,2.300547212362289429e-01,-1.484153568744659424e-01,-3.427157644182443619e-03,-3.638755157589912415e-02,1.064685732126235962e-01
-7.791584730148315430e-02,1.737401485443115234e-01,5.089135169982910156e-01,5.246105194091796875e-01,1.475513100624084473e+00,3.084797859191894531e-01,3.901639580726623535e-02,1.082102179527282715e+00,-4.314633011817932129e-01,-5.297949910163879395e-01,-2.904100418090820312e-01,-5.524482131004333496e-01,-8.523856401443481445e-01,4.815177917480468750e-01,-1.744486689567565918e-01,5.701152086257934570e-01,-8.508390188217163086e-02,1.094899773597717285e+00,-1.584386825561523438e-02,8.761049509048461914e-01,1.352026313543319702e-01,1.905684769153594971e-01,-7.094424962997436523e-01,2.791634202003479004e-01,1.246616914868354797e-01,-4.981469511985778809e-01,1.175721064209938049e-01,-6.115288287401199341e-02,2.016819715499877930e-01,6.150467395782470703e-01,-2.443038225173950195e-01,2.909334003925323486e-01,4.984425604343414307e-01,1.123410344123840332e+00,-2.925070524215698242e-01,-3.019696176052093506e-01,3.959193527698516846e-01,-2.021887302398681641e-01,5.871502757072448730e-01,-8.677617311477661133e-01,-1.799697242677211761e-02,5.114129185676574707e-01,8.965435624122619629e-01,6.513346433639526367e-01,-1.306909680366516113e+00,9.051585942506790161e-02,-1.063956171274185181e-01,8.819347620010375977e-01,-2.336504459381103516e-01,5.630366206169128418e-01,1.697116196155548096e-01,3.092227280139923096e-01,2.071084231138229370e-01,8.673906326293945312e-01,-7.300736755132675171e-02,4.624441564083099365e-01,-4.436524584889411926e-02,1.605992764234542847e-01,2.094999141991138458e-02,-3.237911760807037354e-01,-2.157244682312011719e-01,-8.538370132446289062e-01,-1.834875941276550293e-01,6.814625114202499390e-02,4.006948173046112061e-01,5.901150703430175781e-01,4.804583191871643066e-01,3.372674286365509033e-01,1.848354935646057129e-02,8.404139280319213867e-01,-1.020012736320495605e+00,3.873278945684432983e-02,-4.179542660713195801e-01,-9.898028969764709473e-01,2.003611326217651367e-01,1.435389369726181030e-01,-8.815082162618637085e-02,4.170978963375091553e-01,1.798515617847442627e-01,1.056741118431091309e+00,-2.346513047814369202e-02,-1.493451952934265137e+00,-7.462260127067565918e-02,-2.188099175691604614e-01,6.820788383483886719e-01,5.088756084442138672e-01,3.350538313388824463e-01,1.102295815944671631e-01,8.869498968124389648e-02,-4.643945693969726562e-01,-6.487672924995422363e-01,-5.506468415260314941e-01,-3.865996301174163818e-01,6.736092567443847656e-01,-3.402871191501617432e-01,5.133335590362548828e-01,7.855307310819625854e-02,-6.684794425964355469e-01,7.628796696662902832e-01,4.031410217285156250e-01,5.365594848990440369e-02,-3.478044569492340088e-01,4.378994405269622803e-01,2.483882904052734375e-01,-1.965993046760559082e-01,3.017677962779998779e-01,1.514980494976043701e-01,-4.108119904994964600e-01,-6.284273862838745117e-01,1.616151928901672363e-01,-1.263339281082153320e+00,1.024114370346069336e+00,2.619253695011138916e-01,4.271532595157623291e-01,6.648033857345581055e-02,-6.264277696609497070e-01,9.770163893699645996e-02,4.758464992046356201e-01,3.610337376594543457e-01,8.889718651771545410e-01,-2.268908917903900146e-01,-1.235356405377388000e-01,6.540858745574951172e-02,-8.775182962417602539e-01,6.165175437927246094e-01,3.265304863452911377e-01,-8.977391719818115234e-01,-2.094851136207580566e-01
-3.827009797096252441e-01,-1.026719808578491211e+00,-2.740936912596225739e-02,5.631033778190612793e-01,-7.574351429939270020e-01,1.113415062427520752e-01,-2.300055772066116333e-01,2.300504893064498901e-01,1.418226361274719238e-01,4.013953506946563721e-01,1.293820589780807495e-01,-1.218474209308624268e-01,-3.776601254940032959e-01,-3.741950690746307373e-01,4.984439611434936523e-01,-2.067002505064010620e-01,-5.009949803352355957e-01,3.953268378973007202e-02,-5.668256282806396484e-01,2.085737511515617371e-02,-3.427843153476715088e-01,-2.074716538190841675e-01,-5.728610754013061523e-01,-1.545608937740325928e-01,-5.913206338882446289e-01,6.605640053749084473e-02,7.488470058888196945e-03,1.835120022296905518e-01,-6.595786809921264648e-01,5.652711391448974609e-01,8.415339887142181396e-02,-1.983236521482467651e-01,8.113926053047180176e-01,3.273410499095916748e-01,3.645974695682525635e-01,5.175818204879760742e-01,-4.177089631557464600e-01,-3.217685222625732422e-02,-5.961911082267761230e-01,6.110832095146179199e-01,2.364209443330764771e-01,-4.043281376361846924e-01,-4.245334267616271973e-01,-6.285472512245178223e-01,-3.436799049377441406e-01,-4.865815937519073486e-01,-7.134766578674316406e-01,6.521287560462951660e-01,-2.286942899227142334e-01,-6.326047182083129883e-01,2.870024368166923523e-02,-5.421220064163208008e-01,-4.714612662792205811e-01,4.329638779163360596e-01,6.381316184997558594e-01,3.893548995256423950e-02,-7.741129398345947266e-02,2.167791873216629028e-01,7.186706662178039551e-01,2.781994044780731201e-01,1.528371274471282959e-01,2.549822330474853516e-01,-5.082478523254394531e-01,-7.628893256187438965e-01,-3.673128783702850342e-02,4.778015315532684326e-01,2.205760478973388672e-01,-1.449544727802276611e-01,1.737750470638275146e-01,-3.826197683811187744e-01,8.841287493705749512e-01,8.230338245630264282e-02,-7.144911885261535645e-01,6.061071753501892090e-01,-3.410660326480865479e-01,8.649323135614395142e-02,-1.779957264661788940e-01,2.233303040266036987e-01,-7.974559664726257324e-01,6.136358156800270081e-02,-2.389109879732131958e-01,-5.142734646797180176e-01,1.577009409666061401e-01,-4.576672241091728210e-02,-3.050682544708251953e-01,-5.645669698715209961e-01,-1.944297403097152710e-01,-2.634434998035430908e-01,2.273275516927242279e-02,1.112628132104873657e-01,-1.161480769515037537e-01,1.125563263893127441e+00,1.811316460371017456e-01,-4.616865217685699463e-01,-7.873876392841339111e-02,-5.491406917572021484e-01,7.377151250839233398e-01,8.427301049232482910e-01,-5.493272542953491211e-01,6.707268953323364258e-02,5.270507931709289551e-01,1.048346534371376038e-01,-1.157820463180541992e+00,1.432513594627380371e-01,1.789248287677764893e-01,-4.354997575283050537e-01,2.274049073457717896e-01,5.234795212745666504e-01,-5.626834034919738770e-01,1.932072192430496216e-01,5.143232941627502441e-01,5.629831925034523010e-02,4.885977208614349365e-01,1.260024458169937134e-01,4.302469193935394287e-01,-5.330334976315498352e-02,3.874223530292510986e-01,-7.591360807418823242e-01,1.392630696296691895e+00,8.424229621887207031e-01,-4.025611579418182373e-01,-9.268512725830078125e-01,-2.268246412277221680e-01,8.261138796806335449e-01,6.393662095069885254e-01,-2.832366824150085449e-01,7.054997086524963379e-01,1.756903380155563354e-01
6.864888966083526611e-02,2.884082496166229248e-02,-5.032203719019889832e-02,6.690588593482971191e-02,-1.905344612896442413e-02,2.064469605684280396e-01,-8.774893730878829956e-02,-1.003970727324485779e-01,7.356002926826477051e-02,-2.796815522015094757e-02,5.041728168725967407e-02,1.088204979896545410e-02,-1.055693030357360840e-01,1.962778717279434204e-01,1.731796562671661377e-01,2.193154245615005493e-01,3.610100597143173218e-02,-6.726698949933052063e-03,2.341421693563461304e-02,1.232366040349006653e-01,1.966566443443298340e-01,-1.118608489632606506e-01,2.060827612876892090e-01,-1.164780408143997192e-01,2.066942453384399414e-01,-1.072862073779106140e-01,-1.055266261100769043e-01,-4.348674323409795761e-03,-7.248742133378982544e-02,-1.647955924272537231e-02,-4.756428301334381104e-02,1.774457842111587524e-01,1.695075631141662598e-01,-1.352194845676422119e-01,-6.836103647947311401e-02,1.797926276922225952e-01,1.020367592573165894e-01,3.227063268423080444e-02,-1.902298331260681152e-01,7.794736325740814209e-02,-1.176457107067108154e-01,-1.298926863819360733e-02,5.171998590230941772e-02,6.917901337146759033e-02,-1.302160769701004028e-01,5.250409245491027832e-02,-1.706738173961639404e-01,5.180365219712257385e-02,-8.736616373062133789e-02,-1.353627592325210571e-01,-1.185171604156494141e-01,-4.190181195735931396e-02,-9.975603222846984863e-02,-6.707607209682464600e-02,-8.688127249479293823e-02,-6.129717081785202026e-02,1.912208348512649536e-01,-6.381160765886306763e-02,8.382733911275863647e-02,-3.324927762150764465e-02,4.045252129435539246e-02,1.836190372705459595e-02,4.117156192660331726e-02,1.657121330499649048e-01,-1.575100570917129517e-01,-2.039329409599304199e-01,1.897365599870681763e-01,-1.203681752085685730e-01,4.746861010789871216e-02,5.184231698513031006e-02,-5.073338747024536133e-02,5.346322432160377502e-02,7.086682016961276531e-04,1.774476170539855957e-01,1.379644274711608887e-01,-5.887044221162796021e-02,-8.114495873451232910e-02,3.565885871648788452e-02,-6.873089820146560669e-02,9.407108277082443237e-02,-4.475682601332664490e-02,2.000553905963897705e-02,-8.460092544555664062e-02,1.288980096578598022e-01,-1.222451329231262207e-01,7.661794126033782959e-02,1.783443987369537354e-01,-2.607486769556999207e-02,-1.134714484214782715e-01,-1.182119771838188171e-01,-1.949869692325592041e-01,8.507033437490463257e-02,-1.461001634597778320e-01,6.073638051748275757e-02,3.020164929330348969e-02,1.280341576784849167e-02,1.514232605695724487e-01,-8.868523687124252319e-02,4.864580184221267700e-02,1.054196059703826904e-02,-1.172861754894256592e-01,-2.081622183322906494e-01,-6.307829916477203369e-02,-1.225793641060590744e-02,-6.008959561586380005e-02,7.347841560840606689e-02,-7.223248481750488281e-02,3.409260883927345276e-02,1.269509345293045044e-01,-1.888392567634582520e-01,-3.086271462962031364e-03,-2.940567024052143097e-02,-1.124861836433410645e-01,7.576906681060791016e-02,-1.370859742164611816e-01,-1.913812905550003052e-01,5.296859890222549438e-02,4.005031287670135498e-02,-5.147249251604080200e-02,2.859877981245517731e-02,5.856098234653472900e-02,8.654148131608963013e-02,9.517846256494522095e-02,1.953898519277572632e-01,-3.317570686340332031e-02,9.009705972857773304e-04,1.037409529089927673e-01,8.815146982669830322e-02
-3.033425211906433105e-01,-5.127469897270202637e-01,-1.863937675952911377e-01,7.044234126806259155e-02,1.467272490262985229e-01,1.873192936182022095e-01,7.946228981018066406e-02,-1.009663701057434082e+00,8.517581820487976074e-01,4.670752584934234619e-01,-1.084063649177551270e+00,-5.526168942451477051e-01,-4.395450279116630554e-02,-3.517145514488220215e-01,3.444406688213348389e-01,-1.036833375692367554e-01,-4.267446696758270264e-01,-4.524752032011747360e-03,3.575890362262725830e-01,5.851189494132995605e-01,-7.513127326965332031e-01,6.228115782141685486e-02,-3.103636503219604492e-01,8.254656791687011719e-01,-8.782973289489746094e-01,5.201056599617004395e-02,6.177769899368286133e-01,2.859253287315368652e-01,-6.383570432662963867e-01,4.946337938308715820e-01,5.114728584885597229e-02,1.634705364704132080e-01,1.036572098731994629e+00,6.552234292030334473e-01,3.436973690986633301e-01,-7.332174181938171387e-01,6.790171265602111816e-01,7.350248694419860840e-01,-1.083982229232788086e+00,-1.027680188417434692e-01,3.870400786399841309e-02,-6.047678589820861816e-01,-7.186114192008972168e-01,-3.253381848335266113e-01,3.931573033332824707e-01,2.189480513334274292e-01,1.224932074546813965e+00,-9.234381318092346191e-01,-5.480530858039855957e-01,3.191161453723907471e-01,-2.529364228248596191e-01,-2.458272725343704224e-01,-5.904096364974975586e-01,9.281459450721740723e-01,5.412725731730461121e-02,-4.044341742992401123e-01,-4.495193660259246826e-01,8.263328671455383301e-02,1.063666462898254395e+00,4.362384676933288574e-01,-5.091643929481506348e-01,3.974660336971282959e-01,9.211334586143493652e-02,-5.047742724418640137e-01,4.610076546669006348e-01,-4.022697806358337402e-01,-9.196957349777221680e-01,-5.038889646530151367e-01,-2.825340628623962402e-02,-3.764915168285369873e-01,4.340755045413970947e-01,1.247027993202209473e+00,3.345843553543090820e-01,1.788088828325271606e-01,-9.010188579559326172e-01,-2.682837247848510742e-01,-9.798682928085327148e-01,-3.936593830585479736e-01,-5.041962862014770508e-01,-6.477190256118774414e-01,-2.651487290859222412e-01,3.625646829605102539e-01,-3.581379055976867676e-01,-3.411608934402465820e-01,-4.874806404113769531e-01,3.439462482929229736e-01,5.583935379981994629e-01,8.523983508348464966e-02,1.581393778324127197e-01,-2.203759700059890747e-01,2.212291955947875977e-01,1.307194352149963379e+00,3.405234515666961670e-01,-3.935470432043075562e-02,1.402079034596681595e-02,-2.820923626422882080e-01,2.560749650001525879e-01,5.809032320976257324e-01,5.457096099853515625e-01,2.661840021610260010e-01,3.001997172832489014e-01,3.098866939544677734e-01,-7.763154506683349609e-01,1.191950678825378418e+00,2.955609187483787537e-02,-3.628814816474914551e-01,4.535383358597755432e-02,-6.848835945129394531e-01,1.535386919975280762e+00,-8.612995594739913940e-02,1.915291994810104370e-01,5.588112473487854004e-01,8.843404650688171387e-01,2.171655595302581787e-01,1.027604863047599792e-01,6.222655177116394043e-01,-2.977897822856903076e-01,6.857951879501342773e-01,-2.863939478993415833e-02,-1.464078724384307861e-01,-1.764474436640739441e-02,-1.207404375076293945e+00,-6.168889403343200684e-01,3.008583188056945801e-01,-5.315371751785278320e-01,3.112318813800811768e-01,-5.213519558310508728e-02,7.017999887466430664e-01
3.552897870540618896e-01,-3.736591339111328125e-01,1.525126844644546509e-01,3.502511978149414062e-01,5.198225975036621094e-01,4.653529077768325806e-02,-1.165159493684768677e-01,2.650318741798400879e-01,2.378704547882080078e-01,-3.305363357067108154e-01,3.226648569107055664e-01,2.467356771230697632e-01,6.467534303665161133e-01,1.971792727708816528e-01,-4.722155630588531494e-01,4.953384995460510254e-01,-6.477997899055480957e-01,1.196221914142370224e-02,-3.254298269748687744e-01,-5.990172624588012695e-01,-2.077255696058273315e-01,-2.039121389389038086e-01,2.454311549663543701e-01,-1.247474402189254761e-01,7.109231352806091309e-01,-1.293364912271499634e-01,1.185450255870819092e-01,-2.883851826190948486e-01,-4.497568309307098389e-01,5.405063033103942871e-01,-7.761730253696441650e-02,6.050359010696411133e-01,-8.077185600996017456e-02,-4.064443334937095642e-02,1.560042798519134521e-01,2.953589260578155518e-01,-5.104628205299377441e-01,4.527018070220947266e-01,7.482998371124267578e-01,4.589048679918050766e-03,3.071090579032897949e-01,3.739988505840301514e-01,3.354088068008422852e-01,1.135997772216796875e-01,2.083771675825119019e-02,-4.311788976192474365e-01,2.215693145990371704e-01,5.737035274505615234e-01,-6.917916238307952881e-02,-1.721887737512588501e-01,-1.964345872402191162e-01,-9.405557811260223389e-02,2.845263481140136719e-01,-4.339082241058349609e-01,-4.166610240936279297e-01,-2.395054250955581665e-01,-1.456371415406465530e-02,-3.376446962356567383e-01,-7.338497042655944824e-01,4.539583027362823486e-01,9.248571842908859253e-02,5.142307877540588379e-01,2.292865663766860962e-01,-7.643055170774459839e-02,-2.095350772142410278e-01,-1.897678226232528687e-01,1.661856025457382202e-01,-8.170344829559326172e-01,-4.367751777172088623e-01,-9.883810579776763916e-02,-2.102521359920501709e-01,-3.761681914329528809e-01,5.511279106140136719e-01,-3.367366492748260498e-01,2.483244389295578003e-01,1.029615402221679688e-01,2.429222911596298218e-01,-2.141147702932357788e-01,-4.015558362007141113e-01,-6.939738392829895020e-01,-4.118108153343200684e-01,2.749483585357666016e-01,-9.874426573514938354e-02,2.755495719611644745e-02,9.025929123163223267e-02,6.754140555858612061e-02,-2.362161576747894287e-01,4.917500913143157959e-01,-7.907411054475232959e-05,-6.989987567067146301e-03,-2.953332960605621338e-01,-6.495917588472366333e-02,4.222207963466644287e-01,2.455287277698516846e-01,2.318204045295715332e-01,9.476982951164245605e-01,-3.252150714397430420e-01,5.574434399604797363e-01,-8.431861996650695801e-01,6.297351717948913574e-01,-5.864204168319702148e-01,1.039828434586524963e-01,-7.298553735017776489e-02,1.985836774110794067e-01,3.262360394001007080e-01,-2.957410514354705811e-01,-2.486854195594787598e-01,-8.790552616119384766e-01,1.097614049911499023e+00,3.281296789646148682e-01,2.142693288624286652e-02,-5.083221197128295898e-01,-8.727766275405883789e-01,-1.772218793630599976e-01,-2.549062669277191162e-01,-4.244362711906433105e-01,-8.146242052316665649e-02,8.277628570795059204e-02,3.163537979125976562e-01,2.633187174797058105e-01,-8.171828091144561768e-02,-3.387999236583709717e-01,9.227646887302398682e-02,3.032677471637725830e-01,4.396883398294448853e-02,-9.363798052072525024e-02,3.962988555431365967e-01,3.124844133853912354e-01
1.808397620916366577e-01,-7.027786970138549805e-02,1.722211539745330811e-01,2.000173330307006836e-01,2.967689186334609985e-02,5.316945165395736694e-02,6.916933506727218628e-02,8.219112455844879150e-02,2.564951218664646149e-02,-1.030851304531097412e-01,1.919607967138290405e-01,1.936075836420059204e-02,-1.570342481136322021e-01,-1.449096351861953735e-01,-3.489632508717477322e-04,5.980490893125534058e-02,1.429156586527824402e-02,-2.002194374799728394e-01,5.635024234652519226e-02,2.403121814131736755e-02,6.060683727264404297e-02,-1.239348128437995911e-01,1.797112375497817993e-01,-7.932754606008529663e-02,2.047028541564941406e-01,-1.043554916977882385e-01,3.378404676914215088e-02,-6.191348657011985779e-02,2.131023854017257690e-01,-1.664043217897415161e-01,3.373308852314949036e-02,-9.496389888226985931e-03,7.539226859807968140e-02,-1.495227664709091187e-01,7.696054875850677490e-02,1.759922504425048828e-01,7.245764881372451782e-02,-5.769595969468355179e-03,-1.516681462526321411e-01,6.472715642303228378e-03,-5.638852715492248535e-02,-3.310216963291168213e-02,-3.769347071647644043e-02,1.484327111393213272e-02,-2.001804113388061523e-01,-4.156130552291870117e-02,-6.704737246036529541e-02,3.593499958515167236e-02,1.504106819629669189e-02,-3.747657686471939087e-02,3.485254198312759399e-02,-7.103005796670913696e-02,4.577795043587684631e-02,1.640543490648269653e-01,6.832563877105712891e-02,-1.194718480110168457e-01,-6.456705927848815918e-02,3.204023092985153198e-02,1.202087290585041046e-02,3.134723752737045288e-02,-1.315057724714279175e-01,-9.100877493619918823e-02,-2.020920366048812866e-01,1.014086008071899414e-01,4.059655964374542236e-02,2.359989099204540253e-02,5.086441710591316223e-02,-3.937826305627822876e-02,6.718267500400543213e-02,3.639526665210723877e-02,-1.078212335705757141e-01,7.984289526939392090e-02,-1.658126860857009888e-01,5.064496025443077087e-02,2.992378361523151398e-02,-5.225140135735273361e-03,8.545765280723571777e-02,-1.115211024880409241e-01,5.175388231873512268e-02,6.521489471197128296e-02,1.749497354030609131e-01,-1.760874092578887939e-01,-7.347062230110168457e-02,1.184670627117156982e-02,-1.892558485269546509e-01,-2.898555714637041092e-03,-6.384878419339656830e-03,-3.403210267424583435e-02,-1.588490009307861328e-01,-1.272957623004913330e-01,-4.591887816786766052e-02,4.257195629179477692e-03,5.664820596575737000e-02,-2.601560205221176147e-02,8.423725515604019165e-02,-1.639977246522903442e-01,-3.023298829793930054e-02,6.398300826549530029e-02,-1.291246265172958374e-01,-7.542164996266365051e-03,-7.572121918201446533e-02,2.708555757999420166e-02,1.445473730564117432e-01,8.227220922708511353e-02,3.623548895120620728e-02,-1.284770965576171875e-01,1.357426345348358154e-01,-2.128772065043449402e-02,7.694628834724426270e-02,-1.225154623389244080e-01,1.986903399229049683e-01,1.869807094335556030e-01,-5.237939953804016113e-02,-8.631166070699691772e-02,-1.925838589668273926e-01,8.279934525489807129e-02,-8.511342108249664307e-02,2.963549271225929260e-02,1.134644076228141785e-01,-3.565798327326774597e-02,3.819640353322029114e-02,-9.175362437963485718e-02,2.455747313797473907e-02,4.832138773053884506e-03,-8.524058759212493896e-02,-3.534447401762008667e-02,1.716330945491790771e-01,1.863059401512145996e-01
9.444093108177185059e-01,5.979092717170715332e-01,-4.108656942844390869e-01,1.322971731424331665e-01,-6.563214659690856934e-01,1.413789629936218262e+00,4.246606826782226562e-01,-1.553154349327087402e+00,2.468119263648986816e-01,4.163517057895660400e-01,3.141906261444091797e-01,1.826027780771255493e-01,6.128653287887573242e-01,-3.885708153247833252e-01,5.278398990631103516e-01,7.147834300994873047e-01,-1.420840859413146973e+00,-1.157328709959983826e-01,3.854081928730010986e-01,-2.912319898605346680e-01,2.531576156616210938e-01,-6.337004899978637695e-01,2.599573731422424316e-01,3.895269930362701416e-01,6.112965941429138184e-01,-2.657999694347381592e-01,-2.344249486923217773e-01,-7.370936870574951172e-02,1.867297440767288208e-01,4.866766035556793213e-01,5.088647603988647461e-01,5.481604933738708496e-01,-6.115165352821350098e-02,-3.082613945007324219e-01,7.833442687988281250e-01,-6.369208544492721558e-02,3.644836246967315674e-01,-5.945755243301391602e-01,-5.471017360687255859e-01,-7.838109731674194336e-01,7.913616895675659180e-01,-2.963551282882690430e-01,3.402433395385742188e-01,-9.140224754810333252e-02,6.988709568977355957e-01,-5.898914337158203125e-01,-1.635024696588516235e-01,-6.882838159799575806e-02,4.802799224853515625e-01,-3.885362148284912109e-01,-1.571678817272186279e-01,1.181980445981025696e-01,5.183076262474060059e-01,-1.160656735301017761e-01,7.126037478446960449e-01,4.552824795246124268e-02,4.034831374883651733e-02,-4.615105092525482178e-01,-4.826288223266601562e-01,-3.878802657127380371e-01,5.458179861307144165e-02,-2.557284533977508545e-01,-4.937371611595153809e-01,-6.119804382324218750e-01,-4.669341444969177246e-01,4.359353184700012207e-01,2.076561748981475830e-02,1.935922622680664062e+00,-3.070636391639709473e-01,6.377012468874454498e-03,-2.331072688102722168e-01,4.775565266609191895e-01,-4.262798130512237549e-01,9.611742943525314331e-02,-1.026256084442138672e-01,8.652421645820140839e-03,4.592522978782653809e-01,4.260589778423309326e-01,-1.077369570732116699e+00,9.153854846954345703e-01,-1.428079009056091309e-01,1.242928743362426758e+00,2.390263378620147705e-01,3.575187325477600098e-01,4.964404702186584473e-01,1.084440797567367554e-01,-2.142933607101440430e-01,-1.566380448639392853e-02,-2.478823624551296234e-02,8.011318743228912354e-02,6.694608330726623535e-01,-3.665127456188201904e-01,1.655532717704772949e-01,-8.519191741943359375e-01,1.853859573602676392e-01,-6.735134720802307129e-01,3.120104074478149414e-01,1.483439803123474121e-01,4.379630461335182190e-02,-2.923823893070220947e-01,-4.620417356491088867e-01,2.922642529010772705e-01,-1.905533522367477417e-01,2.706118859350681305e-02,-4.626101553440093994e-01,-3.642738983035087585e-02,7.130291312932968140e-02,1.395553443580865860e-02,-1.004619672894477844e-01,-3.187458813190460205e-01,2.507936060428619385e-01,-2.754974663257598877e-01,-4.642574489116668701e-01,-1.363222956657409668e+00,-4.268962144851684570e-01,-2.954469323158264160e-01,-1.867197901010513306e-01,8.105557560920715332e-01,-9.126422405242919922e-01,-2.953237295150756836e-02,3.084882199764251709e-01,-9.228458404541015625e-01,-1.535053998231887817e-01,-5.649317502975463867e-01,2.280995398759841919e-01,7.415710687637329102e-01,1.331544071435928345e-01,8.269638568162918091e-02
3.823734819889068604e-01,-6.723170876502990723e-01,2.834566235542297363e-01,3.512059450149536133e-01,-4.583748281002044678e-01,-1.107105612754821777e-01,-5.234103798866271973e-01,-1.779232174158096313e-01,3.392028212547302246e-01,1.497947573661804199e-01,-1.059804320335388184e+00,9.826086461544036865e-02,-5.307546257972717285e-01,3.080383539199829102e-01,-4.389911890029907227e-01,2.118035554885864258e-01,-8.179627656936645508e-01,-5.067344754934310913e-02,6.067369580268859863e-01,-3.384630680084228516e-01,-5.640726685523986816e-01,-6.427248716354370117e-01,-6.227758526802062988e-02,1.378224045038223267e-01,2.913075387477874756e-01,-3.348391056060791016e-01,5.324490070343017578e-01,1.976607739925384521e-01,-1.184927299618721008e-01,4.336048662662506104e-01,7.387875020503997803e-02,9.644795060157775879e-01,6.097116693854331970e-02,4.287628829479217529e-01,8.961982727050781250e-01,3.862254321575164795e-01,-1.882592737674713135e-01,7.547954916954040527e-01,-2.471617460250854492e-01,1.448634266853332520e-01,-1.598403155803680420e-01,-4.079785570502281189e-02,2.268570959568023682e-01,-9.944272041320800781e-01,3.295679390430450439e-01,2.926318347454071045e-02,5.730646252632141113e-01,4.335654377937316895e-01,-4.987776875495910645e-01,-1.747083812952041626e-01,1.290137693285942078e-02,-3.612985908985137939e-01,-1.471598446369171143e-01,-1.908000409603118896e-01,-6.328423619270324707e-01,-1.886112838983535767e-01,-9.178178906440734863e-01,-3.368808329105377197e-01,7.395121455192565918e-02,6.412684917449951172e-01,-1.756647378206253052e-01,9.808384776115417480e-01,2.711749970912933350e-01,-7.328180670738220215e-01,-5.482877492904663086e-01,-3.397605419158935547e-01,3.086631596088409424e-01,-5.676311254501342773e-01,5.164628028869628906e-01,-3.240084648132324219e-01,2.435150444507598877e-01,-6.416855454444885254e-01,7.182517647743225098e-01,4.235920011997222900e-01,-7.071027159690856934e-01,4.051150977611541748e-01,5.548999905586242676e-01,6.778543442487716675e-02,1.484727978706359863e+00,-6.150651574134826660e-01,-1.211852300912141800e-02,8.919698745012283325e-02,7.040154188871383667e-02,2.114961147308349609e-01,5.353282690048217773e-01,-4.059566259384155273e-01,4.910455271601676941e-02,2.869190275669097900e-01,-1.567281037569046021e-02,1.587746441364288330e-01,-3.147041499614715576e-01,-4.150066152215003967e-02,-3.421222269535064697e-01,7.614872455596923828e-01,-1.148926392197608948e-01,1.377309083938598633e+00,-5.883080363273620605e-01,-5.239708349108695984e-03,-1.187683105468750000e+00,4.218509048223495483e-02,-4.168190360069274902e-01,1.294364780187606812e-01,-8.965457975864410400e-02,8.441685140132904053e-02,3.167152106761932373e-01,-3.537746071815490723e-01,-2.426825463771820068e-02,-3.565738201141357422e-01,6.731554269790649414e-01,3.590194880962371826e-01,6.157910823822021484e-01,-3.656819164752960205e-01,6.773780286312103271e-02,-3.321530818939208984e-01,1.616148054599761963e-01,-1.172458305954933167e-01,1.065082252025604248e-01,2.897797822952270508e-01,-1.144064664840698242e+00,1.408913731575012207e-02,6.425560265779495239e-02,-3.344818353652954102e-01,7.812134921550750732e-02,4.953861236572265625e-01,-1.332604736089706421e-01,-3.890278935432434082e-02,7.887885719537734985e-02,5.507584214210510254e-01
-5.104256048798561096e-02,7.402307540178298950e-02,4.696238040924072266e-02,-1.050820276141166687e-01,1.435290277004241943e-01,8.963083475828170776e-02,8.224136382341384888e-02,-8.704245835542678833e-02,-1.304428875446319580e-01,-6.222160067409276962e-03,-4.744734242558479309e-02,1.190678104758262634e-01,-1.335402131080627441e-01,1.964714936912059784e-02,1.510842442512512207e-01,1.441392451524734497e-01,4.432969167828559875e-02,-7.133888453245162964e-02,3.583230823278427124e-02,1.375040411949157715e-01,1.222321018576622009e-01,5.077594518661499023e-02,1.284876912832260132e-01,1.451116651296615601e-01,-8.196575194597244263e-02,-4.222337156534194946e-02,-1.283691078424453735e-01,-5.595087632536888123e-02,5.810707435011863708e-02,7.001046091318130493e-02,-1.148485615849494934e-01,-1.122510209679603577e-01,-2.483440004289150238e-02,-9.657013416290283203e-02,-1.215112209320068359e-01,1.184627264738082886e-01,-8.906037360429763794e-02,-1.020755916833877563e-01,1.103341355919837952e-01,-3.394982591271400452e-02,-9.937380999326705933e-02,-3.796194866299629211e-02,1.986945513635873795e-03,1.421094238758087158e-01,-3.591343015432357788e-02,1.025210991501808167e-01,1.188378557562828064e-01,2.062298357486724854e-02,4.803990572690963745e-02,1.263599842786788940e-01,-3.448960930109024048e-02,6.970635801553726196e-02,-5.630826577544212341e-02,-5.896360427141189575e-02,-6.332314014434814453e-02,-4.513488709926605225e-02,-6.776930391788482666e-02,-1.416506469249725342e-01,3.883459791541099548e-02,7.326664775609970093e-02,-9.841359406709671021e-02,-8.098283410072326660e-02,3.804544359445571899e-02,1.140848472714424133e-01,-1.643124222755432129e-02,-1.306887567043304443e-01,-8.820415288209915161e-02,2.226408943533897400e-02,-7.045017927885055542e-02,-2.871800772845745087e-02,4.578096047043800354e-02,2.352540940046310425e-02,3.435371816158294678e-02,-1.168894693255424500e-01,-1.469130218029022217e-01,-1.369227766990661621e-01,-1.468945741653442383e-01,-1.192694008350372314e-01,-7.918325811624526978e-02,-1.440263241529464722e-01,4.452903568744659424e-02,-1.346873585134744644e-02,-3.614973276853561401e-02,1.318101137876510620e-01,-1.176699772477149963e-01,-1.520647257566452026e-01,-6.457661092281341553e-02,-9.398976340889930725e-03,-1.320021301507949829e-01,8.480995893478393555e-03,-5.493414402008056641e-02,-8.270595222711563110e-02,1.996039412915706635e-02,-1.343456208705902100e-01,-9.693124890327453613e-02,-5.904147773981094360e-02,-1.399970352649688721e-01,7.548907399177551270e-02,-4.017640277743339539e-02,1.250201612710952759e-01,-9.556908160448074341e-02,-6.997700780630111694e-02,1.415888220071792603e-02,-4.739496484398841858e-02,-1.073509529232978821e-01,7.309104502201080322e-02,-1.476560719311237335e-02,8.914452791213989258e-02,1.518563330173492432e-01,-1.145984604954719543e-01,1.119900494813919067e-02,-5.375354085117578506e-03,1.928541436791419983e-02,-2.134229429066181183e-02,-3.938115388154983521e-02,1.184659749269485474e-01,4.584722593426704407e-02,-1.437107771635055542e-01,-9.850384294986724854e-02,3.576835989952087402e-02,-1.064077913761138916e-01,-1.436397731304168701e-01,1.505124010145664215e-02,6.827738881111145020e-02,-1.017224192619323730e-01,-1.079441606998443604e-01,-4.319026321172714233e-02,-6.008972972631454468e-02
-8.521728962659835815e-02,-1.543432772159576416e-01,2.321686744689941406e-01,1.373926550149917603e-01,2.259614020586013794e-01,-7.293880581855773926e-01,-1.976176165044307709e-02,1.746926903724670410e-01,8.409712314605712891e-01,-5.082131028175354004e-01,5.563521385192871094e-01,-7.691724598407745361e-02,-4.176616668701171875e-01,-1.540707200765609741e-01,-1.513460576534271240e-01,3.193107843399047852e-01,4.787949025630950928e-01,2.128910571336746216e-01,1.911099553108215332e-01,-5.706760287284851074e-01,1.248389780521392822e-01,-6.074209213256835938e-01,3.207662999629974365e-01,1.002759695053100586e+00,2.568702399730682373e-01,1.565285325050354004e-01,1.210004985332489014e-01,5.898213014006614685e-03,-8.852076530456542969e-02,6.800302863121032715e-01,-1.526596210896968842e-02,-6.111519932746887207e-01,4.113891720771789551e-01,4.113053381443023682e-01,3.053291440010070801e-01,4.112450182437896729e-01,-1.443828791379928589e-01,-3.212341368198394775e-01,2.551789283752441406e-01,3.143256306648254395e-01,-2.245854288339614868e-01,-4.412707686424255371e-01,3.058252334594726562e-01,-1.969454288482666016e-01,4.171198979020118713e-02,-5.343364477157592773e-01,-4.260782599449157715e-01,3.690390288829803467e-01,1.683315187692642212e-01,8.101866841316223145e-01,1.858287602663040161e-01,-4.732195734977722168e-01,-1.881107091903686523e-01,3.960422053933143616e-02,2.389911711215972900e-01,2.013081014156341553e-01,1.441151648759841919e-01,2.220129668712615967e-01,7.592417597770690918e-01,2.970322072505950928e-01,2.221482545137405396e-01,-1.172190070152282715e+00,-5.809675902128219604e-02,1.603072583675384521e-01,1.077152371406555176e+00,1.021017432212829590e-01,3.105650842189788818e-01,3.664950430393218994e-01,-7.689376920461654663e-02,-1.604792624711990356e-01,8.884630352258682251e-02,5.347795039415359497e-02,3.556414246559143066e-01,-4.263288900256156921e-02,9.061697721481323242e-01,5.959678441286087036e-02,2.419987469911575317e-01,-6.037117168307304382e-02,-7.989962100982666016e-01,3.827346861362457275e-01,-4.008331298828125000e-01,-2.870475053787231445e-01,2.427254915237426758e-01,1.016623973846435547e-01,-6.428590416908264160e-01,-3.365128040313720703e-01,2.525993585586547852e-01,1.142471507191658020e-01,1.850304901599884033e-01,-6.712736934423446655e-02,-9.299708902835845947e-02,-4.995331466197967529e-01,-3.007961511611938477e-01,4.493197202682495117e-01,4.338430762290954590e-01,3.214196562767028809e-01,-4.981671571731567383e-01,3.249922767281532288e-02,-3.022881150245666504e-01,6.433404088020324707e-01,2.367680370807647705e-01,2.350307106971740723e-01,1.141433194279670715e-01,4.827269017696380615e-01,-4.646910354495048523e-02,-8.202508687973022461e-01,-9.730047732591629028e-02,-9.186946600675582886e-02,-9.448444843292236328e-01,1.134046092629432678e-01,-1.115900650620460510e-01,-2.080198079347610474e-01,-5.006839632987976074e-01,1.389320790767669678e-01,-2.232705056667327881e-01,-1.844621896743774414e-01,1.534626185894012451e-01,7.976936101913452148e-01,3.456950783729553223e-01,1.319806933403015137e+00,-2.920393347740173340e-01,-4.860570430755615234e-01,9.035632014274597168e-02,3.798027336597442627e-02,3.016898930072784424e-01,-2.186589241027832031e-01,-1.312806010246276855e-01,-3.727291896939277649e-02
7.694922089576721191e-01,-1.513874053955078125e+00,-1.999947726726531982e-01,8.016983270645141602e-01,-5.603791475296020508e-01,-1.878387182950973511e-01,8.916670680046081543e-01,-1.303249716758728027e+00,3.202426731586456299e-01,5.683915019035339355e-01,-6.315572261810302734e-01,3.555707633495330811e-01,2.945867180824279785e-01,-9.018108844757080078e-01,5.201713442802429199e-01,2.308726310729980469e-03,8.839359283447265625e-01,-1.182817667722702026e-01,-5.261572599411010742e-01,2.625493705272674561e-01,2.840581834316253662e-01,1.307681202888488770e-01,7.645308971405029297e-01,1.361948102712631226e-01,3.365308642387390137e-01,-6.832475960254669189e-02,3.548349738121032715e-01,2.289921045303344727e-02,-4.423218965530395508e-01,-1.232613809406757355e-02,4.600977599620819092e-01,1.140940546989440918e+00,1.328956633806228638e-01,-2.829305827617645264e-01,8.770083785057067871e-01,-9.171984195709228516e-01,4.602684378623962402e-01,-4.357831776142120361e-01,-4.473962783813476562e-01,-2.977436780929565430e-02,1.259057074785232544e-01,-1.107702255249023438e+00,-3.905659914016723633e-01,8.225369453430175781e-01,2.013412117958068848e-01,-9.849284291267395020e-01,-5.122476816177368164e-01,5.218182802200317383e-01,-6.279307603836059570e-01,-1.017237156629562378e-01,-1.893880814313888550e-01,7.082305550575256348e-01,3.823304474353790283e-01,8.035040646791458130e-02,8.080403208732604980e-01,-5.232787132263183594e-01,8.319566249847412109e-01,2.310102730989456177e-01,-5.788386613130569458e-02,-9.041911363601684570e-01,-3.057870864868164062e-01,6.615827679634094238e-01,-6.712092757225036621e-01,-4.933618009090423584e-01,-3.477480411529541016e-01,3.200023472309112549e-01,1.286846548318862915e-01,2.561598420143127441e-01,5.217054486274719238e-01,-6.463846564292907715e-02,3.406956493854522705e-01,1.911553144454956055e-01,3.887687921524047852e-01,5.937811732292175293e-01,-6.190237998962402344e-01,-3.585047721862792969e-01,8.112082481384277344e-01,3.491933345794677734e-01,-1.867414414882659912e-01,-2.636035680770874023e-01,7.044197320938110352e-01,1.444225788116455078e+00,3.683176338672637939e-01,6.348995566368103027e-01,1.231029853224754333e-01,5.420455932617187500e-01,-6.259726732969284058e-02,1.449846386909484863e+00,-1.529275625944137573e-01,2.605842351913452148e-01,7.384167313575744629e-01,8.250963687896728516e-01,1.035021305084228516e+00,1.809902042150497437e-01,1.374801635742187500e+00,6.028637886047363281e-01,9.622371792793273926e-01,-8.376108407974243164e-01,6.734567284584045410e-01,3.684718310832977295e-01,-2.190899699926376343e-01,3.286526799201965332e-01,-3.200630545616149902e-01,4.862790107727050781e-01,1.142228484153747559e+00,8.620732277631759644e-02,-3.883588314056396484e-01,5.637421011924743652e-01,2.016748189926147461e+00,5.316970869898796082e-02,2.236287444829940796e-01,1.734660752117633820e-02,1.036242246627807617e-01,-2.457630783319473267e-01,1.822543442249298096e-01,8.646757602691650391e-01,2.464092895388603210e-02,5.130444169044494629e-01,-1.558123946189880371e+00,-1.374895125627517700e-01,5.621342658996582031e-01,-8.559898734092712402e-01,3.734124898910522461e-01,-5.237604957073926926e-03,6.304464340209960938e-01,1.687257587909698486e-01,-5.972453951835632324e-01,1.680649667978286743e-01
-2.910062111914157867e-02,9.329367429018020630e-02,1.368082463741302490e-01,5.117389559745788574e-02,-1.075301021337509155e-01,-4.945740103721618652e-02,3.180205076932907104e-02,8.927285671234130859e-02,-1.800843626260757446e-01,-6.624419987201690674e-02,6.237028166651725769e-02,-2.230016142129898071e-02,-1.726777851581573486e-01,-5.669338628649711609e-03,4.741607233881950378e-02,3.699427843093872070e-02,3.188932314515113831e-02,3.507395833730697632e-02,1.714062690734863281e-01,-2.398757962509989738e-03,7.390331476926803589e-02,-1.378176510334014893e-01,6.887355446815490723e-02,1.949342340230941772e-02,8.387331664562225342e-02,-2.492261677980422974e-02,-4.620952159166336060e-02,9.354089945554733276e-02,1.687231212854385376e-01,-7.426226884126663208e-02,6.178854499012231827e-03,-6.094788759946823120e-02,-7.041797786951065063e-02,1.514264964498579502e-03,-1.143505647778511047e-01,1.283529680222272873e-02,1.494871228933334351e-01,-6.184632703661918640e-02,4.367052391171455383e-02,-3.354830294847488403e-02,-4.979570955038070679e-02,-8.516059815883636475e-02,-1.084198355674743652e-01,-5.328110605478286743e-02,4.271469265222549438e-02,-1.210596188902854919e-01,4.755015671253204346e-02,-1.138488799333572388e-01,-1.362179666757583618e-01,5.581077188253402710e-02,-2.358877332881093025e-03,7.347401976585388184e-02,5.698731914162635803e-02,2.072924077510833740e-01,-1.069047451019287109e-01,-6.814155727624893188e-02,8.708474040031433105e-02,2.127221971750259399e-01,1.844083666801452637e-01,9.990203380584716797e-02,-7.928320765495300293e-02,4.035262018442153931e-02,-1.156579777598381042e-01,-4.936255887150764465e-02,2.944328263401985168e-02,-1.662628352642059326e-01,2.062443941831588745e-01,-1.977151781320571899e-01,8.016527444124221802e-02,8.724766224622726440e-02,1.601869761943817139e-01,-7.364211231470108032e-02,2.324331738054752350e-02,1.689322143793106079e-01,-1.607637107372283936e-02,1.580181159079074860e-02,-8.016073703765869141e-02,-3.201501071453094482e-02,9.112966060638427734e-02,1.698430031538009644e-01,5.185085535049438477e-02,-1.069933548569679260e-01,-1.455233525484800339e-02,-1.894771493971347809e-02,-1.201287135481834412e-01,-1.342876255512237549e-01,-7.548312097787857056e-02,-7.754540443420410156e-02,-1.619843989610671997e-01,-5.796243995428085327e-02,4.493775591254234314e-02,-1.366513073444366455e-01,-1.072652712464332581e-01,2.195320278406143188e-02,-4.068905115127563477e-02,-1.355196088552474976e-01,6.941423565149307251e-02,5.886531993746757507e-02,1.715310476720333099e-02,1.746473908424377441e-01,-5.007445812225341797e-02,-1.442052721977233887e-01,-3.911863081157207489e-03,1.775472052395343781e-02,-1.306007057428359985e-02,-1.177975311875343323e-01,8.217309415340423584e-02,5.631335824728012085e-02,-1.008087247610092163e-01,-8.325061202049255371e-02,1.139377951622009277e-01,6.111116334795951843e-02,3.328285180032253265e-03,-1.881140656769275665e-02,8.328038454055786133e-02,-2.122147530317306519e-01,-1.346618831157684326e-01,2.472996339201927185e-02,-1.578871607780456543e-01,2.923108451068401337e-02,1.321652084589004517e-01,1.794623136520385742e-01,-7.698019593954086304e-02,2.606304734945297241e-02,-5.418104305863380432e-02,-7.163348048925399780e-02,1.580321192741394043e-01,9.303846210241317749e-02
-5.791376829147338867e-01,-1.216229557991027832e+00,-2.715924978256225586e-01,2.284851074218750000e-01,-8.587903976440429688e-01,-1.199826039373874664e-02,1.293486505746841431e-01,2.278136275708675385e-02,-2.549791894853115082e-02,3.828611075878143311e-01,-5.030733346939086914e-01,2.647044062614440918e-01,5.226899385452270508e-01,6.496202945709228516e-01,4.185963571071624756e-01,-9.473698735237121582e-01,-2.863315045833587646e-01,1.165209189057350159e-01,-4.068808257579803467e-01,2.276443392038345337e-01,2.074781060218811035e-01,8.877851963043212891e-01,-3.790941834449768066e-01,-9.352045655250549316e-01,7.247067242860794067e-02,3.878979682922363281e-01,-2.724575400352478027e-01,-7.902750372886657715e-02,-1.451833546161651611e-01,2.695695757865905762e-01,-2.147399783134460449e-01,4.080690145492553711e-01,-5.535731911659240723e-01,-4.903712272644042969e-01,-2.994855940341949463e-01,1.727623939514160156e-01,4.094948247075080872e-02,-2.866372168064117432e-01,3.520538657903671265e-02,6.177594661712646484e-01,5.336946845054626465e-01,-2.318758368492126465e-01,1.532735675573348999e-01,2.768693268299102783e-01,1.328149139881134033e-01,-1.495011895895004272e-01,1.554003357887268066e-01,-5.281187295913696289e-01,2.094865292310714722e-01,-5.793090164661407471e-02,-6.647040247917175293e-01,2.186585217714309692e-02,-2.654598057270050049e-01,8.298569917678833008e-01,1.306007653474807739e-01,-2.137929201126098633e-01,-3.129578530788421631e-01,1.134925603866577148e+00,5.543484091758728027e-01,2.412648648023605347e-01,-1.398688256740570068e-01,4.971503019332885742e-01,4.965512752532958984e-01,-6.637753248214721680e-01,-4.423826634883880615e-01,4.370195567607879639e-01,-7.565625011920928955e-02,-2.650988996028900146e-01,-1.478804498910903931e-01,1.633830070495605469e-01,1.372588574886322021e-01,-6.266416609287261963e-02,-8.761433362960815430e-01,7.457045316696166992e-01,6.165037676692008972e-02,-3.547062277793884277e-01,-1.312322765588760376e-01,-6.363292038440704346e-02,-2.529364824295043945e-01,-2.369625121355056763e-01,-4.100960195064544678e-01,-1.915144473314285278e-01,-3.731653392314910889e-01,1.546500921249389648e-01,-3.666352033615112305e-01,7.637358903884887695e-01,-3.521454036235809326e-01,-3.881459832191467285e-01,6.805279105901718140e-02,5.229443311691284180e-01,2.245762348175048828e-01,1.776286065578460693e-01,-2.702799141407012939e-01,-4.749463200569152832e-01,-4.461746215820312500e-01,-5.270578265190124512e-01,3.724322617053985596e-01,-1.019335031509399414e+00,1.955671161413192749e-01,1.727763265371322632e-01,1.088901758193969727e-01,-1.749349758028984070e-02,-2.924154400825500488e-01,-4.883994162082672119e-02,3.163423538208007812e-01,-3.809476792812347412e-01,-9.154755622148513794e-02,6.511928439140319824e-01,-1.191065367311239243e-02,-1.599050760269165039e-01,-3.051698207855224609e-02,-3.528773486614227295e-01,6.483042240142822266e-01,-6.644250154495239258e-01,8.203808218240737915e-03,-5.254979729652404785e-01,-1.344345360994338989e-01,-8.576318621635437012e-01,1.006250023841857910e+00,3.321702778339385986e-01,-1.596520096063613892e-01,2.017838507890701294e-01,6.161359604448080063e-03,3.782093822956085205e-01,2.498291991651058197e-02,1.005572080612182617e-01,2.602340877056121826e-01,2.450571358203887939e-01
-1.198542118072509766e-01,1.035067200660705566e+00,-1.903867423534393311e-01,-3.732893466949462891e-01,2.531257569789886475e-01,-2.525134682655334473e-01,5.734738707542419434e-02,-1.064334154129028320e+00,-1.028537154197692871e+00,-4.230870008468627930e-01,4.356764256954193115e-01,5.070005655288696289e-01,-8.796253204345703125e-01,6.685687899589538574e-01,-1.204100489616394043e+00,8.786237239837646484e-01,-2.498443722724914551e-01,-4.240163266658782959e-01,3.073550462722778320e-01,-7.535325884819030762e-01,-8.885490894317626953e-02,-5.277264118194580078e-01,5.058683753013610840e-01,-5.714995861053466797e-01,3.634773194789886475e-01,2.708783745765686035e-01,3.948843479156494141e-01,1.014981642365455627e-01,5.897799730300903320e-01,-4.980911612510681152e-01,4.760934114456176758e-01,-4.735489189624786377e-01,-1.744431108236312866e-01,-1.492891907691955566e-01,1.413001567125320435e-01,6.922721266746520996e-01,-2.911671400070190430e-01,4.684225320816040039e-01,1.809128969907760620e-01,1.973517537117004395e-01,8.964859247207641602e-01,9.908472299575805664e-01,7.575783133506774902e-01,6.260659098625183105e-01,-2.469712346792221069e-01,2.149672619998455048e-02,-9.421615302562713623e-02,-1.035591483116149902e+00,-8.450302295386791229e-03,2.517594993114471436e-01,-1.049874871969223022e-01,-3.801977634429931641e-01,2.158790230751037598e-01,-8.120582699775695801e-01,-3.298895061016082764e-01,-5.311616659164428711e-01,-3.164466023445129395e-01,-7.867652177810668945e-01,1.613683439791202545e-02,-3.018121719360351562e-01,1.227824613451957703e-01,3.674771487712860107e-01,-4.526783525943756104e-01,9.655692577362060547e-01,7.788342833518981934e-01,-3.916588425636291504e-01,-5.839869976043701172e-01,2.239758819341659546e-01,-4.093723371624946594e-02,4.007743000984191895e-01,-4.185678660869598389e-01,1.897346973419189453e-01,3.135807216167449951e-01,-2.151739783585071564e-02,8.587581664323806763e-02,-4.816981554031372070e-01,8.382579684257507324e-01,9.479499608278274536e-02,1.457749366760253906e+00,-1.216934621334075928e-01,-1.620190739631652832e-01,-5.144370719790458679e-03,2.927778959274291992e-01,6.828269958496093750e-01,-7.446565628051757812e-01,1.032772660255432129e+00,4.703172147274017334e-01,2.087502926588058472e-01,-1.454242318868637085e-01,-1.293736547231674194e-01,9.238166213035583496e-01,-1.509246230125427246e-01,1.593484356999397278e-02,-1.975720748305320740e-02,3.289645612239837646e-01,-1.871601939201354980e-01,1.731211543083190918e-01,-5.224072933197021484e-01,-6.789139509201049805e-01,2.220274321734905243e-02,3.651545345783233643e-01,3.478955626487731934e-01,1.571944504976272583e-01,-2.421554625034332275e-01,-3.722585439682006836e-01,-4.062648117542266846e-02,1.213303767144680023e-02,-1.367758363485336304e-01,9.610251784324645996e-01,1.058782562613487244e-01,1.568799763917922974e-01,-3.510937094688415527e-01,-1.246267855167388916e-01,-7.550117969512939453e-01,-1.848299801349639893e-01,3.676532506942749023e-01,4.612217843532562256e-02,3.293050527572631836e-01,-9.973868727684020996e-01,4.161565601825714111e-01,6.466189026832580566e-01,-3.495625555515289307e-01,7.749040424823760986e-02,-1.238924741744995117e+00,-2.183252722024917603e-01,-9.506732821464538574e-01,-6.264306139200925827e-03,-3.233670294284820557e-01
-1.622026115655899048e-01,-5.343061685562133789e-01,-1.995583325624465942e-01,-2.206161022186279297e-01,1.605477631092071533e-01,6.484146118164062500e-01,1.868104338645935059e-01,-1.702736914157867432e-01,-2.733866572380065918e-01,-4.719194769859313965e-01,5.474615693092346191e-01,-3.377919197082519531e-01,-3.267748355865478516e-01,1.013116389513015747e-01,4.159062802791595459e-01,2.330067008733749390e-01,-9.334892034530639648e-01,-1.112389639019966125e-01,5.236299037933349609e-01,-4.368898272514343262e-01,5.686185359954833984e-01,2.021998912096023560e-01,-9.610793553292751312e-03,4.656602740287780762e-01,-3.929265737533569336e-01,2.849572300910949707e-01,6.189146041870117188e-01,-1.833253949880599976e-01,5.925188064575195312e-01,-4.160100817680358887e-01,4.872961342334747314e-01,-3.962350487709045410e-01,8.985327482223510742e-01,-2.096523493528366089e-01,-5.961113572120666504e-01,3.039721846580505371e-01,4.350966513156890869e-01,2.521841824054718018e-01,-4.462398290634155273e-01,-1.096470281481742859e-02,4.999871850013732910e-01,9.290178418159484863e-01,7.539929747581481934e-01,-6.542479246854782104e-02,2.741730585694313049e-02,8.498135954141616821e-02,3.860894441604614258e-01,-3.963762223720550537e-01,-3.537031710147857666e-01,8.965659141540527344e-02,1.541180461645126343e-01,-5.049607753753662109e-01,-1.089788675308227539e+00,4.053961336612701416e-01,-5.582354068756103516e-01,4.950079321861267090e-01,5.871741771697998047e-01,-9.706606864929199219e-01,6.975621581077575684e-01,2.288832068443298340e-01,-3.011552691459655762e-01,-2.755525112152099609e-01,-1.939372122287750244e-01,1.070052683353424072e-01,8.123923093080520630e-02,-2.289504557847976685e-01,1.892141811549663544e-02,-4.130206406116485596e-01,5.592848360538482666e-02,-1.823357343673706055e-01,-6.859130859375000000e-01,3.375326693058013916e-01,-1.050447583198547363e+00,2.755962908267974854e-01,4.585248529911041260e-01,-6.635919958353042603e-02,6.787952184677124023e-01,-1.508600860834121704e-01,-2.057182788848876953e-01,-1.475382596254348755e-01,-5.462314486503601074e-01,-1.804890781641006470e-01,2.240858823060989380e-01,2.520710527896881104e-01,-4.930165708065032959e-01,4.409295618534088135e-01,4.052257537841796875e-01,3.640129268169403076e-01,-7.073502987623214722e-02,-7.310755848884582520e-01,1.094469651579856873e-01,-7.710654288530349731e-02,5.496734380722045898e-01,1.146685481071472168e-01,4.919333457946777344e-01,-5.867973566055297852e-01,-1.605279296636581421e-01,-2.446802556514739990e-01,1.070197701454162598e+00,1.234544217586517334e-01,5.064740777015686035e-01,1.935859918594360352e-01,-3.339193761348724365e-01,-3.690478801727294922e-01,-2.047630846500396729e-01,6.110065579414367676e-01,4.798184707760810852e-02,-9.659465402364730835e-02,7.723522186279296875e-01,1.421755999326705933e-01,-4.526552557945251465e-01,-1.215481087565422058e-01,-3.151876032352447510e-01,8.295821398496627808e-02,-2.641316652297973633e-01,-2.972741425037384033e-01,-3.343529701232910156e-01,1.305851191282272339e-01,-3.727602362632751465e-01,1.681913584470748901e-01,-4.173704981803894043e-01,-8.144449591636657715e-01,-2.272440195083618164e-01,-2.324756830930709839e-01,1.206249147653579712e-01,-3.154433667659759521e-01,1.066402047872543335e-01,-5.372788310050964355e-01
4.180960953235626221e-01,-1.300332546234130859e+00,1.139203459024429321e-01,1.127869009971618652e+00,-1.239215359091758728e-01,-1.367035061120986938e-01,6.481679677963256836e-01,-7.067781090736389160e-01,3.098108768463134766e-01,2.585237324237823486e-01,4.463214874267578125e-01,-3.007898107171058655e-02,1.463307440280914307e-01,-5.466464161872863770e-01,2.760070562362670898e-01,1.777613312005996704e-01,3.861326575279235840e-01,-7.349101826548576355e-03,-4.178821146488189697e-01,3.831118643283843994e-01,3.982385396957397461e-01,8.337467312812805176e-01,1.292369514703750610e-01,-4.048636257648468018e-01,1.539094448089599609e-01,-4.458933472633361816e-01,-7.700513303279876709e-02,-2.559836804866790771e-01,3.753771483898162842e-01,1.022025421261787415e-01,4.175132215023040771e-01,1.167314887046813965e+00,-8.253044486045837402e-01,-8.472387790679931641e-01,3.308352231979370117e-01,-2.811451852321624756e-01,-5.072322487831115723e-01,1.350349187850952148e-01,-5.630183815956115723e-01,1.310717225074768066e+00,3.561405539512634277e-01,-7.808192372322082520e-01,2.589060664176940918e-01,-1.322874873876571655e-01,1.662626629695296288e-03,-9.219798445701599121e-01,-1.495928764343261719e-01,-1.297165393829345703e+00,3.387312889099121094e-01,7.871695160865783691e-01,4.104158878326416016e-01,2.752888202667236328e-01,3.266119062900543213e-01,-4.719895422458648682e-01,3.228498697280883789e-01,-9.280416369438171387e-01,9.771903604269027710e-02,5.565533041954040527e-01,6.734479665756225586e-01,5.704004764556884766e-01,-1.515682339668273926e-01,-3.224148452281951904e-01,1.355757471174001694e-02,-9.277868270874023438e-01,-3.619431555271148682e-01,5.945615768432617188e-01,3.789379596710205078e-01,1.104838609695434570e+00,2.553539574146270752e-01,1.739505976438522339e-01,-2.470570057630538940e-01,2.706308960914611816e-01,-1.284800767898559570e-01,7.343081384897232056e-02,-1.048963889479637146e-01,1.177381947636604309e-01,1.501244157552719116e-01,-5.880236625671386719e-02,1.045789346098899841e-01,4.626548290252685547e-01,1.215506419539451599e-01,2.898131906986236572e-01,-6.153618171811103821e-02,-5.888101831078529358e-02,5.584879964590072632e-02,1.010729551315307617e+00,1.377306729555130005e-01,6.324134469032287598e-01,-3.418955579400062561e-02,4.856222569942474365e-01,-2.446183413267135620e-01,-1.162725925445556641e+00,1.085763499140739441e-01,-3.322378918528556824e-02,1.510108411312103271e-01,1.312785267829895020e+00,-6.769489496946334839e-02,-5.514450669288635254e-01,-6.579177379608154297e-01,1.556519269943237305e-01,7.366922497749328613e-01,1.950194239616394043e-01,1.558710783720016479e-01,3.536430001258850098e-01,-1.091344375163316727e-02,-1.206915527582168579e-01,5.684179663658142090e-01,7.991883754730224609e-01,-4.873349964618682861e-01,-2.461768537759780884e-01,-3.937031626701354980e-01,-7.016121149063110352e-01,-2.474986463785171509e-01,-9.211977720260620117e-01,-1.470067501068115234e-01,-2.017143219709396362e-01,3.982089757919311523e-01,-2.786677479743957520e-01,3.542107641696929932e-01,-8.262962698936462402e-01,7.177337408065795898e-01,-4.561873376369476318e-01,6.238142251968383789e-01,-4.779410064220428467e-01,1.242673173546791077e-01,2.926484048366546631e-01,-5.993318557739257812e-01,4.347710311412811279e-01
1.118033472448587418e-02,-8.612539619207382202e-02,1.138133183121681213e-01,5.267741531133651733e-02,-1.943985074758529663e-01,-7.984855026006698608e-02,1.071553826332092285e-01,7.234486751258373260e-03,1.253792196512222290e-01,-6.101416423916816711e-02,1.197980940341949463e-01,-8.545533567667007446e-02,1.168440729379653931e-01,-1.415033638477325439e-01,4.739239066839218140e-02,6.791622936725616455e-02,-1.815251559019088745e-01,4.344739392399787903e-02,-2.100586742162704468e-01,-4.600678011775016785e-02,2.070013731718063354e-01,-7.070959545671939850e-04,3.864445909857749939e-02,-1.160071417689323425e-01,1.027595177292823792e-01,5.285399034619331360e-02,1.180065423250198364e-02,5.138756334781646729e-02,-1.581431478261947632e-01,-4.258819296956062317e-02,1.307116597890853882e-01,-1.423573493957519531e-01,7.017575949430465698e-02,-4.948080331087112427e-02,-3.963618353009223938e-02,1.234876215457916260e-01,2.365320920944213867e-02,1.348651666194200516e-02,-1.928016245365142822e-01,-3.716374188661575317e-02,-1.729069501161575317e-01,7.872332632541656494e-02,-1.025879830121994019e-01,1.334153264760971069e-01,-1.772402971982955933e-01,-1.267629563808441162e-01,9.954645298421382904e-03,1.957754194736480713e-01,-2.076762467622756958e-01,-7.862588018178939819e-02,-1.521182060241699219e-01,-2.043604850769042969e-01,5.343085899949073792e-02,1.851729303598403931e-02,-3.397104563191533089e-03,-6.539370864629745483e-02,-6.338159739971160889e-02,-8.150902390480041504e-02,2.223912775516510010e-01,1.884629130363464355e-01,2.366285957396030426e-02,1.249218825250864029e-02,9.102377295494079590e-02,-9.275761246681213379e-02,-1.869572699069976807e-01,-2.053838223218917847e-02,1.421270668506622314e-01,3.518895059823989868e-02,1.394359115511178970e-02,-5.506508797407150269e-02,-8.196929097175598145e-02,-1.941203884780406952e-02,-1.099105328321456909e-01,3.205359354615211487e-02,-9.502068161964416504e-02,2.008771002292633057e-01,-1.151149123907089233e-01,-5.675623565912246704e-02,-1.242026761174201965e-01,1.602512001991271973e-01,2.196487598121166229e-02,-5.172531306743621826e-02,-6.510509550571441650e-02,1.802026778459548950e-01,4.927460476756095886e-02,6.081115454435348511e-02,2.865100465714931488e-02,-1.725308299064636230e-01,3.170051798224449158e-02,7.076620310544967651e-02,-9.180189669132232666e-02,3.939810767769813538e-02,6.320601701736450195e-02,2.986568771302700043e-02,-6.543353199958801270e-02,1.379652917385101318e-01,-2.885695360600948334e-02,3.091531991958618164e-02,-1.587751209735870361e-01,-1.734886877238750458e-02,3.702162578701972961e-02,-3.581661731004714966e-02,1.039149016141891479e-01,-7.008575648069381714e-02,-9.867700934410095215e-02,2.111128531396389008e-03,-2.343287132680416107e-02,-1.087694391608238220e-01,4.138458147644996643e-02,-1.373644620180130005e-01,-1.767591945827007294e-02,1.844914704561233521e-01,7.190191000699996948e-02,8.764247596263885498e-02,1.274894550442695618e-02,3.684723377227783203e-02,-1.927675306797027588e-01,1.430039107799530029e-01,4.718129336833953857e-02,-1.193260550498962402e-01,2.106834650039672852e-01,1.955306231975555420e-01,-1.300769895315170288e-01,2.659082412719726562e-02,-1.851853877305984497e-01,-1.055516228079795837e-01,7.813590764999389648e-02,3.784278407692909241e-02
-1.160363554954528809e+00,-9.702056050300598145e-01,4.274190366268157959e-01,-7.602874189615249634e-02,1.203963041305541992e+00,5.674480795860290527e-01,-1.946108043193817139e-01,7.960307002067565918e-01,-7.576922774314880371e-01,-9.316623806953430176e-01,1.481136959046125412e-02,-1.789302229881286621e-01,1.246808618307113647e-01,7.855292558670043945e-01,7.238858938217163086e-02,-8.019683361053466797e-01,-9.785715341567993164e-01,1.285923868417739868e-01,-1.250817418098449707e+00,4.649620056152343750e-01,2.995318770408630371e-01,9.550799131393432617e-01,-5.332104563713073730e-01,-3.384549319744110107e-01,3.338346183300018311e-01,-3.547713160514831543e-02,-1.281998306512832642e-01,-1.349940747022628784e-01,1.035353899002075195e+00,-1.407363712787628174e-01,4.006901681423187256e-01,-4.626023471355438232e-01,3.241959214210510254e-01,-3.944185376167297363e-01,-9.058595895767211914e-01,-3.708643913269042969e-01,-3.088727593421936035e-01,7.915440201759338379e-01,-2.335444241762161255e-01,-4.961163401603698730e-01,3.658800125122070312e-01,-4.778514504432678223e-01,-5.835019350051879883e-01,-4.448153376579284668e-01,2.463138476014137268e-02,1.972190439701080322e-01,6.634451150894165039e-01,-9.811546802520751953e-01,3.776330053806304932e-01,1.377791315317153931e-01,-2.128285169601440430e-01,3.316368758678436279e-01,-4.793682992458343506e-01,-1.281513273715972900e-01,-1.042461276054382324e+00,-3.237716555595397949e-01,-2.023723572492599487e-01,-2.049598544836044312e-01,5.829918384552001953e-01,-1.069365501403808594e+00,-3.159615397453308105e-01,1.837753534317016602e+00,8.047862052917480469e-01,-3.583935201168060303e-01,-2.936436533927917480e-01,-1.489930897951126099e-01,-4.261201918125152588e-01,-1.764530092477798462e-01,-4.312873780727386475e-01,5.277259945869445801e-01,-3.623093664646148682e-01,2.408611029386520386e-01,-1.066776633262634277e+00,-4.203958809375762939e-01,4.942029416561126709e-01,1.005335748195648193e-01,-7.529862970113754272e-02,-9.112402796745300293e-01,-4.783245325088500977e-01,-4.852047860622406006e-01,-3.607696890830993652e-01,3.669823408126831055e-01,-2.499282807111740112e-01,-3.424052894115447998e-01,-3.527717292308807373e-01,5.465249419212341309e-01,1.567701995372772217e-01,-6.861030459403991699e-01,2.522793710231781006e-01,-1.875545680522918701e-01,-5.141724348068237305e-01,8.537708520889282227e-01,-9.388194084167480469e-01,5.212317779660224915e-02,2.802023887634277344e-01,-2.865513786673545837e-02,-3.626324832439422607e-01,1.543243080377578735e-01,8.921961188316345215e-01,1.473963111639022827e-01,4.075002372264862061e-01,1.286620199680328369e-01,-2.806226313114166260e-01,-7.064063102006912231e-02,-3.552584648132324219e-01,5.315700173377990723e-01,1.854198724031448364e-01,-8.287724852561950684e-01,1.284060716629028320e+00,-9.629334509372711182e-02,-3.673278093338012695e-01,3.728184401988983154e-01,6.765517592430114746e-02,4.323302507400512695e-01,-7.113950848579406738e-01,-7.556729316711425781e-01,-1.603637486696243286e-01,-2.994288802146911621e-01,5.881872773170471191e-01,-1.889615505933761597e-02,-1.958858519792556763e-01,-1.428707838058471680e-01,1.130300834774971008e-01,-7.426478862762451172e-01,-3.845514953136444092e-01,1.987143903970718384e-01,-4.330480992794036865e-01,-1.626660823822021484e-01
8.857455253601074219e-01,2.575395107269287109e-01,-2.032120376825332642e-01,1.078993603587150574e-01,-8.617317676544189453e-01,5.566788315773010254e-01,3.214665055274963379e-01,2.946495413780212402e-01,-2.310826331377029419e-01,9.947597235441207886e-02,4.621644020080566406e-01,5.856126546859741211e-02,6.490868926048278809e-01,-2.084230482578277588e-01,-6.198542565107345581e-02,-6.409295797348022461e-01,1.212262392044067383e+00,2.116094231605529785e-01,4.664357602596282959e-01,4.860015213489532471e-01,-2.995046377182006836e-01,2.329055815935134888e-01,-7.988397032022476196e-02,-9.590151309967041016e-01,2.962000966072082520e-01,-5.126557350158691406e-01,-3.682075440883636475e-02,3.327642753720283508e-02,-4.874632060527801514e-01,4.757270514965057373e-01,-2.679758071899414062e-01,-6.618815064430236816e-01,-4.759465754032135010e-01,6.180576086044311523e-01,2.064501680433750153e-02,-4.187734425067901611e-02,3.669735193252563477e-01,4.472135901451110840e-01,8.465201854705810547e-01,9.279756993055343628e-02,-2.880130112171173096e-01,3.452219069004058838e-01,-5.551602244377136230e-01,-2.902050912380218506e-01,3.925600051879882812e-01,-8.753598928451538086e-01,-3.248786330223083496e-01,6.034558415412902832e-01,-4.340201020240783691e-01,1.112527102231979370e-01,2.993694841861724854e-01,5.430629849433898926e-01,1.374783664941787720e-01,4.378373324871063232e-01,5.411491394042968750e-01,-4.036515057086944580e-01,8.066025972366333008e-01,2.559226453304290771e-01,-2.696328461170196533e-01,7.492106407880783081e-02,1.275821682065725327e-02,2.873778641223907471e-01,3.031765818595886230e-01,-6.846014410257339478e-02,1.324849724769592285e+00,2.079844288527965546e-02,3.058860599994659424e-01,-2.111420268192887306e-03,-1.330931186676025391e-01,3.138604164123535156e-01,6.829372644424438477e-01,-2.384161055088043213e-01,8.947169184684753418e-01,-4.288706183433532715e-02,-5.632054805755615234e-01,4.003187716007232666e-01,1.958603709936141968e-01,1.127217784523963928e-01,4.523979425430297852e-01,-2.123130857944488525e-01,5.701524615287780762e-01,7.643321156501770020e-01,-1.167123392224311829e-01,6.142153143882751465e-01,8.095051050186157227e-01,5.092497169971466064e-02,-4.271148443222045898e-01,6.843445301055908203e-01,6.145223975181579590e-02,1.382768601179122925e-01,-2.165866941213607788e-01,1.448309719562530518e-01,1.013036444783210754e-01,1.487508416175842285e-01,-1.775398999452590942e-01,5.569453835487365723e-01,4.006128013134002686e-01,3.979952633380889893e-01,3.180815577507019043e-01,2.137756645679473877e-01,2.943872809410095215e-01,-2.101228684186935425e-01,-7.212541103363037109e-01,-2.328191399574279785e-01,9.192968606948852539e-01,5.856387019157409668e-01,-1.582515686750411987e-01,-1.253469884395599365e-01,1.322957634925842285e+00,2.685868740081787109e-01,2.079284787178039551e-01,-5.444528460502624512e-01,8.301093578338623047e-01,6.211767196655273438e-01,8.252280354499816895e-01,6.179989874362945557e-02,5.326811075210571289e-01,3.862022757530212402e-01,-8.405722975730895996e-01,2.366369515657424927e-01,-2.757125496864318848e-01,-3.805998861789703369e-01,-1.953282654285430908e-01,1.303062200546264648e+00,6.231523156166076660e-01,1.769277602434158325e-01,1.185651272535324097e-01,3.022719323635101318e-01
-4.007893949165008962e-05,-1.337039470672607422e+00,-3.120825588703155518e-01,-2.819624543190002441e-01,-1.740470677614212036e-01,-2.195447385311126709e-01,2.368174642324447632e-01,-3.414819240570068359e-01,5.775594115257263184e-01,1.382071673870086670e-01,-2.441509664058685303e-01,-4.945239424705505371e-02,-7.545735836029052734e-01,4.139792621135711670e-01,1.934619843959808350e-01,2.084241807460784912e-01,-4.248785972595214844e-01,-2.131528109312057495e-01,-4.464673623442649841e-02,-3.741443529725074768e-02,-3.599391281604766846e-01,1.258201152086257935e-01,1.676010638475418091e-01,-5.067269876599311829e-02,-2.148969173431396484e-01,-1.131173968315124512e-01,-1.353165805339813232e-01,2.233307510614395142e-01,2.977772355079650879e-01,1.856929361820220947e-01,6.948235630989074707e-01,-4.427200257778167725e-01,2.118336558341979980e-01,-9.374608397483825684e-01,1.057325243949890137e+00,6.081967949867248535e-01,-2.104409486055374146e-01,7.304711937904357910e-01,-8.704529404640197754e-01,5.161798596382141113e-01,1.791664808988571167e-01,-1.355052441358566284e-01,2.009597718715667725e-01,-9.385080933570861816e-01,1.810328513383865356e-01,-8.281248807907104492e-01,-3.256261348724365234e-01,-6.198049187660217285e-01,2.154074907302856445e-01,3.222981467843055725e-02,4.561924636363983154e-01,-1.191583126783370972e-01,1.122028380632400513e-01,-8.550252020359039307e-02,-2.108950614929199219e-01,-3.430446684360504150e-01,-1.113991364836692810e-01,1.616986691951751709e-01,-1.366547346115112305e-01,8.839887380599975586e-01,2.142731845378875732e-01,9.728617072105407715e-01,-1.293209344148635864e-01,-1.157112360000610352e+00,2.130628973245620728e-01,1.411838084459304810e-01,-3.378178179264068604e-01,4.537417888641357422e-01,2.712900638580322266e-01,-7.862780094146728516e-01,5.743797421455383301e-01,-6.938456743955612183e-02,-7.348690032958984375e-01,7.306446433067321777e-01,-1.203388214111328125e+00,3.103309273719787598e-01,2.616071105003356934e-01,1.398376625729724765e-04,-1.096194744110107422e+00,-1.567656397819519043e-01,-3.825804293155670166e-01,5.427965521812438965e-01,-8.379537612199783325e-02,-2.633607387542724609e-01,-8.542390465736389160e-01,5.525698065757751465e-01,-2.069432586431503296e-01,2.335152775049209595e-01,-2.539690583944320679e-02,1.322703659534454346e-01,-1.233430132269859314e-01,-1.513614952564239502e-01,3.125652372837066650e-01,-2.618884444236755371e-01,3.679047226905822754e-01,-5.474170446395874023e-01,7.945497334003448486e-02,1.466636210680007935e-01,-1.041064560413360596e-01,-1.922243088483810425e-01,6.626248955726623535e-01,1.978698074817657471e-01,-4.392616078257560730e-02,1.313088387250900269e-01,-6.618627905845642090e-02,-6.835201978683471680e-01,6.817947030067443848e-01,4.460851550102233887e-01,5.409929752349853516e-01,-2.970448732376098633e-01,6.534541845321655273e-01,-8.670426011085510254e-01,2.584351003170013428e-01,-2.286187186837196350e-02,3.325646519660949707e-01,2.822764813899993896e-01,2.224731743335723877e-01,-4.311522543430328369e-01,-1.141472935676574707e+00,2.866537682712078094e-02,-2.908160090446472168e-01,-4.497866034507751465e-01,1.197950318455696106e-01,2.310805618762969971e-01,-1.709992885589599609e-01,-3.759603202342987061e-01,4.966834783554077148e-01,5.857067108154296875e-01
6.159424409270286560e-02,-4.194248095154762268e-02,5.582944303750991821e-02,2.065326869487762451e-01,6.870729476213455200e-02,-5.515947192907333374e-02,-7.283650338649749756e-02,-8.483906090259552002e-02,-1.220458447933197021e-01,1.968972831964492798e-01,-1.611516028642654419e-01,-7.641966640949249268e-02,-9.198664873838424683e-02,-2.118910849094390869e-02,-6.344486027956008911e-02,2.035857923328876495e-02,8.697333186864852905e-02,-1.716462522745132446e-01,-5.442457646131515503e-02,7.026810199022293091e-02,1.155644375830888748e-02,-2.598526480142027140e-04,4.248325712978839874e-03,-1.828273981809616089e-01,-1.868046969175338745e-01,5.435048602521419525e-03,-8.961627632379531860e-02,1.432017236948013306e-01,1.158305350691080093e-02,-5.363923031836748123e-03,-1.159115135669708252e-02,1.788379549980163574e-01,3.892734646797180176e-02,7.778070867061614990e-02,-1.886874251067638397e-02,2.126386314630508423e-01,3.058986365795135498e-02,-1.304935365915298462e-01,5.163532868027687073e-02,-6.419198960065841675e-02,8.623728156089782715e-02,8.247319608926773071e-02,-8.600953221321105957e-02,2.085381299257278442e-01,-1.543423086404800415e-01,-1.872180849313735962e-01,-1.125891879200935364e-01,-2.625923790037631989e-02,-1.998687386512756348e-01,-6.957282871007919312e-02,-1.262160018086433411e-03,8.777154982089996338e-02,1.681805104017257690e-01,1.632354706525802612e-01,6.475581228733062744e-02,-5.144191905856132507e-02,2.124493867158889771e-01,-4.018792510032653809e-02,-1.701821014285087585e-02,7.666665315628051758e-02,-1.389887332916259766e-01,-3.493102267384529114e-02,6.107294559478759766e-02,3.169792145490646362e-02,9.689000993967056274e-02,-1.439223140478134155e-01,-4.983273800462484360e-03,4.427329450845718384e-02,-6.398828700184822083e-03,-7.552038412541151047e-03,-7.813166826963424683e-02,5.760502815246582031e-02,-1.307031959295272827e-01,1.388533562421798706e-01,7.224881649017333984e-02,7.283615320920944214e-02,-1.063252240419387817e-01,-9.051833301782608032e-02,-9.887749701738357544e-02,2.058900147676467896e-01,1.364113092422485352e-01,1.719392538070678711e-01,-6.190765276551246643e-02,1.195973530411720276e-01,-2.815078571438789368e-02,1.831984817981719971e-01,8.612018823623657227e-02,-9.151405096054077148e-02,-2.045153230428695679e-01,-6.035145744681358337e-02,2.300432696938514709e-02,1.771992295980453491e-01,-1.403419524431228638e-01,6.127655878663063049e-02,-7.746431976556777954e-02,-7.388480007648468018e-02,1.684670448303222656e-01,-4.118503630161285400e-02,6.968745589256286621e-02,3.891780215781182051e-04,5.945627763867378235e-02,6.724216789007186890e-02,2.050287574529647827e-01,2.076376527547836304e-01,-8.530717343091964722e-02,-8.314174413681030273e-02,9.976778924465179443e-02,-8.512607216835021973e-02,-8.394587039947509766e-02,-2.059496343135833740e-01,1.934444606304168701e-01,1.886090338230133057e-01,-1.605170071125030518e-01,-5.052495375275611877e-02,-4.676897078752517700e-02,7.619912922382354736e-02,-6.562489271163940430e-02,-4.201457276940345764e-02,-1.326084733009338379e-01,2.019988596439361572e-01,1.109303534030914307e-01,-6.512454152107238770e-02,-1.341812908649444580e-01,1.002769470214843750e-01,4.346825182437896729e-02,2.233836613595485687e-02,1.373058259487152100e-01,-3.691439330577850342e-02
-2.843098640441894531e-01,6.107771396636962891e-01,5.332937240600585938e-01,-3.877283930778503418e-01,1.735337525606155396e-01,6.377870440483093262e-01,-3.345430362969636917e-03,4.844349324703216553e-01,-5.297392010688781738e-01,-2.657783925533294678e-01,-3.149873912334442139e-01,-3.249230980873107910e-01,2.386292815208435059e-01,-1.103423953056335449e+00,-4.945253729820251465e-01,5.317585468292236328e-01,-7.953104376792907715e-01,-4.646927490830421448e-02,1.039488539099693298e-01,-6.125833392143249512e-01,-7.579255104064941406e-01,-4.832202494144439697e-01,5.795864015817642212e-02,4.165742695331573486e-01,-4.867040812969207764e-01,-3.175238072872161865e-01,-9.769252687692642212e-02,1.133671849966049194e-01,-4.878325462341308594e-01,-1.213104426860809326e-01,-4.423040896654129028e-02,-6.761321425437927246e-01,-3.667603731155395508e-01,-1.142572522163391113e+00,-8.416739851236343384e-02,2.136252447962760925e-02,-1.017869472503662109e+00,1.121338844299316406e+00,-9.161583185195922852e-01,6.587760895490646362e-02,-4.001537263393402100e-01,5.409120321273803711e-01,-6.475002765655517578e-01,-4.560774192214012146e-02,1.015909910202026367e-01,-5.565425157546997070e-01,5.126863121986389160e-01,4.289841055870056152e-01,-1.011883735656738281e+00,-4.403854906558990479e-01,2.060082852840423584e-01,2.610163688659667969e-01,1.366741180419921875e+00,4.171809554100036621e-01,-9.955806285142898560e-02,-2.509876787662506104e-01,7.369493246078491211e-01,-5.825117826461791992e-01,-3.232353925704956055e-01,-4.920203238725662231e-02,1.621106415987014771e-01,1.105281352996826172e+00,5.724541544914245605e-01,6.515391469001770020e-01,3.671653270721435547e-01,-4.706481099128723145e-01,1.553908288478851318e-01,-3.072365652769804001e-03,-1.789448596537113190e-02,-3.267199993133544922e-01,8.950244784355163574e-01,-1.593908369541168213e-01,2.780699729919433594e-01,9.657909721136093140e-02,-6.859430074691772461e-01,3.845635801553726196e-02,1.552024036645889282e-01,-4.068546593189239502e-01,-6.729324162006378174e-02,-5.729790329933166504e-01,-2.042061239480972290e-01,7.842286825180053711e-01,-2.119867317378520966e-02,3.794187903404235840e-01,-2.670123986899852753e-02,-1.522677540779113770e-01,-3.058000206947326660e-01,4.433883726596832275e-01,-1.810092628002166748e-01,2.360829114913940430e-01,-6.413477063179016113e-01,3.614028394222259521e-01,1.780147552490234375e-01,-4.352205619215965271e-02,-1.381966769695281982e-01,1.145100593566894531e+00,-3.322127461433410645e-01,8.037700057029724121e-01,4.406708851456642151e-02,-4.175214767456054688e-01,-7.156188786029815674e-02,6.029596552252769470e-02,-1.272723376750946045e-01,7.892097830772399902e-01,4.350003600120544434e-01,7.857844233512878418e-01,-8.728638291358947754e-03,-1.356558442115783691e+00,9.263585805892944336e-01,9.053587913513183594e-01,2.688122987747192383e-01,1.001804471015930176e-01,-5.082135647535324097e-02,4.858665764331817627e-01,9.348080158233642578e-01,4.426060020923614502e-01,6.228257417678833008e-01,4.253542423248291016e-02,-1.685470700263977051e+00,4.868441522121429443e-01,-5.701813697814941406e-01,3.135346770286560059e-01,-8.260966092348098755e-02,-3.738003969192504883e-01,9.568910002708435059e-01,-6.015225499868392944e-02,5.147784948348999023e-01,-2.084867469966411591e-02
-6.353872269392013550e-02,8.482370525598526001e-02,2.071238160133361816e-01,1.009251624345779419e-01,1.098444126546382904e-02,1.669960170984268188e-01,-4.578268527984619141e-02,-9.031273424625396729e-02,-7.475305348634719849e-02,-1.186373382806777954e-01,1.638426072895526886e-02,1.844977438449859619e-01,6.684111896902322769e-03,-1.741490364074707031e-01,1.354386359453201294e-01,-3.993526473641395569e-02,7.268714904785156250e-02,-1.348863989114761353e-01,-9.370945394039154053e-02,-7.473871856927871704e-02,-7.628926634788513184e-02,-1.522746086120605469e-01,7.939884066581726074e-02,-4.284766688942909241e-02,-2.861421089619398117e-03,5.028772167861461639e-03,-2.330903150141239166e-02,5.220955237746238708e-02,-1.359171234071254730e-02,1.542693078517913818e-01,1.668247729539871216e-01,5.945282801985740662e-02,-1.346296817064285278e-01,-1.404297947883605957e-01,-7.064371556043624878e-02,8.799237757921218872e-02,8.512236922979354858e-02,9.649896062910556793e-03,7.247560471296310425e-02,-1.945606768131256104e-01,-1.446872353553771973e-01,-9.558258205652236938e-02,-1.088660657405853271e-01,-7.608562707901000977e-02,-1.453750431537628174e-01,7.863453030586242676e-02,1.198037434369325638e-02,8.025582879781723022e-03,-1.530932076275348663e-02,3.124296106398105621e-02,-2.096181064844131470e-01,7.880225777626037598e-02,-6.814720481634140015e-02,2.223279094323515892e-03,1.058049947023391724e-01,2.744840458035469055e-02,-4.468226805329322815e-02,1.804952323436737061e-01,-3.000538796186447144e-02,5.434611067175865173e-02,-1.182124093174934387e-01,-3.687567636370658875e-02,-4.954648017883300781e-02,3.998060151934623718e-02,-1.076140105724334717e-01,-1.151953190565109253e-01,4.440210014581680298e-02,-1.672632694244384766e-01,-6.867256760597229004e-02,5.985368788242340088e-02,4.761188477277755737e-02,1.202616319060325623e-01,-4.269912466406822205e-02,1.560897231101989746e-01,9.865489602088928223e-02,7.448978722095489502e-02,3.788406029343605042e-02,-1.743108928203582764e-01,-1.976299583911895752e-01,1.236502900719642639e-01,1.812041252851486206e-01,1.030031405389308929e-02,-1.734393984079360962e-01,-3.007954452186822891e-03,-4.872168228030204773e-02,-2.056396799162030220e-03,-2.340709976851940155e-02,-6.589956115931272507e-03,-2.179689891636371613e-02,-1.090900078415870667e-01,3.155276179313659668e-02,-9.458433091640472412e-02,-8.613111078739166260e-02,1.212039068341255188e-01,1.449111402034759521e-01,3.102459199726581573e-02,-6.417112797498703003e-02,3.686582297086715698e-02,-2.011431008577346802e-01,1.665259525179862976e-02,-1.527879387140274048e-01,-5.884612351655960083e-02,9.171704947948455811e-02,1.776411980390548706e-01,7.769387215375900269e-02,-5.031050369143486023e-02,2.101360112428665161e-01,1.996332593262195587e-02,-1.791568696498870850e-01,-1.563309133052825928e-01,-9.441474825143814087e-02,8.481954783201217651e-02,-8.316636830568313599e-02,-2.098646759986877441e-01,-2.124923318624496460e-01,-1.671598553657531738e-01,-1.867328882217407227e-01,-1.858210414648056030e-01,5.033511295914649963e-02,-9.851469844579696655e-02,1.985827088356018066e-01,2.203832939267158508e-02,7.715187221765518188e-02,-1.654870435595512390e-02,5.084153264760971069e-02,-1.186038367450237274e-02,-7.420816272497177124e-02,2.075753360986709595e-01
-2.215738594532012939e-01,7.096763253211975098e-01,2.928236722946166992e-01,-9.817691147327423096e-02,1.448920965194702148e+00,-5.371475815773010254e-01,-1.272673010826110840e-01,6.237825155258178711e-01,-2.139420807361602783e-01,2.170804440975189209e-01,1.026107907295227051e+00,4.420720636844635010e-01,-1.423873752355575562e-02,-4.756778776645660400e-01,-2.572198510169982910e-01,-9.114546775817871094e-01,1.597132563591003418e+00,7.477027177810668945e-02,-4.693099856376647949e-01,-2.290930896997451782e-01,2.339897751808166504e-01,-1.033889278769493103e-01,4.978867769241333008e-01,7.048495411872863770e-01,-1.533457338809967041e-01,-8.473828434944152832e-02,3.460440933704376221e-01,-1.052770614624023438e-01,1.921134889125823975e-01,-5.282104015350341797e-01,3.231236636638641357e-01,1.695433855056762695e-01,-6.459542512893676758e-01,4.889322519302368164e-01,-3.784917294979095459e-01,-6.145169138908386230e-01,-6.700527071952819824e-01,6.536417603492736816e-01,1.340941548347473145e+00,-1.927939951419830322e-01,-7.848027348518371582e-02,-4.608838558197021484e-01,-1.482008993625640869e-01,1.673821091651916504e+00,-6.587620079517364502e-02,-4.544379413127899170e-01,-5.206847786903381348e-01,1.274647474288940430e+00,2.068318873643875122e-01,1.387902259826660156e+00,-1.420240998268127441e-01,8.055148720741271973e-01,9.851087331771850586e-01,1.628253161907196045e-01,-3.511393964290618896e-01,-6.215673685073852539e-01,7.284322977066040039e-01,3.676206767559051514e-01,1.155940413475036621e+00,-1.238074660301208496e+00,2.299308925867080688e-01,-3.278227746486663818e-01,3.978203535079956055e-01,9.278158545494079590e-01,1.382253617048263550e-01,-3.244288861751556396e-01,9.234834909439086914e-01,6.990066170692443848e-02,-8.819454163312911987e-02,3.697930872440338135e-01,7.910240292549133301e-01,-4.694177508354187012e-01,5.980097651481628418e-01,-5.588449835777282715e-01,6.005399227142333984e-01,-2.118517011404037476e-01,8.714615106582641602e-01,-2.051142156124114990e-01,6.360987424850463867e-01,8.636771142482757568e-02,3.604851067066192627e-01,-5.892726778984069824e-02,1.712981909513473511e-01,2.161617428064346313e-01,3.638950288295745850e-01,3.775067925453186035e-01,1.586925089359283447e-01,-2.108641527593135834e-02,-2.685805410146713257e-02,-1.503823995590209961e-01,-3.276133537292480469e-01,-8.759378194808959961e-01,4.423582255840301514e-01,5.430563092231750488e-01,6.698147654533386230e-01,6.496528983116149902e-01,8.807668089866638184e-01,8.785022050142288208e-02,-3.079399168491363525e-01,-2.810673713684082031e-01,1.839009374380111694e-01,4.790922626852989197e-03,5.599043890833854675e-02,3.926028311252593994e-01,1.136319432407617569e-02,1.749070137739181519e-01,-2.622041702270507812e-01,1.226419657468795776e-01,2.984600327908992767e-02,1.927050203084945679e-01,-5.837630629539489746e-01,9.717750549316406250e-02,-3.630315512418746948e-02,3.792217373847961426e-01,-1.013163775205612183e-01,3.192776143550872803e-01,-1.780101656913757324e-01,1.289917528629302979e-01,7.048177719116210938e-01,4.338120222091674805e-01,2.839397639036178589e-02,5.915898084640502930e-01,5.246781110763549805e-01,-4.690376222133636475e-01,5.545487403869628906e-01,-4.837843179702758789e-01,-3.621252775192260742e-01,-1.242143940180540085e-02
-1.867902874946594238e-01,-5.508471131324768066e-01,2.843091785907745361e-01,9.607468545436859131e-02,6.744750738143920898e-01,-9.432963281869888306e-02,-6.541997194290161133e-01,9.381787180900573730e-01,-2.187866866588592529e-01,5.933802127838134766e-01,-6.864287257194519043e-01,-3.843528926372528076e-01,-3.885452151298522949e-01,-2.353246808052062988e-01,-5.990335717797279358e-02,5.828363895416259766e-01,-1.243194580078125000e+00,-1.712018102407455444e-01,-7.718641757965087891e-01,-6.879183650016784668e-02,-8.836189657449722290e-02,-5.024325251579284668e-01,-2.898566424846649170e-01,-2.667420506477355957e-01,-7.078011035919189453e-01,-2.987218648195266724e-02,4.007071554660797119e-01,2.395552992820739746e-01,4.136470258235931396e-01,6.765331327915191650e-02,-4.647577181458473206e-02,4.970157742500305176e-01,-5.351086854934692383e-01,8.135046958923339844e-01,-6.821806728839874268e-02,-4.979921504855155945e-02,-4.328583776950836182e-01,5.090672969818115234e-01,-2.644553780555725098e-01,-5.626945570111274719e-02,-8.282060027122497559e-01,-4.204286038875579834e-01,-3.647337555885314941e-01,-3.309720754623413086e-01,1.087119802832603455e-01,1.039542630314826965e-01,-1.935162395238876343e-01,3.624385297298431396e-01,-2.183622866868972778e-01,-6.122241020202636719e-01,1.991418153047561646e-01,-7.419245839118957520e-01,-1.597973331809043884e-02,6.879416108131408691e-02,6.066689491271972656e-01,8.124602437019348145e-01,-8.135827183723449707e-01,1.031367946416139603e-02,-4.068860113620758057e-01,4.829595386981964111e-01,3.225354552268981934e-01,2.910822331905364990e-01,-4.581350684165954590e-01,-5.266360044479370117e-01,3.926340043544769287e-01,5.217284560203552246e-01,1.426456123590469360e-01,7.105010151863098145e-01,3.179048597812652588e-01,7.913967594504356384e-03,2.975542843341827393e-01,2.038571685552597046e-01,3.822551071643829346e-01,1.512984335422515869e-01,7.480321824550628662e-02,2.434948235750198364e-01,-4.553617835044860840e-01,3.086721301078796387e-01,6.495118737220764160e-01,4.601214826107025146e-01,-8.186887204647064209e-02,-5.459709763526916504e-01,2.921944558620452881e-01,-3.775560557842254639e-01,1.605751179158687592e-02,-3.208461403846740723e-01,-1.588691398501396179e-02,-4.028613567352294922e-01,5.981262028217315674e-02,-1.400493830442428589e-01,-2.423956990242004395e-01,-7.680054008960723877e-02,-3.572605848312377930e-01,-1.370134018361568451e-02,-8.667418360710144043e-01,-1.178954720497131348e+00,8.765016496181488037e-02,8.853184580802917480e-01,-3.079746067523956299e-01,-3.377391099929809570e-01,8.052700757980346680e-02,-3.494009971618652344e-01,-1.737141460180282593e-01,-3.413980007171630859e-01,-1.251957863569259644e-01,5.414815545082092285e-01,-3.145225346088409424e-02,2.299378160387277603e-03,-4.408640265464782715e-01,-3.154236078262329102e-01,2.161229997873306274e-01,1.293960452079772949e+00,2.477500736713409424e-01,-1.949402093887329102e-01,-1.276420056819915771e-01,-1.310296505689620972e-01,-4.317724108695983887e-01,4.007393494248390198e-02,-8.552318066358566284e-02,3.920594751834869385e-01,-8.152572065591812134e-02,-3.333239629864692688e-02,6.578065454959869385e-02,1.450898796319961548e-01,-3.002845048904418945e-01,2.843156158924102783e-01,-5.547965764999389648e-01,-4.168114066123962402e-01
-7.653271555900573730e-01,8.713396787643432617e-01,5.164200067520141602e-01,-1.573791503906250000e-01,1.704207658767700195e-01,-2.782520949840545654e-01,1.805359846912324429e-03,1.854143440723419189e-01,2.782416343688964844e-01,7.977181673049926758e-01,8.665902614593505859e-01,-5.442556738853454590e-01,-3.946800529956817627e-01,1.610626339912414551e+00,-6.520338654518127441e-01,-2.124913334846496582e-01,-2.640167474746704102e-01,2.299627102911472321e-02,3.204057812690734863e-01,-5.560969114303588867e-01,-1.028177618980407715e+00,-3.807561397552490234e-01,2.589538097381591797e-01,-3.993812799453735352e-01,-4.889796078205108643e-01,9.288687258958816528e-02,3.276972174644470215e-01,4.071029126644134521e-01,2.521197795867919922e-01,2.243025898933410645e-01,5.512051582336425781e-01,2.506712451577186584e-02,7.161556277424097061e-03,1.197364926338195801e+00,-1.349340528249740601e-01,-4.762622416019439697e-01,-2.425365447998046875e-01,-2.584668993949890137e-01,2.888096868991851807e-01,-4.013712406158447266e-01,-3.336940407752990723e-01,3.190264701843261719e-01,-2.731812298297882080e-01,2.192140370607376099e-02,-8.714320510625839233e-02,-7.194092273712158203e-01,-8.640375733375549316e-02,-7.431231737136840820e-01,-1.031720757484436035e+00,2.443680912256240845e-02,7.188164591789245605e-01,2.218775302171707153e-01,8.311734348535537720e-02,9.126243591308593750e-01,9.653773903846740723e-01,-5.302366614341735840e-01,4.071613550186157227e-01,-8.718685507774353027e-01,-2.892187051475048065e-02,1.440921187400817871e+00,-1.721553206443786621e-01,-1.098170280456542969e+00,4.849577546119689941e-01,-4.633355140686035156e-01,-4.937627911567687988e-01,2.775533497333526611e-01,5.025002956390380859e-01,7.512927651405334473e-01,-2.125050723552703857e-01,-5.032151937484741211e-01,1.362385153770446777e+00,2.964989840984344482e-01,1.441874504089355469e-01,-2.640572190284729004e-01,-2.982428669929504395e-01,-1.761786080896854401e-02,-6.836883425712585449e-01,9.545239806175231934e-02,7.369629293680191040e-02,-4.102651476860046387e-01,-7.796488702297210693e-02,-1.232753768563270569e-01,-1.882869452238082886e-01,1.907906383275985718e-01,9.578258991241455078e-01,-6.343044042587280273e-01,3.629676401615142822e-01,-2.713374197483062744e-01,-4.863792955875396729e-01,3.030154705047607422e-01,-5.051285028457641602e-01,1.225729346275329590e+00,-9.636157006025314331e-02,-4.075414538383483887e-01,-2.339993789792060852e-02,5.690006613731384277e-01,-1.285711884498596191e+00,1.235009804368019104e-01,-1.754532456398010254e-01,-8.456308394670486450e-02,-2.055780738592147827e-01,-9.786558896303176880e-02,-1.213788613677024841e-01,1.017007231712341309e+00,1.282171756029129028e-01,8.079426884651184082e-01,-1.473566442728042603e-01,-4.952958226203918457e-01,4.044069349765777588e-02,6.374677270650863647e-02,-1.590603440999984741e-01,-2.358681522309780121e-02,7.627699375152587891e-01,3.141357302665710449e-01,8.072467446327209473e-01,1.393254876136779785e+00,-5.876703262329101562e-01,1.117736399173736572e-01,6.502124946564435959e-03,-5.528021454811096191e-01,-2.633498609066009521e-01,7.170801162719726562e-01,3.623617887496948242e-01,-1.394918560981750488e-01,5.967698693275451660e-01,1.373206973075866699e+00,4.239464402198791504e-01,5.795102119445800781e-01
