-4.789520055055618286e-02,-2.560553848743438721e-01,5.917037278413772583e-02,-4.257676601409912109e-01,-3.643652796745300293e-02,-8.736914396286010742e-02,-9.445288032293319702e-02,-2.654130756855010986e-01,-8.015948534011840820e-02,-1.200972199440002441e-01,2.092644274234771729e-01,1.750568151473999023e-01,2.317034266889095306e-02,5.217404961585998535e-01,1.089144721627235413e-01,-1.736870259046554565e-01,-8.763523399829864502e-02,-1.319327950477600098e-01,2.637823820114135742e-01,-2.318033203482627869e-02,1.759292185306549072e-01,8.093537762761116028e-03,-2.050398662686347961e-02,-5.379690323024988174e-03,2.844066172838211060e-02,9.506061673164367676e-02,1.379100978374481201e-01,-8.265423774719238281e-02,1.713185608386993408e-01,1.238253265619277954e-01,-1.163180335424840450e-03,-3.176469355821609497e-02,-2.035421282052993774e-01,-1.418147385120391846e-01,1.277799010276794434e-01,8.995576202869415283e-02,1.378486603498458862e-01,-7.670312374830245972e-02,3.596149384975433350e-01,-1.088989675045013428e-01,-5.763171240687370300e-02,2.938635647296905518e-03,1.835562735795974731e-01,3.889559507369995117e-01,9.074648469686508179e-02,-5.229885224252939224e-03,-8.180812001228332520e-02,1.902542263269424438e-01,-8.123804628849029541e-02,-2.936719730496406555e-02,-2.195816934108734131e-01,1.519470214843750000e-01,1.440354099031537771e-04,-7.649104110896587372e-03,7.532171159982681274e-02,2.762128040194511414e-02,1.114823520183563232e-01,-1.561783999204635620e-01,1.138187050819396973e-01,1.326853036880493164e-01,-1.214049682021141052e-01,6.555173397064208984e-01,-1.011375486850738525e-01,-7.379637658596038818e-02,-3.437700569629669189e-01,-8.865561336278915405e-02,1.606095433235168457e-01,6.597316265106201172e-02,-8.396968990564346313e-02,-4.538591951131820679e-02,3.171972930431365967e-02,-2.130227237939834595e-01,1.303905844688415527e-01,-2.488987520337104797e-02,-1.090665906667709351e-01,-5.974752828478813171e-02,4.252774119377136230e-01,1.752886027097702026e-01,-1.674356907606124878e-01,-2.165704220533370972e-01,-1.460046321153640747e-01,4.264134764671325684e-01,8.160732686519622803e-02,2.475417554378509521e-01,7.554632425308227539e-02,3.458230197429656982e-01,-8.231656253337860107e-02,7.245163619518280029e-02,-1.419877707958221436e-01,1.654208749532699585e-01,-1.555467098951339722e-01,2.427877187728881836e-01,-2.393614966422319412e-03,-1.587943434715270996e-01,1.168549731373786926e-01,-1.427298039197921753e-01,2.311473786830902100e-01,-1.103004515171051025e-01,-2.914836630225181580e-02,-6.314221769571304321e-02,-5.077878385782241821e-02,5.456507578492164612e-02,2.873337827622890472e-02,2.653258852660655975e-03,1.709729731082916260e-01,1.606708914041519165e-01,2.419859170913696289e-02,1.004318445920944214e-01,2.960056066513061523e-01,1.376701742410659790e-01,3.100188449025154114e-03,-2.963495999574661255e-02,-1.063028573989868164e-01,-3.028047084808349609e-02,-4.175321385264396667e-02,3.595375716686248779e-01,6.103230640292167664e-02,2.273328602313995361e-01,-3.756413459777832031e-01,-2.237241156399250031e-02,4.057668149471282959e-02,4.226809740066528320e-02,7.466937415301799774e-03,4.678125083446502686e-01,7.871955633163452148e-02,-5.460973456501960754e-02,-1.152672842144966125e-01,-2.139362841844558716e-01
-9.906789287924766541e-03,1.387729030102491379e-02,-5.852425843477249146e-02,-4.674036428332328796e-02,-6.349480152130126953e-02,-8.864878118038177490e-02,8.925198018550872803e-02,-7.886240631341934204e-02,1.745693981647491455e-01,-1.313688009977340698e-01,-1.111976131796836853e-01,6.160907819867134094e-02,-8.177678287029266357e-02,-1.388954073190689087e-01,-3.567506000399589539e-02,1.421546041965484619e-01,6.304274499416351318e-02,-7.763184607028961182e-02,7.138755172491073608e-02,1.772788017988204956e-01,6.010075286030769348e-02,-2.649232931435108185e-02,1.872808188199996948e-01,-5.404084804467856884e-04,-1.718277926556766033e-03,-1.274954378604888916e-01,9.506175294518470764e-03,-1.433498132973909378e-02,-7.981595396995544434e-02,-1.777178049087524414e-01,1.914000809192657471e-01,4.406439512968063354e-02,-3.583036363124847412e-02,-1.631326675415039062e-01,5.473330616950988770e-02,3.879427537322044373e-02,-6.911308318376541138e-02,8.649051189422607422e-02,-1.379572600126266479e-01,-6.763622164726257324e-02,-1.154599562287330627e-01,-9.280878305435180664e-02,2.161476947367191315e-02,7.441244088113307953e-03,4.000143613666296005e-03,-2.013018578290939331e-01,4.673932865262031555e-02,5.332996696233749390e-02,-1.085227802395820618e-01,-4.781609401106834412e-02,-1.468514949083328247e-01,-1.938651651144027710e-01,-6.387972272932529449e-03,2.297575771808624268e-02,1.385114938020706177e-01,-2.454812452197074890e-02,1.404218673706054688e-01,-8.254332095384597778e-02,-1.113998368382453918e-01,-1.826507449150085449e-01,-1.099513396620750427e-01,1.876637339591979980e-01,-8.734843134880065918e-02,1.449373811483383179e-01,9.770166128873825073e-02,-1.261766999959945679e-01,-4.323329403996467590e-02,-9.192431345582008362e-03,-1.850203722715377808e-01,-5.609790980815887451e-02,-2.014082670211791992e-02,1.293540447950363159e-01,-1.079361960291862488e-01,-8.053743094205856323e-02,1.814181357622146606e-02,-7.779723405838012695e-02,-2.104291319847106934e-01,1.020004600286483765e-02,5.945355445146560669e-02,-3.663343563675880432e-02,1.991350203752517700e-01,-3.131477534770965576e-02,-1.164942607283592224e-02,8.433569967746734619e-02,-1.688638925552368164e-01,2.114416658878326416e-02,1.404869854450225830e-01,-1.846948824822902679e-02,5.784973874688148499e-02,-1.637998670339584351e-01,-1.511210650205612183e-01,-2.421560883522033691e-02,-2.653638832271099091e-02,-7.897902280092239380e-02,-1.571141779422760010e-01,-2.052838206291198730e-01,-8.955049514770507812e-02,-9.357471764087677002e-02,-2.815239317715167999e-02,9.137334674596786499e-02,1.623635292053222656e-01,-1.953691095113754272e-01,-2.297010086476802826e-02,-1.396310422569513321e-02,-1.209725290536880493e-01,3.946164622902870178e-02,-7.512721419334411621e-02,-2.016719430685043335e-01,3.954896330833435059e-02,-1.300622820854187012e-01,1.122053042054176331e-01,2.807962521910667419e-02,-6.261563301086425781e-02,-1.023739054799079895e-01,-1.856616437435150146e-01,-4.935511201620101929e-02,-1.288271397352218628e-01,-1.620613634586334229e-01,1.607340574264526367e-01,-5.402701720595359802e-02,2.064382135868072510e-01,1.002552956342697144e-01,-6.748060137033462524e-02,1.010510623455047607e-01,5.311422795057296753e-02,-8.852908760309219360e-02,1.026085317134857178e-01,1.556754708290100098e-01
-5.114285647869110107e-02,-1.812001913785934448e-01,8.746509253978729248e-02,1.746318489313125610e-01,-6.587388366460800171e-02,1.969370543956756592e-01,1.276157498359680176e-01,1.515876799821853638e-01,2.373513579368591309e-02,-1.565261557698249817e-02,-6.617478281259536743e-02,3.294527903199195862e-02,-2.655640617012977600e-02,5.465380102396011353e-02,-6.280288845300674438e-02,-1.974032074213027954e-01,-8.440193533897399902e-02,2.289820834994316101e-02,3.607515618205070496e-02,1.899535059928894043e-01,2.043587863445281982e-01,-1.911997646093368530e-01,-9.160760045051574707e-02,-1.743416041135787964e-01,1.827322244644165039e-01,-2.100438177585601807e-01,-3.895418718457221985e-02,3.965250402688980103e-02,-8.798768371343612671e-02,-7.086560875177383423e-02,-3.590725362300872803e-02,6.509925704449415207e-03,-1.852608099579811096e-02,6.286025792360305786e-02,7.953414320945739746e-02,3.917583450675010681e-02,1.556526571512222290e-01,-2.388639561831951141e-02,-2.050998061895370483e-01,-2.017154097557067871e-01,2.426001243293285370e-02,2.018493860960006714e-01,4.395589232444763184e-02,-6.041942909359931946e-02,-9.519463032484054565e-02,-6.505880504846572876e-02,-1.794889420270919800e-01,1.382107734680175781e-01,-1.550668030977249146e-01,-1.361258774995803833e-01,5.723256617784500122e-02,-1.559674888849258423e-01,1.986125111579895020e-01,2.020207792520523071e-01,-9.034817665815353394e-02,6.188668310642242432e-02,6.921824812889099121e-02,1.550727486610412598e-01,1.327853351831436157e-01,1.816592961549758911e-01,-1.271974295377731323e-01,8.222750574350357056e-02,3.127996996045112610e-02,4.462766461074352264e-03,-1.788583695888519287e-01,-5.567465722560882568e-02,-3.600224852561950684e-02,-4.255753755569458008e-02,-3.727216739207506180e-03,-7.806839048862457275e-02,1.978779733180999756e-01,1.063106358051300049e-01,8.825392462313175201e-03,-4.957156255841255188e-02,-3.281937539577484131e-02,1.613761931657791138e-01,-1.688974499702453613e-01,-7.253911346197128296e-02,8.269369602203369141e-02,5.961154773831367493e-02,-4.120209068059921265e-02,-1.284497976303100586e-01,-1.559290140867233276e-01,1.530822068452835083e-01,-1.208311021327972412e-01,4.828324541449546814e-02,7.128479890525341034e-03,-1.110422760248184204e-01,-2.103731185197830200e-01,-1.482506864704191685e-03,-1.277339756488800049e-01,-8.090866729617118835e-03,3.507009148597717285e-02,1.556888967752456665e-01,1.406418830156326294e-01,-7.372722029685974121e-02,5.554765835404396057e-02,5.177977308630943298e-02,-1.847602427005767822e-01,5.226720124483108521e-02,-6.786719709634780884e-02,9.336540848016738892e-02,-5.475780740380287170e-02,1.905363611876964569e-02,-3.582102805376052856e-02,-3.179492801427841187e-02,2.085021883249282837e-01,1.756251789629459381e-02,-6.448777019977569580e-02,-1.410515308380126953e-01,-2.919770963490009308e-02,4.202850908041000366e-02,4.674543812870979309e-02,-7.161244004964828491e-02,8.842433243989944458e-02,-6.952093541622161865e-02,-1.744584888219833374e-01,1.785158812999725342e-01,-2.357628941535949707e-02,4.527291283011436462e-02,3.819408267736434937e-02,1.881996393203735352e-01,-1.064646616578102112e-01,1.092165708541870117e-01,1.601880602538585663e-02,1.189790572971105576e-02,6.049567088484764099e-02,-1.488445326685905457e-02
-6.996790412813425064e-03,-1.028570532798767090e-01,5.406675860285758972e-02,7.831854373216629028e-02,-1.589985340833663940e-01,-6.787969172000885010e-02,1.068204715847969055e-01,9.930929541587829590e-02,-2.145692259073257446e-01,-9.245701134204864502e-02,1.675943657755851746e-02,-6.848487257957458496e-02,-1.793233156204223633e-01,-6.812934577465057373e-02,6.735984236001968384e-02,-2.302678376436233521e-01,8.926891535520553589e-02,-4.004231467843055725e-02,1.262039504945278168e-02,-6.643300503492355347e-02,1.095619276165962219e-01,-1.047466322779655457e-01,-5.871506035327911377e-02,-2.270620688796043396e-02,-6.906297802925109863e-02,-1.108852699398994446e-01,6.404347717761993408e-02,-8.422142267227172852e-02,-5.613216385245323181e-02,-3.930736705660820007e-02,1.762197725474834442e-02,-8.905074000358581543e-02,-5.416231602430343628e-02,5.316033959388732910e-02,-2.724083606153726578e-03,5.819131806492805481e-02,2.428587991744279861e-03,2.970220707356929779e-02,-1.448320895433425903e-01,-3.622269141487777233e-04,-1.526265218853950500e-02,1.271524876356124878e-01,-1.466319411993026733e-01,-2.008660882711410522e-02,-1.527979224920272827e-01,4.013359546661376953e-02,-7.123481482267379761e-02,-9.028382599353790283e-02,-1.658170297741889954e-02,-1.666828244924545288e-01,6.371080130338668823e-02,-7.719135284423828125e-02,-4.211925342679023743e-02,2.042169123888015747e-01,1.937192305922508240e-02,-1.945472955703735352e-01,9.382979571819305420e-02,1.088198721408843994e-01,2.225790172815322876e-02,2.695482596755027771e-02,8.549791574478149414e-02,1.786417216062545776e-01,-1.602118909358978271e-01,1.382376998662948608e-01,-1.411486268043518066e-01,-9.246360510587692261e-02,7.237635552883148193e-02,-1.534412503242492676e-01,1.384899578988552094e-02,7.451598346233367920e-02,-1.096582692116498947e-02,-2.446505427360534668e-02,2.146436460316181183e-02,-2.477675490081310272e-02,3.742555528879165649e-02,1.039865054190158844e-02,-1.569720655679702759e-01,-1.418833583593368530e-01,1.552266906946897507e-02,-4.619237408041954041e-02,4.520871490240097046e-02,-1.237792745232582092e-01,-8.426040410995483398e-02,5.368300899863243103e-02,5.406228080391883850e-02,-1.251917183399200439e-01,7.938144356012344360e-02,-9.032479487359523773e-03,-1.609041541814804077e-01,7.805074751377105713e-02,3.676561638712882996e-02,7.127469033002853394e-02,-1.703679561614990234e-02,1.352389603853225708e-01,2.211805246770381927e-02,-1.601525954902172089e-02,6.224725395441055298e-02,1.358838565647602081e-02,5.377446115016937256e-02,3.528063371777534485e-02,1.756879091262817383e-01,-4.444377496838569641e-02,3.365317359566688538e-02,-5.674960091710090637e-02,-1.931989789009094238e-01,4.582461342215538025e-02,-6.473621726036071777e-02,-4.992774873971939087e-02,2.178676612675189972e-02,-1.326673571020364761e-02,4.431376606225967407e-02,-6.594469398260116577e-02,6.692356616258621216e-02,-1.760444343090057373e-01,-1.718975752592086792e-01,-1.173403039574623108e-01,7.330226898193359375e-02,-4.121822863817214966e-02,7.212731987237930298e-02,8.713957853615283966e-03,1.886659413576126099e-01,-9.076847881078720093e-02,2.076241746544837952e-02,2.310059219598770142e-01,-1.272876858711242676e-01,1.645150408148765564e-02,-5.180446431040763855e-02,8.835651725530624390e-02
1.308660209178924561e-01,4.286539852619171143e-01,2.197315916419029236e-02,-1.339275538921356201e-01,6.099876761436462402e-01,2.671933472156524658e-01,-7.162803411483764648e-02,4.223459661006927490e-01,-4.671779572963714600e-01,-4.778894782066345215e-01,8.434177637100219727e-01,-9.873320907354354858e-02,-1.330922357738018036e-02,3.173245191574096680e-01,6.613110657781362534e-03,-4.350891709327697754e-02,8.372267484664916992e-01,1.792341768741607666e-01,-2.945874035358428955e-01,3.743331506848335266e-02,1.269129663705825806e-01,1.445572674274444580e-01,3.900364413857460022e-02,-3.699444830417633057e-01,6.118293404579162598e-01,-1.484636068344116211e-01,8.980823308229446411e-02,-4.120441526174545288e-02,-1.551194041967391968e-01,1.489550620317459106e-01,-2.570000588893890381e-01,-1.968655884265899658e-01,-4.661886096000671387e-01,1.313870698213577271e-01,-2.165024727582931519e-01,1.212056949734687805e-01,5.510487779974937439e-02,2.019034028053283691e-01,5.714279413223266602e-01,-1.214412078261375427e-01,6.807767320424318314e-03,-4.893588125705718994e-01,-2.791017591953277588e-01,-1.800295524299144745e-02,-4.466777145862579346e-01,-9.713434427976608276e-02,-1.504701972007751465e-01,6.359876133501529694e-04,1.680828034877777100e-01,4.833828806877136230e-01,1.052740514278411865e-01,2.934736609458923340e-01,2.494781464338302612e-01,-1.930137574672698975e-01,1.536940485239028931e-01,-6.106442585587501526e-02,1.790146529674530029e-01,1.875493079423904419e-01,3.811633586883544922e-01,-2.562190592288970947e-01,-6.704580038785934448e-02,4.690131545066833496e-01,1.751112043857574463e-01,-1.943924427032470703e-01,-1.502039283514022827e-01,-2.902940846979618073e-02,2.209599316120147705e-02,4.045017659664154053e-01,-2.126927673816680908e-01,8.837886154651641846e-02,-3.875602781772613525e-01,1.962808370590209961e-01,-8.957608789205551147e-02,-5.048261284828186035e-01,-4.115336760878562927e-02,1.634241342544555664e-01,-2.509425878524780273e-01,5.456183478236198425e-02,-2.609159648418426514e-01,6.783805787563323975e-02,-2.409125417470932007e-01,-5.087397098541259766e-01,-7.355667650699615479e-02,-1.631522029638290405e-01,1.453003734350204468e-01,2.926266193389892578e-01,-5.677202716469764709e-02,-1.029609218239784241e-01,-4.518180340528488159e-02,2.206734120845794678e-01,-1.916596889495849609e-01,-2.732995450496673584e-01,-3.885483834892511368e-03,-6.246364116668701172e-02,-1.109645292162895203e-01,3.406948745250701904e-01,-1.301932930946350098e-01,1.120425388216972351e-02,7.210163027048110962e-02,-3.252251446247100830e-02,4.028584659099578857e-01,-5.498932674527168274e-02,9.417881816625595093e-02,-8.525441586971282959e-02,-8.701463788747787476e-02,1.086257323622703552e-01,6.486226618289947510e-02,-3.108887076377868652e-01,-4.914622306823730469e-01,-1.652574688196182251e-01,3.327557817101478577e-02,-2.275464236736297607e-01,1.281560361385345459e-01,7.785616070032119751e-02,1.694788634777069092e-01,3.572352463379502296e-03,1.319402903318405151e-01,2.316620945930480957e-01,6.540388464927673340e-01,3.923475742340087891e-01,-1.055593937635421753e-01,-1.218139976263046265e-01,-2.365484461188316345e-02,-1.899241507053375244e-01,-1.835016012191772461e-01,2.644078731536865234e-01,-4.545098915696144104e-02,1.912325620651245117e-01
1.908731758594512939e-01,-1.697183102369308472e-01,-6.054925173521041870e-02,2.106914818286895752e-01,-2.679468393325805664e-01,6.881118752062320709e-03,-1.153104826807975769e-01,-1.005886569619178772e-01,1.471619904041290283e-01,2.401160001754760742e-01,-2.374017089605331421e-01,8.966827392578125000e-02,9.917623549699783325e-02,-2.889141142368316650e-01,-1.444805692881345749e-02,-1.017445474863052368e-01,2.165036499500274658e-01,-1.422661170363426208e-02,1.985205151140689850e-02,1.881149858236312866e-01,-3.531324863433837891e-02,5.146169662475585938e-02,-1.653597354888916016e-01,-7.467914372682571411e-02,-1.593760102987289429e-01,1.532464027404785156e-01,5.860272049903869629e-02,-2.301954664289951324e-02,-9.269002825021743774e-02,-1.453165411949157715e-01,-6.967381387948989868e-02,-1.160810366272926331e-01,2.909348905086517334e-01,-7.351426035165786743e-02,-5.560696870088577271e-02,9.800798445940017700e-02,-6.795245409011840820e-02,-3.153239190578460693e-01,-1.968879848718643188e-01,7.608624547719955444e-02,8.722395868971943855e-04,-6.493280529975891113e-01,-1.663629412651062012e-01,1.231868402101099491e-03,-5.086000263690948486e-02,7.670277357101440430e-02,-1.013924330472946167e-01,-5.236290767788887024e-02,-4.599462449550628662e-02,1.121111586689949036e-02,-3.466264531016349792e-02,-3.185013309121131897e-02,-1.924470961093902588e-01,3.256289958953857422e-01,9.151998162269592285e-02,-1.279022395610809326e-01,-1.356472354382276535e-02,7.438343763351440430e-02,5.727111101150512695e-01,1.541426479816436768e-01,7.595579326152801514e-02,1.213349029421806335e-01,-1.373874396085739136e-01,-1.527334898710250854e-01,1.265401206910610199e-02,1.609681695699691772e-01,8.462224900722503662e-02,-2.593713402748107910e-01,-5.953573808073997498e-02,-2.271343618631362915e-01,3.486337959766387939e-01,-7.694113999605178833e-02,-1.959723383188247681e-01,9.727212041616439819e-02,-3.756010830402374268e-01,6.755790859460830688e-02,-1.721282154321670532e-01,-4.263986647129058838e-02,-2.783758938312530518e-01,3.919148817658424377e-02,-3.529454022645950317e-02,1.137046292424201965e-01,1.216572001576423645e-01,1.828282773494720459e-01,-2.218937128782272339e-02,1.749788224697113037e-02,-9.130178019404411316e-03,-6.614676862955093384e-02,-4.013911634683609009e-02,1.011455431580543518e-01,-2.781888470053672791e-02,2.646092772483825684e-01,8.499365299940109253e-02,3.642745316028594971e-02,-7.285856455564498901e-02,-3.189079463481903076e-01,3.030013851821422577e-02,1.171528398990631104e-01,1.308240443468093872e-01,-5.594441667199134827e-02,2.439926266670227051e-01,-2.232417836785316467e-02,-2.539880573749542236e-01,1.980153322219848633e-01,1.528502404689788818e-01,-1.912037283182144165e-01,1.089209392666816711e-01,2.742652297019958496e-01,-1.536708921194076538e-01,9.690665174275636673e-04,2.534075081348419189e-01,-8.545906841754913330e-02,1.425708532333374023e-01,7.209379971027374268e-02,1.298965215682983398e-01,5.890547484159469604e-02,-6.407704949378967285e-02,-7.253953814506530762e-02,-6.021428108215332031e-01,6.795801967382431030e-02,-1.095581203699111938e-01,-5.320754647254943848e-02,1.206614226102828979e-01,4.549961090087890625e-01,-1.981951110064983368e-02,3.535921126604080200e-02,2.043087407946586609e-02,8.390837907791137695e-02
8.935174942016601562e-01,-2.889178991317749023e-01,-2.164885699748992920e-01,1.567057222127914429e-01,-4.586535096168518066e-01,1.032858192920684814e-01,1.003777980804443359e-01,-5.611508488655090332e-01,-4.426577389240264893e-01,2.227404862642288208e-01,-4.941985011100769043e-01,-3.039728850126266479e-02,-1.843523234128952026e-01,-9.055368304252624512e-01,2.188224792480468750e-01,7.945571541786193848e-01,-2.960723936557769775e-01,-4.746428504586219788e-02,3.682446777820587158e-01,4.519481658935546875e-01,3.315166831016540527e-01,3.105288930237293243e-02,2.077582925558090210e-01,-4.599984586238861084e-01,2.489753812551498413e-01,7.458280026912689209e-02,-5.880587697029113770e-01,-9.797215461730957031e-04,-1.501911878585815430e-01,-4.330799728631973267e-02,1.577794402837753296e-01,6.769370436668395996e-01,2.952060401439666748e-01,-1.533166412264108658e-02,-1.154344901442527771e-01,-1.279381811618804932e-01,2.512501478195190430e-01,-6.655030250549316406e-01,-1.754893511533737183e-01,-1.603213548660278320e-01,-2.168955355882644653e-01,-6.509731411933898926e-01,6.507742404937744141e-02,2.816146612167358398e-02,-5.033589005470275879e-01,3.095079213380813599e-02,-1.241495385766029358e-01,3.201603889465332031e-02,2.221912331879138947e-02,-1.590327173471450806e-02,1.071777343750000000e-01,-2.993597388267517090e-01,2.299147993326187134e-01,-2.021509557962417603e-01,7.223252654075622559e-01,3.839831054210662842e-01,1.476822644472122192e-01,6.768265366554260254e-01,-3.541195690631866455e-01,-1.633100509643554688e-01,2.036257386207580566e-01,-5.994022823870182037e-03,-2.353655248880386353e-01,-1.686166375875473022e-01,4.060882925987243652e-01,3.064909875392913818e-01,1.204910650849342346e-01,1.772477328777313232e-01,2.073106467723846436e-01,-1.671861559152603149e-01,-7.454438805580139160e-01,4.749886691570281982e-02,-4.903337061405181885e-01,-2.503423951566219330e-02,-1.358530391007661819e-02,-2.821656763553619385e-01,1.355450749397277832e-01,-7.887532934546470642e-03,2.039499431848526001e-01,6.823852658271789551e-01,-1.005200520157814026e-01,-2.418188601732254028e-01,7.269489765167236328e-02,1.071367636322975159e-01,3.118533492088317871e-01,3.652960658073425293e-01,1.284970790147781372e-01,-7.027873992919921875e-01,-3.543143346905708313e-02,2.614180557429790497e-04,3.630321919918060303e-01,-1.005107402801513672e+00,4.578053057193756104e-01,1.251032501459121704e-01,-1.874222904443740845e-01,-3.425944447517395020e-01,-5.288507342338562012e-01,-4.247777163982391357e-02,3.476313054561614990e-01,-7.949749380350112915e-02,-7.944038510322570801e-01,-2.109788954257965088e-01,1.792167574167251587e-01,-5.953388288617134094e-02,1.237296164035797119e-01,6.854904443025588989e-02,-2.899804413318634033e-01,5.917181968688964844e-01,-1.503577381372451782e-01,-2.553496658802032471e-01,-2.970146536827087402e-01,5.028488859534263611e-02,-1.145704835653305054e-01,3.222319111227989197e-02,1.215202212333679199e-01,-6.938028931617736816e-01,7.775611430406570435e-02,6.627415418624877930e-01,4.466513544321060181e-02,-1.997858285903930664e-01,2.718970179557800293e-01,-1.450713425874710083e-01,3.725998103618621826e-02,-1.881918609142303467e-01,2.587585747241973877e-01,6.211261749267578125e-01,3.151714503765106201e-01,3.192366566509008408e-03
1.041040197014808655e-02,-1.139532402157783508e-01,-3.520896891131997108e-03,-1.540444195270538330e-01,-4.679513163864612579e-03,1.677938103675842285e-01,-4.190934076905250549e-02,-9.102293103933334351e-02,-1.439446806907653809e-01,-1.184905767440795898e-01,-6.259874999523162842e-02,1.323885470628738403e-01,1.122510153800249100e-02,7.189676165580749512e-02,1.265891641378402710e-01,7.976099848747253418e-02,-1.387990564107894897e-01,3.671769052743911743e-02,-4.967743530869483948e-02,-2.474272064864635468e-02,-7.996203005313873291e-02,4.489869251847267151e-02,2.026049643754959106e-01,5.340060591697692871e-02,-2.277742773294448853e-01,-1.821947544813156128e-01,9.387490898370742798e-02,2.650822699069976807e-02,1.593550741672515869e-01,2.217671088874340057e-02,-5.698819085955619812e-02,1.063633523881435394e-02,-4.828406870365142822e-02,-5.821325257420539856e-02,-1.518906056880950928e-01,7.494828850030899048e-02,-4.837701097130775452e-02,-7.897026836872100830e-02,-6.416235119104385376e-02,-2.258225716650485992e-02,-2.638265118002891541e-02,-4.036413505673408508e-02,-1.934451609849929810e-01,1.348377615213394165e-01,-2.572861313819885254e-02,-6.281494349241256714e-02,-1.386846154928207397e-01,5.067802965641021729e-02,3.196145966649055481e-02,-4.251535981893539429e-02,-1.636088639497756958e-01,-5.200301483273506165e-02,-1.611256450414657593e-01,2.243367023766040802e-02,-8.635243028402328491e-02,4.944809898734092712e-02,-4.139516130089759827e-02,-3.386904299259185791e-02,7.916729152202606201e-02,1.041839793324470520e-01,-8.480530232191085815e-02,1.257640123367309570e-01,-1.758340597152709961e-01,1.800929754972457886e-01,3.665745630860328674e-02,-3.603312373161315918e-02,1.530186533927917480e-01,1.156126148998737335e-02,-1.030661240220069885e-01,-7.865522056818008423e-03,1.556945033371448517e-02,1.636952161788940430e-01,-8.462388068437576294e-02,-6.307393312454223633e-03,-1.296879500150680542e-01,-3.164252266287803650e-02,-1.827034056186676025e-01,-1.426569074392318726e-01,-1.580802947282791138e-01,1.988484710454940796e-01,7.494767010211944580e-02,1.903287172317504883e-01,-1.887973397970199585e-01,-5.541128106415271759e-03,-2.370119467377662659e-02,6.793258339166641235e-02,2.023942917585372925e-01,6.813269853591918945e-02,1.046524965204298496e-03,-1.308661550283432007e-01,3.979500383138656616e-02,-2.660528756678104401e-02,5.974392965435981750e-02,8.293189108371734619e-03,-4.444187134504318237e-02,4.073803871870040894e-02,6.191756203770637512e-02,1.952172070741653442e-01,2.501576766371726990e-02,1.836170405149459839e-01,-2.851076051592826843e-02,-1.479742527008056641e-01,4.878447204828262329e-02,7.343001663684844971e-02,-3.016442246735095978e-02,-1.911464929580688477e-01,1.380983442068099976e-01,5.525242537260055542e-03,-1.778702280716970563e-04,-1.665925085544586182e-01,1.303945481777191162e-01,-7.518488913774490356e-02,-7.360662519931793213e-02,1.481351703405380249e-01,7.481191307306289673e-02,-2.517107874155044556e-02,3.002365492284297943e-02,1.806013733148574829e-01,-7.913561910390853882e-02,-1.509909778833389282e-01,7.762561738491058350e-02,-1.836658455431461334e-02,-1.480740308761596680e-01,2.486558444797992706e-02,2.185782231390476227e-02,-8.369407802820205688e-02,-1.051941663026809692e-01,8.605914562940597534e-02
1.840344518423080444e-01,-1.332250982522964478e-01,-2.027204073965549469e-02,6.245463714003562927e-02,7.739764451980590820e-02,8.619187027215957642e-02,9.697550535202026367e-02,2.390235103666782379e-02,1.005237177014350891e-01,-2.341533452272415161e-01,-1.729182749986648560e-01,5.875373259186744690e-02,5.483905598521232605e-02,-4.285315424203872681e-02,-8.023867756128311157e-02,2.147679217159748077e-02,-1.800222694873809814e-01,-1.430450230836868286e-01,-1.584505662322044373e-02,7.090738415718078613e-02,-9.786208719015121460e-02,4.274993203580379486e-03,1.689649522304534912e-01,-1.055527403950691223e-01,-7.406143471598625183e-03,-1.041422784328460693e-01,5.985348019748926163e-03,-6.031487509608268738e-02,4.824360460042953491e-02,-6.915014982223510742e-02,-8.437854051589965820e-02,9.946003556251525879e-02,6.773328036069869995e-02,-1.939437538385391235e-01,-1.957441121339797974e-01,1.642600148916244507e-01,1.445741355419158936e-01,3.618945926427841187e-02,-5.433630198240280151e-03,-1.989561170339584351e-01,-1.268788129091262817e-01,-2.758810855448246002e-02,8.931419998407363892e-02,7.611918449401855469e-02,-1.857641786336898804e-01,-8.438757807016372681e-02,-3.021557815372943878e-02,1.791082322597503662e-01,6.187530979514122009e-02,4.274510219693183899e-02,-4.614954814314842224e-02,-4.029122367501258850e-02,4.878998547792434692e-02,-8.381281048059463501e-02,1.385084986686706543e-01,-5.406988039612770081e-02,-8.026146143674850464e-02,-5.602858588099479675e-02,-6.720133870840072632e-02,2.136692553758621216e-01,5.063764378428459167e-02,-1.050868183374404907e-01,-1.737018823623657227e-01,5.473035946488380432e-02,-1.721488079056143761e-03,-6.467488408088684082e-02,-8.828455954790115356e-02,-6.823086738586425781e-02,-1.996411234140396118e-01,-6.518034636974334717e-02,1.810783892869949341e-01,1.554224640130996704e-01,-2.733602561056613922e-02,-9.660945087671279907e-02,1.899015307426452637e-01,4.749029129743576050e-02,-2.027212455868721008e-02,-1.381340920925140381e-01,-2.382945418357849121e-01,-7.615382969379425049e-02,1.326043754816055298e-01,3.502426296472549438e-02,-1.596322953701019287e-01,5.716444551944732666e-02,-2.075817286968231201e-01,-1.909892261028289795e-01,-4.820957779884338379e-02,5.871052667498588562e-02,-4.462756961584091187e-02,-2.054187208414077759e-01,-3.024865500628948212e-02,3.643013909459114075e-02,9.838841855525970459e-02,1.895765960216522217e-01,2.053727060556411743e-01,-4.262808337807655334e-02,4.702524468302726746e-02,9.128399193286895752e-02,-1.633193343877792358e-01,8.800549805164337158e-02,-3.955293819308280945e-02,3.081909613683819771e-03,-7.508256006985902786e-03,4.185990244150161743e-02,-4.647210007533431053e-04,1.863289251923561096e-02,2.300091087818145752e-02,-2.387150675058364868e-01,-6.659562233835458755e-03,2.658688649535179138e-02,-2.508731186389923096e-02,-3.866401687264442444e-02,-1.840004324913024902e-01,-6.340858340263366699e-02,-7.087352871894836426e-02,-1.840222030878067017e-01,-1.735353283584117889e-02,-3.127425536513328552e-02,1.203468963503837585e-01,7.206391543149948120e-02,3.163925930857658386e-02,7.965842634439468384e-02,2.304902672767639160e-02,1.260693073272705078e-01,-4.144685342907905579e-02,4.705838859081268311e-02,2.006564289331436157e-01,2.031765878200531006e-01
-2.542887441813945770e-02,-1.159193143248558044e-01,9.655585139989852905e-02,-7.423939649015665054e-03,-1.922998279333114624e-01,-1.444095373153686523e-01,8.854928426444530487e-03,-3.440677225589752197e-01,-1.403603702783584595e-01,-1.769263148307800293e-01,2.130203843116760254e-01,3.847058489918708801e-02,-1.618714481592178345e-01,2.137928009033203125e-01,-1.980555951595306396e-01,1.042443513870239258e-01,1.709811985492706299e-01,-1.632826179265975952e-01,1.635205298662185669e-01,-7.365861535072326660e-02,1.245060414075851440e-01,-1.264094188809394836e-02,1.770589947700500488e-01,-1.845086812973022461e-01,4.704829752445220947e-01,1.120961904525756836e-01,2.453624308109283447e-01,-1.619629263877868652e-01,2.686453163623809814e-01,-2.681346237659454346e-01,-1.275866106152534485e-02,-1.454359758645296097e-02,-2.067161351442337036e-01,-1.930048316717147827e-01,-2.719693817198276520e-02,1.713810116052627563e-01,-1.350741460919380188e-02,-1.170009970664978027e-01,2.238609641790390015e-01,2.318448200821876526e-02,1.592191159725189209e-01,2.988118827342987061e-01,2.703645527362823486e-01,3.440068364143371582e-01,-8.745885640382766724e-02,-1.114065274596214294e-01,-4.226317629218101501e-02,-5.846886038780212402e-01,1.438195854425430298e-01,-2.880424261093139648e-01,8.300831168889999390e-02,5.713964626193046570e-02,-4.862772300839424133e-02,2.063577771186828613e-01,-2.365419268608093262e-01,-1.320556700229644775e-01,-3.201004490256309509e-02,-2.970685623586177826e-02,7.680690288543701172e-02,3.256900608539581299e-02,-8.200083673000335693e-02,-2.199459820985794067e-03,-1.271622329950332642e-01,7.666239514946937561e-03,-4.724315404891967773e-01,1.066538989543914795e-01,4.289698228240013123e-02,-4.602291882038116455e-01,9.220678359270095825e-02,-2.691800240427255630e-03,-4.656166434288024902e-01,-1.551892608404159546e-01,7.264004647731781006e-02,-5.779024213552474976e-02,3.695338964462280273e-01,-1.923868954181671143e-01,4.212114512920379639e-01,-9.916423261165618896e-02,-2.716501057147979736e-02,8.440565317869186401e-02,-9.297028183937072754e-02,-1.350822448730468750e-01,8.272717241197824478e-05,8.796601742506027222e-02,-4.613162204623222351e-02,5.556920543313026428e-02,-5.341997742652893066e-02,-6.088437978178262711e-03,-8.098616451025009155e-02,-2.100371271371841431e-01,1.621914282441139221e-02,-7.675648927688598633e-01,-6.616713106632232666e-02,-1.987541280686855316e-02,6.866094470024108887e-02,7.908753305673599243e-02,-5.724540948867797852e-01,-4.524058401584625244e-01,-3.153670430183410645e-01,-4.993046075105667114e-02,-4.443174600601196289e-02,1.132911294698715210e-01,1.649316847324371338e-01,4.758648574352264404e-02,8.257624506950378418e-02,-3.466541692614555359e-02,3.620197623968124390e-02,2.172878980636596680e-01,-3.057900965213775635e-01,-4.768330231308937073e-02,-4.382980987429618835e-03,1.013368144631385803e-01,-2.072607725858688354e-01,-4.008202999830245972e-02,-2.412497550249099731e-01,-2.108511477708816528e-01,-1.038372218608856201e-01,1.309129744768142700e-01,-9.525601565837860107e-02,1.297423541545867920e-01,4.196912050247192383e-02,-1.686600446701049805e-01,9.406119585037231445e-02,-1.886912584304809570e-01,-1.208092793822288513e-01,-2.325695604085922241e-01,3.315963745117187500e-01,-5.243866145610809326e-02
2.916276752948760986e-01,-9.537574648857116699e-01,-6.578648090362548828e-02,1.122488901019096375e-01,-4.169564247131347656e-01,3.061664700508117676e-01,5.133690312504768372e-02,-7.997865080833435059e-01,9.220418334007263184e-02,-8.617513626813888550e-02,-5.692417547106742859e-02,3.264575824141502380e-02,3.067829906940460205e-01,7.065370678901672363e-03,1.184192076325416565e-01,2.336749583482742310e-01,1.194668188691139221e-01,2.802545949816703796e-02,5.343296527862548828e-01,3.785766959190368652e-01,3.993985592387616634e-05,-1.765163987874984741e-02,-1.176068261265754700e-01,4.558708891272544861e-02,4.022571444511413574e-01,-1.412677168846130371e-01,2.385325282812118530e-01,1.581070572137832642e-01,-1.614057421684265137e-01,2.984514832496643066e-01,-1.948160380125045776e-01,-2.483420372009277344e-01,-5.697380900382995605e-01,2.046039998531341553e-01,3.506332635879516602e-01,2.183925509452819824e-01,4.035356640815734863e-02,2.559108138084411621e-01,-3.138018846511840820e-01,-7.616298645734786987e-02,-1.457662321627140045e-02,-9.683049917221069336e-01,-2.180191278457641602e-01,4.321911931037902832e-02,1.648254841566085815e-01,-3.978421688079833984e-01,-5.413768887519836426e-01,-9.013130515813827515e-02,8.108823746442794800e-02,1.033836826682090759e-01,-2.089407891035079956e-01,3.761501908302307129e-01,-2.517812326550483704e-02,1.847905516624450684e-01,8.710404038429260254e-01,-3.821986913681030273e-01,1.819548606872558594e-01,9.274951368570327759e-02,-3.445386290550231934e-01,1.646019965410232544e-01,-7.531974464654922485e-03,1.082466915249824524e-01,-1.191642209887504578e-01,-2.690453827381134033e-01,-8.933564275503158569e-02,-5.029122158885002136e-02,-1.640785485506057739e-01,4.292557835578918457e-01,-3.435780107975006104e-02,-6.267512589693069458e-02,-2.227452546358108521e-01,4.021876454353332520e-01,1.147401779890060425e-01,6.309060752391815186e-02,-2.979455292224884033e-01,1.069103926420211792e-01,-6.932999938726425171e-02,2.144818007946014404e-01,-9.104291796684265137e-01,1.023032795637845993e-02,-3.920579329133033752e-02,4.676637351512908936e-01,4.783366341143846512e-03,2.700988650321960449e-01,2.405336946249008179e-01,-1.586367934942245483e-01,5.583173409104347229e-02,-1.461705863475799561e-01,-8.574955165386199951e-02,2.989890277385711670e-01,1.789973825216293335e-01,-2.031431943178176880e-01,3.836342394351959229e-01,-2.418121881783008575e-02,1.321904361248016357e-01,6.638298034667968750e-01,6.808143258094787598e-01,4.664978384971618652e-02,-7.370417006313800812e-03,-1.710098050534725189e-02,3.028666079044342041e-01,1.283581107854843140e-01,-2.612610161304473877e-01,1.528658717870712280e-01,-1.215841397643089294e-01,6.333412230014801025e-02,4.993659630417823792e-02,4.987566769123077393e-01,2.756323516368865967e-01,-2.288440242409706116e-02,4.603845775127410889e-01,-5.260971784591674805e-01,1.623645573854446411e-01,-1.776213794946670532e-01,1.689907163381576538e-01,5.925568938255310059e-01,8.090505003929138184e-02,4.018279016017913818e-01,-1.052615642547607422e+00,-2.997304201126098633e-01,1.607889235019683838e-01,-4.475281834602355957e-01,7.326159626245498657e-02,-6.633558869361877441e-02,-2.848939783871173859e-02,-9.199652820825576782e-02,3.280155062675476074e-01,5.155133008956909180e-01
-4.083877801895141602e-02,1.749641844071447849e-03,1.956826299428939819e-01,-9.001141041517257690e-02,-1.339434981346130371e-01,-8.585730195045471191e-02,-7.157806307077407837e-02,-5.647276341915130615e-02,6.266895681619644165e-02,-1.976549923419952393e-01,-7.568072527647018433e-02,7.547847181558609009e-02,-5.989649891853332520e-02,1.547897607088088989e-02,-4.570127278566360474e-02,6.437737494707107544e-02,-2.146738171577453613e-01,-1.663104295730590820e-01,2.024511843919754028e-01,-6.325306836515665054e-03,1.444019377231597900e-01,-1.523071378469467163e-01,-9.204354882240295410e-02,1.297766119241714478e-01,9.338230639696121216e-02,-1.529670134186744690e-02,1.129350289702415466e-01,-2.179474383592605591e-02,1.250719577074050903e-01,-1.385852545499801636e-01,2.005504369735717773e-01,-4.722452908754348755e-02,1.012625619769096375e-01,-7.738605141639709473e-03,7.469602860510349274e-03,2.184100449085235596e-02,1.425366997718811035e-01,-6.204202771186828613e-02,3.093343973159790039e-02,-1.277780247619375587e-04,-3.216010332107543945e-02,-6.379513442516326904e-02,8.399132639169692993e-02,-1.241113096475601196e-01,4.751867055892944336e-02,7.215534150600433350e-02,-4.021192342042922974e-02,1.892522275447845459e-01,-1.734392046928405762e-01,-1.455954313278198242e-01,8.183109760284423828e-02,-7.092508953064680099e-03,-6.936690211296081543e-02,-1.298441365361213684e-02,1.221935451030731201e-01,-9.940643608570098877e-02,-9.312540292739868164e-02,-4.568210244178771973e-02,-3.896936029195785522e-02,9.788905829191207886e-02,-5.306676775217056274e-02,1.905940175056457520e-01,1.079288646578788757e-01,-6.998918950557708740e-02,6.705153733491897583e-02,-1.477409303188323975e-01,4.842879623174667358e-02,-1.075678840279579163e-01,3.603483363986015320e-02,1.885288655757904053e-01,-3.006855212152004242e-02,1.296749562025070190e-01,-5.806228145956993103e-02,9.664302319288253784e-02,1.197967156767845154e-01,-7.777018100023269653e-02,6.484834849834442139e-02,1.571081764996051788e-02,7.606755197048187256e-02,1.943104863166809082e-01,1.685250103473663330e-01,-7.444678246974945068e-02,-4.598294943571090698e-02,1.763586699962615967e-01,5.440524220466613770e-02,9.569157846271991730e-03,-1.287558767944574356e-02,-1.109597161412239075e-01,4.834144189953804016e-02,3.903635591268539429e-02,-1.195085197687149048e-01,-4.355840384960174561e-02,-1.828461289405822754e-01,1.928046345710754395e-01,4.844734445214271545e-03,1.685986109077930450e-02,-4.621239844709634781e-03,2.671983093023300171e-02,-1.570190340280532837e-01,-4.319468140602111816e-02,3.361199423670768738e-02,1.549614407122135162e-02,5.920705571770668030e-02,-6.871178001165390015e-02,-9.964975528419017792e-03,-5.122745782136917114e-02,-8.101710677146911621e-02,-1.950913369655609131e-01,-9.603752195835113525e-02,4.469390586018562317e-02,1.749377399682998657e-01,-9.607219696044921875e-02,4.541643708944320679e-02,-6.572316586971282959e-02,-4.694693163037300110e-02,-8.055545389652252197e-02,-9.947308897972106934e-02,5.711009353399276733e-02,-5.739822238683700562e-02,1.315433531999588013e-01,5.969863012433052063e-02,1.924251914024353027e-01,1.055612936615943909e-01,-8.264117687940597534e-02,-1.869964748620986938e-01,-1.190435215830802917e-01,-5.093336477875709534e-02,7.144237309694290161e-02
1.375274080783128738e-02,-6.591573953628540039e-01,-9.827744960784912109e-02,-1.948571354150772095e-01,-6.682056188583374023e-01,5.607019662857055664e-01,1.766081452369689941e-01,-1.516914069652557373e-01,-2.853245437145233154e-01,2.361969351768493652e-01,9.998193979263305664e-01,-2.280992120504379272e-01,-9.248635033145546913e-04,-5.323150753974914551e-01,3.272252976894378662e-01,2.069198489189147949e-01,-1.796868443489074707e-01,-9.354615211486816406e-02,2.571927011013031006e-01,1.997292041778564453e-01,3.904362618923187256e-01,5.127276778221130371e-01,2.557125128805637360e-02,-6.077861413359642029e-02,-3.797487616539001465e-01,1.658042967319488525e-01,6.501746922731399536e-02,-1.054123193025588989e-01,5.916116014122962952e-02,8.089601248502731323e-02,-2.107682526111602783e-01,-8.331452012062072754e-01,-1.066354289650917053e-01,-1.823712885379791260e-01,-3.937304913997650146e-01,-3.806817159056663513e-02,4.176987111568450928e-01,-4.718855917453765869e-01,-1.210034266114234924e-01,4.043246805667877197e-02,7.965254038572311401e-02,1.892202496528625488e-01,1.699069440364837646e-01,-2.995022237300872803e-01,2.367613613605499268e-01,-2.528560459613800049e-01,9.640453010797500610e-02,-2.608973383903503418e-01,1.929994970560073853e-01,-7.171294093132019043e-01,3.490098118782043457e-01,-2.527753114700317383e-01,-4.679141938686370850e-01,6.407723426818847656e-01,-3.305344879627227783e-01,2.992635667324066162e-01,1.988642290234565735e-02,1.480437349528074265e-02,1.945566087961196899e-01,4.536029696464538574e-01,-2.259871512651443481e-01,-2.428824454545974731e-01,-1.178958732634782791e-02,-2.174662202596664429e-01,-2.282460480928421021e-01,2.364130318164825439e-01,-1.072316989302635193e-01,-4.497478529810905457e-02,-2.036815583705902100e-01,-1.566440910100936890e-01,-1.351955980062484741e-01,6.015664711594581604e-02,-6.393435001373291016e-01,-9.441399574279785156e-02,-9.278332442045211792e-02,-3.539743367582559586e-03,-5.550337433815002441e-01,9.584587067365646362e-02,2.260710448026657104e-01,2.129172682762145996e-01,-4.799549281597137451e-01,-7.665188610553741455e-02,-7.343132793903350830e-02,2.775126397609710693e-01,-1.980767250061035156e-01,-3.753331005573272705e-01,-7.857429236173629761e-02,3.018954992294311523e-01,-3.705190727487206459e-03,-2.145642340183258057e-01,-5.068056285381317139e-02,-4.487983882427215576e-02,-1.350069642066955566e-01,-3.578634262084960938e-01,-2.631988525390625000e-01,-1.145508885383605957e+00,-1.135476902127265930e-01,-6.403184682130813599e-02,5.486200451850891113e-01,-1.233386807143688202e-02,4.219646379351615906e-02,-5.346387624740600586e-02,-5.665680170059204102e-01,-4.463015496730804443e-02,-3.696627169847488403e-02,3.117153644561767578e-01,8.361124247312545776e-02,4.634283483028411865e-03,-3.127534687519073486e-01,-1.805516779422760010e-01,-2.259265780448913574e-01,2.359767556190490723e-01,3.124267160892486572e-01,-3.458550572395324707e-01,2.625183463096618652e-01,-2.529770135879516602e-01,5.513694882392883301e-02,1.522249281406402588e-01,2.625635638833045959e-02,-1.107143685221672058e-01,-3.645263612270355225e-01,9.306173026561737061e-02,-3.919520378112792969e-01,3.540154397487640381e-01,-1.300124526023864746e-01,2.435555905103683472e-01,4.941496849060058594e-01,-4.926770031452178955e-01
7.209882140159606934e-02,-1.355910748243331909e-01,1.470651924610137939e-01,-6.418287009000778198e-02,2.474298030138015747e-01,-8.861241489648818970e-02,-1.442988519556820393e-03,-2.362207323312759399e-02,1.490357071161270142e-01,-2.582244873046875000e-01,1.601847447454929352e-02,-7.041326910257339478e-02,8.746173232793807983e-02,2.543078660964965820e-01,1.273664534091949463e-01,-8.806967176496982574e-03,-2.340566366910934448e-01,9.489303827285766602e-02,3.487215638160705566e-01,-1.102738007903099060e-01,-3.418475016951560974e-02,-1.016115546226501465e-01,1.720837503671646118e-01,2.329744696617126465e-01,2.805727422237396240e-01,1.144465431571006775e-01,-7.946752011775970459e-02,1.120981946587562561e-02,-9.521720558404922485e-02,1.935789585113525391e-01,1.062904447317123413e-01,1.232466287910938263e-02,1.240695193409919739e-01,-6.775478273630142212e-02,-9.694286435842514038e-02,1.154683381319046021e-01,1.811339333653450012e-02,-2.129641175270080566e-01,1.030334904789924622e-01,-1.813831739127635956e-02,-1.593892276287078857e-01,-5.922325327992439270e-02,4.422995448112487793e-02,1.702764332294464111e-01,-1.243898719549179077e-01,4.146957024931907654e-02,-9.329412132501602173e-03,5.654161795973777771e-02,2.768144011497497559e-02,3.572742268443107605e-02,-2.826707623898983002e-02,-9.898632019758224487e-02,-1.229842230677604675e-01,7.557337731122970581e-02,1.354896426200866699e-01,1.419182717800140381e-01,1.538104191422462463e-02,1.436463743448257446e-01,7.903451919555664062e-01,-1.782134361565113068e-02,2.728792093694210052e-02,-7.459498047828674316e-01,-2.371763251721858978e-02,3.939976170659065247e-02,1.798910051584243774e-01,9.229167550802230835e-02,1.185973882675170898e-01,-2.076334506273269653e-01,-1.112404540181159973e-01,-8.181098103523254395e-02,-7.488766312599182129e-02,-3.563974052667617798e-02,-8.660865947604179382e-03,-9.697572141885757446e-02,9.118388593196868896e-02,-1.140017732977867126e-01,9.170381352305412292e-03,-7.757499068975448608e-02,-5.641165971755981445e-01,-4.480847343802452087e-02,-3.051000237464904785e-01,-1.463353186845779419e-01,9.475773572921752930e-02,1.011903658509254456e-01,-2.036006152629852295e-01,-8.046527951955795288e-02,1.126179918646812439e-01,-1.360605955123901367e-01,7.908935844898223877e-02,-9.679773449897766113e-02,6.797062605619430542e-02,4.193679094314575195e-01,-4.694640263915061951e-02,9.485226124525070190e-02,9.160824120044708252e-02,-1.175103262066841125e-01,3.803437948226928711e-02,2.012861222028732300e-01,-5.437288433313369751e-02,4.256247356534004211e-02,-2.150777168571949005e-02,1.277336776256561279e-01,1.842192858457565308e-01,1.374989598989486694e-01,6.633947789669036865e-02,-3.439755141735076904e-01,-4.319447651505470276e-02,-2.485752552747726440e-01,-1.406545788049697876e-01,1.072561517357826233e-01,1.504700332880020142e-01,-1.493400186300277710e-01,-6.361001729965209961e-02,-8.150985836982727051e-02,-9.535661339759826660e-02,7.370524853467941284e-02,5.445574969053268433e-02,3.532354235649108887e-01,6.006175279617309570e-01,2.191346436738967896e-01,-6.217427179217338562e-02,3.999549895524978638e-02,-5.048848688602447510e-03,1.043818295001983643e-01,1.382547989487648010e-02,2.741076610982418060e-02,1.348039787262678146e-02,-1.401349715888500214e-02
-1.017821207642555237e-02,-2.871706485748291016e-01,7.687391340732574463e-02,5.409543216228485107e-02,-1.037214621901512146e-01,3.680520132184028625e-02,1.165158823132514954e-01,-3.411823809146881104e-01,-6.309210509061813354e-02,-1.488072574138641357e-01,1.137761473655700684e-01,1.329529732465744019e-01,1.695230007171630859e-01,-8.432484418153762817e-02,8.811981976032257080e-02,7.356965541839599609e-02,-4.965006709098815918e-01,-3.543608635663986206e-02,5.570449680089950562e-02,1.835888177156448364e-01,6.062969565391540527e-02,6.662444770336151123e-02,3.138707578182220459e-02,1.423136144876480103e-01,1.361073851585388184e-01,1.369294077157974243e-01,8.031202852725982666e-02,4.450716078281402588e-02,7.802578061819076538e-02,-8.384708315134048462e-02,8.420916646718978882e-02,4.258682206273078918e-02,9.821534901857376099e-02,-1.165218129754066467e-01,-1.431682258844375610e-01,-6.964553892612457275e-02,1.444015502929687500e-01,-7.792353630065917969e-02,-8.040964603424072266e-02,-1.439784169197082520e-01,-8.451578766107559204e-02,-1.484363526105880737e-01,5.977359786629676819e-02,4.345621168613433838e-01,-2.077448368072509766e-02,-1.365068554878234863e-01,-1.348524242639541626e-01,8.786979317665100098e-02,4.497239738702774048e-02,-9.955103695392608643e-02,-1.690127402544021606e-01,1.111455727368593216e-02,-1.263367533683776855e-01,1.556805968284606934e-01,4.627127945423126221e-02,-1.256877183914184570e-01,-1.211854815483093262e-02,8.267018944025039673e-02,1.035494565963745117e+00,3.197050094604492188e-01,-1.003218963742256165e-01,2.647301256656646729e-01,-9.191002696752548218e-02,8.725439012050628662e-02,-2.056580930948257446e-01,1.561279147863388062e-01,2.865007892251014709e-02,-1.780266687273979187e-02,5.521317943930625916e-02,-9.253219515085220337e-02,9.002260048873722553e-04,1.748386956751346588e-02,1.376367956399917603e-01,-7.903228700160980225e-02,3.321492299437522888e-02,1.369949579238891602e-01,5.156426876783370972e-02,1.223967894911766052e-01,2.544442936778068542e-02,-1.456767767667770386e-01,2.313524298369884491e-02,-4.387600813060998917e-03,1.318951994180679321e-01,1.189007163047790527e-01,-2.912751957774162292e-02,-1.540919672697782516e-02,-2.092216722667217255e-02,-7.980599999427795410e-02,1.004200726747512817e-01,6.353800743818283081e-02,1.050697490572929382e-01,-5.882420018315315247e-02,-9.341938421130180359e-03,-9.064454585313796997e-03,2.056621164083480835e-01,-3.942903131246566772e-02,-1.729012131690979004e-01,-1.500288844108581543e-01,2.166002243757247925e-02,-9.123180061578750610e-02,-6.198186799883842468e-02,4.077220708131790161e-02,6.183731369674205780e-03,2.142224274575710297e-02,9.296115487813949585e-02,5.397135391831398010e-02,1.291881948709487915e-01,-8.679642528295516968e-02,3.366563320159912109e-01,-8.061396330595016479e-02,1.079373136162757874e-01,5.094923079013824463e-02,-4.346949979662895203e-02,1.478602588176727295e-01,-1.012186035513877869e-01,1.030813232064247131e-01,3.949338197708129883e-02,1.847014576196670532e-01,4.296775534749031067e-02,1.595563888549804688e-01,1.004611253738403320e-01,1.194748468697071075e-02,-6.666033715009689331e-02,-3.310141712427139282e-02,8.490653336048126221e-02,-4.123391956090927124e-02,-5.950576066970825195e-02,1.741024553775787354e-01
-2.818353101611137390e-02,9.269130229949951172e-02,1.379941701889038086e-01,5.090713500976562500e-02,-1.069624274969100952e-01,-4.853613674640655518e-02,3.209654241800308228e-02,1.996475309133529663e-01,-1.802404671907424927e-01,-1.882667839527130127e-01,6.094276905059814453e-02,-2.076377533376216888e-02,-1.732428520917892456e-01,-4.758507013320922852e-03,4.825050756335258484e-02,3.656044602394104004e-02,3.102872706949710846e-02,3.422852978110313416e-02,1.673460304737091064e-01,-3.402295056730508804e-03,7.444893568754196167e-02,-1.398107856512069702e-01,6.976708769798278809e-02,1.635193452239036560e-02,8.109378069639205933e-02,-2.604102157056331635e-02,-4.966384544968605042e-02,9.405125677585601807e-02,1.685970276594161987e-01,-7.413594424724578857e-02,7.537535857409238815e-03,-6.046110391616821289e-02,5.905478447675704956e-02,-3.257396747358143330e-05,-1.141414195299148560e-01,1.359274145215749741e-02,1.495198756456375122e-01,-5.538214370608329773e-02,4.446256533265113831e-02,-1.519737690687179565e-01,-5.066107213497161865e-02,3.583020716905593872e-02,-1.073919236660003662e-01,6.671120971441268921e-02,3.786455467343330383e-02,-1.217471957206726074e-01,4.695286601781845093e-02,9.290132671594619751e-03,-1.371903121471405029e-01,-6.753730028867721558e-02,-2.632693853229284286e-03,7.263717800378799438e-02,1.777711510658264160e-01,2.048909366130828857e-01,9.991310536861419678e-03,-6.758617609739303589e-02,8.788222819566726685e-02,2.118162661790847778e-01,1.798988729715347290e-01,1.002806052565574646e-01,-8.000246435403823853e-02,3.534076735377311707e-02,-1.155574843287467957e-01,-4.915740340948104858e-02,1.481938809156417847e-01,-1.680744886398315430e-01,2.068478316068649292e-01,-2.035837769508361816e-01,7.906077057123184204e-02,8.812882006168365479e-02,1.602057665586471558e-01,-7.320291548967361450e-02,2.248688042163848877e-02,1.692036092281341553e-01,-1.550091244280338287e-02,1.661140471696853638e-02,-7.901307940483093262e-02,-3.279291093349456787e-02,8.880789577960968018e-02,1.701347231864929199e-01,5.366503074765205383e-02,-1.132796630263328552e-01,-1.567868143320083618e-02,-1.815243065357208252e-02,-1.201747804880142212e-01,-1.342368125915527344e-01,-7.490139454603195190e-02,-7.725563645362854004e-02,-1.628435254096984863e-01,-6.027176603674888611e-02,4.442883282899856567e-02,-1.621088385581970215e-02,-1.074626669287681580e-01,2.111274376511573792e-02,-3.993086144328117371e-02,-1.356560289859771729e-01,1.897542029619216919e-01,5.775012075901031494e-02,-1.126812770962715149e-01,1.756429225206375122e-01,-5.041763186454772949e-02,-1.451949924230575562e-01,-2.420735545456409454e-03,1.815799809992313385e-02,-1.338655408471822739e-02,-1.192707195878028870e-01,8.307685703039169312e-02,1.321729086339473724e-02,-1.002327948808670044e-01,-8.541996031999588013e-02,1.149458661675453186e-01,6.189206242561340332e-02,2.319945255294442177e-03,-1.941334642469882965e-02,8.225909620523452759e-02,-2.125577628612518311e-01,-1.355330944061279297e-01,2.351702377200126648e-02,-1.571082919836044312e-01,2.620817162096500397e-02,1.323995441198348999e-01,1.788703650236129761e-01,-7.809307426214218140e-02,2.644358761608600616e-02,-5.494578555226325989e-02,-7.282157242298126221e-02,1.585808843374252319e-01,9.245137125253677368e-02
-1.379479914903640747e-01,-1.089626476168632507e-01,1.074055507779121399e-01,1.040641814470291138e-01,-5.394906178116798401e-02,1.458691805601119995e-01,7.464650087058544159e-03,4.818598274141550064e-03,-6.326020509004592896e-02,-1.527795642614364624e-01,-2.289387136697769165e-01,1.245549097657203674e-01,1.100990250706672668e-01,-2.167097628116607666e-01,-1.254945434629917145e-02,2.215480208396911621e-01,3.069152235984802246e-01,8.643352240324020386e-02,-1.510439217090606689e-01,-2.062352374196052551e-02,-9.669823199510574341e-02,1.320093125104904175e-01,-2.012681216001510620e-02,-2.275313585996627808e-01,-9.389289468526840210e-02,8.961123228073120117e-02,4.130617901682853699e-02,1.507591754198074341e-01,2.383270673453807831e-02,6.548057496547698975e-02,-9.973221272230148315e-02,-5.434789508581161499e-02,8.738566190004348755e-02,-2.837009169161319733e-02,-5.118400976061820984e-02,6.224501132965087891e-02,4.162432625889778137e-02,1.745976321399211884e-02,1.160248294472694397e-01,-2.591647394001483917e-02,7.414550334215164185e-02,3.036219067871570587e-02,1.247680187225341797e-01,3.452136367559432983e-02,-7.783177495002746582e-02,-2.166710793972015381e-01,9.790900349617004395e-02,-1.592922061681747437e-01,-1.184943839907646179e-01,1.573315411806106567e-01,-1.397007107734680176e-01,-1.524668484926223755e-01,-1.968784034252166748e-01,-2.614872716367244720e-02,7.428986579179763794e-02,-9.158703684806823730e-02,-1.475041955709457397e-01,2.148313969373703003e-01,2.370859980583190918e-01,-7.323300093412399292e-02,5.901846662163734436e-02,-8.053195476531982422e-02,8.574524521827697754e-02,-7.563543622381985188e-04,-1.210247650742530823e-01,1.311821490526199341e-01,4.224115237593650818e-02,-3.221435844898223877e-01,5.233328416943550110e-02,-4.801115021109580994e-02,5.894003808498382568e-02,2.604471519589424133e-02,5.561615154147148132e-02,1.370290219783782959e-01,-2.144165337085723877e-01,-1.273442804813385010e-01,6.551001220941543579e-02,-1.556293368339538574e-01,-1.820217669010162354e-01,-6.348112970590591431e-02,1.809994280338287354e-01,-1.460082381963729858e-01,-1.230521202087402344e-01,-6.976234167814254761e-02,-9.968376159667968750e-02,3.864859789609909058e-02,-4.274416714906692505e-02,2.348313853144645691e-02,-2.586935088038444519e-02,9.461028873920440674e-02,1.012923941016197205e-01,-1.439555436372756958e-01,-8.892960101366043091e-02,-2.508957684040069580e-02,6.481303274631500244e-02,3.485078737139701843e-02,-2.200489491224288940e-01,-2.496896684169769287e-01,1.822675317525863647e-01,7.960671186447143555e-02,2.913819998502731323e-02,4.115916788578033447e-03,1.739649772644042969e-01,-8.621489256620407104e-02,1.350229829549789429e-01,-1.788851320743560791e-01,3.661341033875942230e-03,-1.791056841611862183e-01,-4.980104789137840271e-02,-1.984789222478866577e-01,-6.054506450891494751e-02,4.535541683435440063e-02,8.032378554344177246e-02,-1.818993091583251953e-01,8.416067063808441162e-02,1.081509590148925781e-01,4.509306326508522034e-02,-1.682503968477249146e-01,3.188889324665069580e-01,-1.960809826850891113e-01,6.163640320301055908e-02,-4.915210232138633728e-02,6.640164554119110107e-02,-2.409455599263310432e-03,-9.035805612802505493e-02,6.374745815992355347e-02,-3.424773737788200378e-02,-9.354280680418014526e-02
8.169856667518615723e-02,8.502236753702163696e-02,1.628950685262680054e-01,1.327108591794967651e-02,6.688822805881500244e-02,-4.211269691586494446e-02,1.321314573287963867e-01,-8.342489600181579590e-02,-1.965617090463638306e-01,-1.746888607740402222e-01,-1.219091340899467468e-01,5.286531522870063782e-02,-1.226659491658210754e-01,4.885157570242881775e-02,-8.688106387853622437e-02,1.402782648801803589e-01,-3.939316421747207642e-02,4.532025381922721863e-02,1.290599852800369263e-01,-3.088682703673839569e-02,2.135710567235946655e-01,5.637503042817115784e-02,4.111335799098014832e-02,-1.252356320619583130e-01,1.094026044011116028e-01,-2.225818607257679105e-04,9.062553197145462036e-02,1.939870566129684448e-01,-5.219443887472152710e-02,-5.972689762711524963e-02,1.047479882836341858e-01,-1.718204915523529053e-01,6.495217978954315186e-02,-1.720988899469375610e-01,-1.892775893211364746e-01,1.832889765501022339e-01,9.047323465347290039e-02,1.077381148934364319e-01,1.002863720059394836e-01,9.275844320654869080e-03,-8.044477552175521851e-02,1.173468753695487976e-01,-3.250770643353462219e-02,1.771180182695388794e-01,-1.361431032419204712e-01,-8.275027573108673096e-02,8.746393024921417236e-03,1.913565248250961304e-01,-1.697188168764114380e-01,5.954274535179138184e-02,4.834682866930961609e-02,-3.135301545262336731e-02,-1.164272334426641464e-02,9.057706594467163086e-02,5.219251662492752075e-02,-1.230143904685974121e-01,8.546877652406692505e-02,-1.081725656986236572e-01,-2.320954650640487671e-01,1.269629597663879395e-01,5.743107199668884277e-02,-2.704455144703388214e-02,-2.046734839677810669e-01,1.913051158189773560e-01,4.343019425868988037e-02,-6.357494741678237915e-02,5.182833597064018250e-02,-1.166321989148855209e-02,-1.424955129623413086e-01,1.112154591828584671e-02,-1.152415294200181961e-02,4.148810729384422302e-02,-8.618079125881195068e-02,5.656052380800247192e-02,1.021018996834754944e-01,1.882044225931167603e-01,-1.234256625175476074e-01,-1.109412498772144318e-02,4.848998785018920898e-02,8.106043189764022827e-02,-2.847324684262275696e-02,-6.380751729011535645e-02,3.745647519826889038e-02,-6.593368947505950928e-02,-1.526915729045867920e-01,6.410746276378631592e-02,2.150794118642807007e-02,4.280657321214675903e-02,-1.766289919614791870e-01,-9.490113705396652222e-02,-1.544750295579433441e-02,-6.163871288299560547e-02,2.204351825639605522e-03,1.284348815679550171e-01,1.573974341154098511e-01,-8.038136363029479980e-02,1.785558909177780151e-01,-6.225395575165748596e-02,-4.831320047378540039e-02,1.728594154119491577e-01,4.091617837548255920e-02,6.932035833597183228e-02,-2.221653424203395844e-02,1.629606336355209351e-01,-1.069401502609252930e-01,-5.602750182151794434e-02,1.053012832999229431e-01,-1.458278596401214600e-01,1.578876674175262451e-01,-6.426676362752914429e-02,1.420750617980957031e-01,-1.105358600616455078e-01,5.966845154762268066e-02,-1.504884362220764160e-01,-8.189431577920913696e-02,-1.128138825297355652e-01,9.141963720321655273e-02,-5.438956618309020996e-02,-4.333278909325599670e-02,-3.182326257228851318e-02,1.006436049938201904e-01,1.661030799150466919e-01,-1.685860008001327515e-01,-8.294334262609481812e-02,-1.636255383491516113e-01,-1.489266753196716309e-01,1.955519020557403564e-01,-7.192313671112060547e-02
-1.011123359203338623e-01,-1.350631415843963623e-01,1.158368214964866638e-01,-1.934003680944442749e-01,1.069683358073234558e-01,5.800931528210639954e-02,8.078470081090927124e-02,-2.162499576807022095e-01,1.259620487689971924e-01,-1.255367696285247803e-01,-1.173585131764411926e-01,-1.609350442886352539e-01,4.416648671030998230e-02,1.429333090782165527e-01,1.609079092741012573e-01,8.311915397644042969e-02,-5.634143948554992676e-01,-9.264786727726459503e-03,1.427408307790756226e-01,-9.937731921672821045e-02,1.195339486002922058e-01,5.154177173972129822e-02,8.065611869096755981e-02,1.905349344015121460e-01,-3.081618845462799072e-01,1.095481291413307190e-01,6.669686734676361084e-02,4.258716944605112076e-03,2.283231914043426514e-01,-1.859307885169982910e-01,-2.276420593261718750e-02,-1.739216297864913940e-01,2.586875259876251221e-01,-1.377692222595214844e-01,-1.996966004371643066e-01,1.378868520259857178e-01,-1.076320260763168335e-01,-5.462842062115669250e-02,4.607568308711051941e-02,-9.166840463876724243e-02,1.525399535894393921e-01,-1.050124317407608032e-02,2.086944133043289185e-01,-2.666038870811462402e-01,-1.359166353940963745e-01,-9.325547516345977783e-02,2.067011147737503052e-01,-1.953281909227371216e-01,-8.411785215139389038e-02,5.625163018703460693e-02,-6.762164831161499023e-02,-8.848764747381210327e-02,-3.675955533981323242e-01,7.294267416000366211e-02,-4.804736748337745667e-02,8.172859251499176025e-02,-2.969330549240112305e-02,-2.055702060461044312e-01,9.557043015956878662e-02,3.975177705287933350e-01,-1.481385622173547745e-02,-2.974927723407745361e-01,2.414836362004280090e-02,-6.559066474437713623e-02,-2.033504247665405273e-01,-4.579762741923332214e-02,-9.181662462651729584e-03,-2.539695985615253448e-02,-3.631195053458213806e-02,-1.550933867692947388e-01,-1.652050316333770752e-01,1.094764545559883118e-01,-8.802702277898788452e-02,-4.310848191380500793e-02,-2.428290992975234985e-01,1.222982481122016907e-01,1.403155028820037842e-01,-4.871299862861633301e-02,-4.675648510456085205e-01,-1.028702594339847565e-02,7.355825603008270264e-02,-1.671404242515563965e-01,9.954834729433059692e-02,-3.270535171031951904e-02,-1.198012903332710266e-01,1.374917477369308472e-01,1.674690246582031250e-01,-9.075107425451278687e-02,-1.552699059247970581e-01,-1.825085878372192383e-01,1.062826067209243774e-01,-1.514439820311963558e-03,1.642275899648666382e-01,-3.244477882981300354e-02,1.172084808349609375e-01,-1.174923852086067200e-01,-2.671923637390136719e-01,-2.151274308562278748e-02,1.605061441659927368e-01,6.341513246297836304e-03,-3.926042094826698303e-02,1.687200739979743958e-02,-6.908248364925384521e-02,-5.190160125494003296e-02,-1.865993067622184753e-02,-4.230368882417678833e-03,6.003913283348083496e-02,3.477778658270835876e-02,1.493810713291168213e-01,1.621717214584350586e-01,-7.553664594888687134e-02,5.181143060326576233e-02,-2.106886357069015503e-01,-2.150270529091358185e-02,-1.091311722993850708e-01,2.490611933171749115e-02,-6.926921755075454712e-02,-1.832208409905433655e-02,2.398351021111011505e-02,-2.923700027167797089e-02,1.071443688124418259e-02,3.228960186243057251e-02,3.185589611530303955e-02,-3.372444212436676025e-01,-1.899872720241546631e-01,7.232877612113952637e-02,7.919821888208389282e-02,4.309936612844467163e-02
1.792379617691040039e-01,-1.087216973304748535e+00,1.105977892875671387e-01,5.559191107749938965e-01,3.302649557590484619e-01,-3.415165543556213379e-01,3.603473901748657227e-01,-3.511932194232940674e-01,4.068824946880340576e-01,2.254821658134460449e-01,-2.326122820377349854e-01,-8.977765589952468872e-02,3.293078159913420677e-03,-4.888948798179626465e-01,1.811923533678054810e-01,1.754203885793685913e-01,2.480934411287307739e-01,-1.233783587813377380e-01,-1.036847591400146484e+00,6.519492864608764648e-01,2.016734182834625244e-01,3.749748766422271729e-01,1.636874228715896606e-01,-2.997534163296222687e-02,-7.328126579523086548e-02,4.910117480903863907e-03,-3.508580103516578674e-02,-4.134628921747207642e-02,2.430841177701950073e-01,-4.720959067344665527e-01,6.663458794355392456e-02,2.765178680419921875e-01,3.205124288797378540e-02,2.738236784934997559e-01,-3.053510785102844238e-01,-3.571304678916931152e-01,1.458461582660675049e-01,1.775523833930492401e-02,5.628301575779914856e-02,-2.113727033138275146e-01,-1.381832361221313477e-01,-6.865649223327636719e-01,-2.738396227359771729e-01,1.045135110616683960e-01,1.210387703031301498e-02,-3.769767284393310547e-02,-1.774439215660095215e-01,-6.598379611968994141e-01,1.551179885864257812e-01,-8.298553526401519775e-02,2.108198404312133789e-01,8.941388130187988281e-02,-3.454741463065147400e-02,6.978909019380807877e-03,2.583922743797302246e-01,-1.562825143337249756e-01,2.028616070747375488e-01,3.003362715244293213e-01,7.118593156337738037e-02,-3.300731256604194641e-02,3.679846972227096558e-02,-4.303447604179382324e-01,-3.045158982276916504e-01,-3.644147813320159912e-01,-4.951171875000000000e-01,1.172279566526412964e-01,4.295667707920074463e-01,2.304729819297790527e-01,1.302389800548553467e-01,-3.418190404772758484e-02,-1.280670464038848877e-01,2.190530002117156982e-01,-1.497275680303573608e-01,-2.966741472482681274e-02,1.082390770316123962e-01,-1.218859627842903137e-01,-1.653417479246854782e-03,8.130227774381637573e-02,-3.021830916404724121e-01,2.151089608669281006e-01,8.221969753503799438e-02,2.803381085395812988e-01,8.414539694786071777e-02,-2.077655792236328125e-01,3.424958586692810059e-01,4.969643652439117432e-01,9.377431869506835938e-02,-3.698846101760864258e-01,-5.293768644332885742e-02,-1.013176590204238892e-01,-1.428686920553445816e-02,-8.312522172927856445e-01,-4.200312793254852295e-01,4.671761393547058105e-01,6.313251852989196777e-01,-5.001688003540039062e-01,-5.442994832992553711e-02,-8.214510232210159302e-02,2.678448259830474854e-01,-2.766280770301818848e-01,2.707237303256988525e-01,6.431923806667327881e-02,-1.173990033566951752e-02,-6.491446495056152344e-02,-7.449229061603546143e-02,1.959715634584426880e-01,-2.079234123229980469e-01,9.500965476036071777e-01,1.534192860126495361e-01,1.749240048229694366e-02,1.040130332112312317e-01,6.268845796585083008e-01,-3.189415335655212402e-01,-1.491320133209228516e-01,1.841174624860286713e-02,2.872245609760284424e-01,-1.220749244093894958e-01,-1.812217533588409424e-01,-9.587512910366058350e-02,-2.817315161228179932e-01,1.210677027702331543e-01,-3.532015085220336914e-01,2.218863815069198608e-01,-1.667812317609786987e-01,-3.743536472320556641e-01,2.828212976455688477e-01,-4.162983298301696777e-01,-1.156001314520835876e-01
2.368502132594585419e-02,-7.920316606760025024e-02,1.201144680380821228e-01,5.297528207302093506e-02,-1.929927170276641846e-01,-7.782530039548873901e-02,1.108645647764205933e-01,1.985648274421691895e-02,-2.034695819020271301e-02,-5.867837741971015930e-02,1.180752739310264587e-01,-8.236479759216308594e-02,-1.344876084476709366e-02,-1.449193209409713745e-01,5.090255290269851685e-02,6.928721815347671509e-02,-1.800685077905654907e-01,3.787119314074516296e-02,-1.346914768218994141e-01,-4.520928859710693359e-02,2.091669142246246338e-01,-1.636944152414798737e-02,4.264985024929046631e-02,-1.251600384712219238e-01,1.005168110132217407e-01,4.460432752966880798e-02,-2.282075816765427589e-03,5.416713282465934753e-02,-3.552662208676338196e-02,-1.712621301412582397e-01,1.381304115056991577e-01,-1.503795236349105835e-01,6.250236183404922485e-02,-5.502133071422576904e-02,-1.703829318284988403e-01,1.219332590699195862e-01,2.810750342905521393e-02,1.032435987144708633e-02,-1.924762874841690063e-01,-3.825916349887847900e-02,-1.871009916067123413e-01,7.618109136819839478e-02,-1.075334772467613220e-01,1.306742131710052490e-01,-1.893723607063293457e-01,-1.259602904319763184e-01,1.163178496062755585e-02,1.990927159786224365e-01,-2.132124155759811401e-01,-8.196966350078582764e-02,-1.518397033214569092e-01,-2.106740176677703857e-01,6.827721744775772095e-02,1.479661278426647186e-02,1.642406103201210499e-03,-6.771694123744964600e-02,-5.795245617628097534e-02,-6.984815746545791626e-02,1.558865606784820557e-01,1.730975657701492310e-01,2.026759274303913116e-02,-1.907313824631273746e-03,8.907449990510940552e-02,-2.631916292011737823e-02,-1.822645217180252075e-01,-2.576134726405143738e-02,1.449968516826629639e-01,3.343468159437179565e-02,1.004310511052608490e-02,-5.313897877931594849e-02,2.125190198421478271e-02,1.257344633340835571e-01,-1.106526926159858704e-01,3.423916548490524292e-02,3.553850576281547546e-02,2.025716304779052734e-01,-1.243119090795516968e-01,-6.568901985883712769e-02,-1.187572106719017029e-01,2.036135494709014893e-01,2.899562753736972809e-02,-5.044755339622497559e-02,-6.945549696683883667e-02,1.800016462802886963e-01,5.006367713212966919e-02,3.636611509136855602e-04,3.402966260910034180e-02,-1.905586421489715576e-01,2.512092702090740204e-02,7.103494554758071899e-02,-9.495838731527328491e-02,3.777638077735900879e-02,6.042663753032684326e-02,1.084083318710327148e-01,-7.367943227291107178e-02,1.385229676961898804e-01,-2.666650153696537018e-02,2.837847918272018433e-02,-1.751793771982192993e-01,-1.565509289503097534e-02,1.707002818584442139e-01,-4.271616786718368530e-02,1.096156761050224304e-01,-6.656438112258911133e-02,-1.117879450321197510e-01,8.463384001515805721e-04,5.803145095705986023e-02,-1.229106709361076355e-01,-1.107473820447921753e-01,-1.441957354545593262e-01,-1.545099075883626938e-02,1.854098439216613770e-01,7.540308684110641479e-02,8.082160353660583496e-02,6.934501696377992630e-03,3.462640568614006042e-02,-2.017095535993576050e-01,1.859256029129028320e-01,6.626822054386138916e-02,-7.475245278328657150e-03,2.092354148626327515e-01,2.115774601697921753e-01,-1.331283152103424072e-01,2.448140084743499756e-02,-1.910763978958129883e-01,-1.044064611196517944e-01,7.565689086914062500e-02,4.167040437459945679e-02
-2.242527343332767487e-02,-1.539895385503768921e-01,8.399713039398193359e-02,-1.980660110712051392e-01,8.494987338781356812e-02,5.943754687905311584e-02,4.262487636879086494e-04,2.164514968171715736e-03,-1.253513842821121216e-01,-6.371396034955978394e-02,7.127027213573455811e-02,9.416751563549041748e-03,-1.653128564357757568e-01,-2.295173518359661102e-02,3.816619887948036194e-02,1.045164391398429871e-01,-8.177476376295089722e-02,-1.709108948707580566e-01,-1.058261990547180176e-01,9.008855372667312622e-02,7.946016639471054077e-02,-7.112915068864822388e-02,-4.998993501067161560e-02,-2.475284971296787262e-02,7.315801084041595459e-02,3.226610831916332245e-03,-9.131783992052078247e-02,1.533811073750257492e-02,1.161419525742530823e-01,-1.160562410950660706e-01,1.943064779043197632e-01,-1.802584081888198853e-01,7.761029154062271118e-02,-6.256401538848876953e-02,-7.281241565942764282e-02,6.490477174520492554e-02,-1.124023087322711945e-02,1.081704497337341309e-01,-1.376250386238098145e-01,2.673432603478431702e-02,-1.432104855775833130e-01,-2.751978114247322083e-03,-2.140229344367980957e-01,2.211763709783554077e-02,-1.673901826143264771e-01,5.884256213903427124e-03,-5.219823867082595825e-02,1.322215050458908081e-01,-7.788213342428207397e-02,-2.101656049489974976e-01,-1.443088948726654053e-01,7.842376083135604858e-02,1.590896211564540863e-02,5.571047961711883545e-02,-4.240815714001655579e-02,-6.685815751552581787e-02,1.938471496105194092e-01,2.262384071946144104e-02,-1.716217547655105591e-01,1.192291080951690674e-01,4.226281866431236267e-02,9.526492655277252197e-02,-7.105538994073867798e-02,8.650966733694076538e-02,1.582457870244979858e-01,4.118476063013076782e-02,9.840888530015945435e-02,-1.066880077123641968e-01,-2.039964497089385986e-01,-5.956943705677986145e-02,2.311823144555091858e-02,4.259134456515312195e-02,-1.402311027050018311e-01,1.012901216745376587e-01,1.549755036830902100e-01,8.657666295766830444e-02,4.103562980890274048e-02,-8.648840710520744324e-03,-2.285554818809032440e-02,1.158325597643852234e-01,-1.961892843246459961e-02,-7.192903757095336914e-02,-5.279739852994680405e-03,-7.418023049831390381e-02,8.156913518905639648e-02,2.255873568356037140e-02,1.128299310803413391e-01,-6.761904060840606689e-02,9.652952663600444794e-03,-3.557375445961952209e-02,-8.669467270374298096e-02,-1.400915998965501785e-02,-1.362847387790679932e-01,3.795511648058891296e-02,1.462435722351074219e-01,-6.236403807997703552e-02,1.694239377975463867e-01,-1.854757517576217651e-01,-1.112472042441368103e-01,1.650548279285430908e-01,-4.815080389380455017e-02,5.450463294982910156e-02,5.890424549579620361e-02,1.653875708580017090e-01,-8.812102675437927246e-02,-2.120473682880401611e-01,1.172527372837066650e-01,-1.043612435460090637e-01,-2.401134558022022247e-02,-2.122247815132141113e-01,-1.255717594176530838e-02,1.409703642129898071e-01,-7.633864134550094604e-02,-3.574215620756149292e-02,-8.119231462478637695e-02,-2.013288289308547974e-01,-2.190835922956466675e-01,-1.181517988443374634e-01,-6.876710057258605957e-02,-4.140034317970275879e-02,1.026537194848060608e-01,2.004132717847824097e-01,-1.601679623126983643e-01,-1.290857978165149689e-02,-1.781283766031265259e-01,2.124125836417078972e-03,1.418789625167846680e-01,2.220299988985061646e-01
1.771329939365386963e-01,-1.769527047872543335e-01,8.419922739267349243e-02,3.353404253721237183e-02,-7.507088035345077515e-02,3.726321831345558167e-02,1.807472109794616699e-01,-5.285695660859346390e-03,-1.289328336715698242e-01,-1.168739646673202515e-01,-5.460076406598091125e-02,1.682768315076828003e-01,-4.360274225473403931e-02,-1.573499590158462524e-01,9.379913657903671265e-02,4.979709908366203308e-02,3.221564739942550659e-02,8.677376061677932739e-02,1.195743456482887268e-01,7.439947128295898438e-02,-1.408135145902633667e-02,1.087024342268705368e-02,-1.040815338492393494e-01,1.386661268770694733e-02,9.042134135961532593e-02,-1.003518253564834595e-01,9.785665571689605713e-02,-5.222027748823165894e-02,-2.183863706886768341e-02,9.918592125177383423e-02,5.050861835479736328e-02,-1.363877952098846436e-02,-1.094391420483589172e-01,-8.636006712913513184e-02,-6.907159835100173950e-02,-7.983524352312088013e-02,1.531452983617782593e-01,5.399753898382186890e-02,-1.930636353790760040e-02,-1.746996939182281494e-01,-7.213107310235500336e-03,8.177413791418075562e-02,9.553659707307815552e-03,-1.083288267254829407e-01,-6.279100477695465088e-02,-1.251619160175323486e-01,6.406750530004501343e-02,4.180729389190673828e-02,-3.259047865867614746e-02,-1.031139567494392395e-01,3.065787628293037415e-02,-1.045829504728317261e-01,5.250527709722518921e-02,9.405187517404556274e-02,6.400235742330551147e-02,7.559932023286819458e-02,9.886869043111801147e-02,-4.287606477737426758e-02,-1.851196214556694031e-02,2.684189192950725555e-02,-1.828079670667648315e-02,9.715648740530014038e-02,-1.556795090436935425e-01,1.957404017448425293e-01,-6.490404158830642700e-02,-3.879638388752937317e-02,1.248292028903961182e-01,7.466972619295120239e-02,-1.772181242704391479e-01,1.131289824843406677e-01,6.337272375822067261e-02,-1.137442067265510559e-01,5.620069429278373718e-02,1.226322874426841736e-01,-6.850226223468780518e-02,1.527971327304840088e-01,-1.956780254840850830e-01,4.326780512928962708e-02,-1.539586335420608521e-01,1.656862348318099976e-01,3.420878201723098755e-02,1.564748585224151611e-02,-1.758995801210403442e-01,-3.682658309116959572e-03,1.646594516932964325e-02,-4.592107981443405151e-02,1.633087918162345886e-02,-6.058278679847717285e-02,1.108660399913787842e-01,-1.242082118988037109e-01,-1.342982798814773560e-01,3.693428635597229004e-02,1.108785420656204224e-01,-5.228887870907783508e-02,-4.169065132737159729e-02,-4.224852845072746277e-02,1.589626520872116089e-01,-4.197901487350463867e-02,3.963583707809448242e-02,-6.017319858074188232e-02,1.395048201084136963e-01,-1.463624387979507446e-01,-4.885809496045112610e-03,-7.145497202873229980e-02,3.274364396929740906e-02,9.956197440624237061e-02,8.116559684276580811e-02,-9.394710510969161987e-02,-8.810859918594360352e-02,-1.793655157089233398e-01,4.129079729318618774e-02,9.822224080562591553e-02,1.598724722862243652e-02,5.595490336418151855e-02,8.362486958503723145e-02,5.306379497051239014e-02,-1.382594257593154907e-01,1.677487045526504517e-01,-1.246341038495302200e-02,1.704571545124053955e-01,2.944418042898178101e-02,-2.819675952196121216e-03,-4.824646189808845520e-02,-6.027938798069953918e-02,1.256202161312103271e-01,1.014650985598564148e-01,9.272091835737228394e-02,8.818268775939941406e-02
4.046477749943733215e-02,1.616542488336563110e-01,-2.248153463006019592e-02,-1.592749506235122681e-01,7.412752509117126465e-02,1.421845555305480957e-01,6.070137768983840942e-02,-1.453490108251571655e-01,-5.857039615511894226e-02,7.953093945980072021e-02,-9.752115607261657715e-02,1.325637698173522949e-01,4.049171134829521179e-02,1.195968538522720337e-01,6.439416110515594482e-02,2.076480165123939514e-02,-4.950406402349472046e-02,-2.352148666977882385e-02,1.174113675951957703e-01,1.140311956405639648e-01,-5.917361006140708923e-02,2.830049768090248108e-02,1.135920658707618713e-01,8.414128422737121582e-02,-1.577960699796676636e-01,-5.251643434166908264e-02,-8.285778015851974487e-02,9.413578361272811890e-02,-3.979864716529846191e-02,-7.493617385625839233e-02,9.464449435472488403e-02,-8.363460749387741089e-02,3.893907740712165833e-02,-6.065802276134490967e-02,-1.313973814249038696e-01,2.525405492633581161e-03,5.546551942825317383e-02,-1.440410688519477844e-02,7.424983382225036621e-02,-1.098022907972335815e-01,-1.572933048009872437e-01,-9.424787759780883789e-02,6.948075443506240845e-02,-1.756037175655364990e-01,4.344779998064041138e-02,-1.751218438148498535e-01,1.256246715784072876e-01,-1.137124523520469666e-01,6.988457590341567993e-02,-4.146398231387138367e-02,8.395265042781829834e-02,1.164898648858070374e-01,5.421111732721328735e-02,-5.136852338910102844e-02,-3.092007339000701904e-02,5.866248160600662231e-02,-4.344784095883369446e-02,5.251121893525123596e-02,-8.503822088241577148e-01,1.970241367816925049e-01,6.204903498291969299e-02,3.287369310855865479e-01,-1.998133957386016846e-02,1.555903106927871704e-01,1.978879421949386597e-01,-1.453387439250946045e-01,-4.547250270843505859e-02,-1.594327539205551147e-01,8.702547848224639893e-02,-6.248702108860015869e-02,-1.033405438065528870e-01,-1.156617179512977600e-01,-1.425192207098007202e-01,7.957676798105239868e-02,9.330851584672927856e-02,3.260467946529388428e-02,2.243198640644550323e-02,-1.417617946863174438e-01,-4.822160676121711731e-02,-7.240077480673789978e-03,1.667277961969375610e-01,-5.812751129269599915e-02,-2.549139037728309631e-02,-1.119918376207351685e-01,1.941608823835849762e-02,8.497491478919982910e-02,-8.703561127185821533e-02,8.363861590623855591e-02,-2.153400564566254616e-03,-2.047177851200103760e-01,5.273044735076837242e-06,6.194446235895156860e-02,-5.656937509775161743e-02,-8.287694305181503296e-02,-3.183707222342491150e-02,-3.847641870379447937e-03,2.470442466437816620e-02,1.560642570257186890e-01,1.117771267890930176e-01,-7.461116462945938110e-02,1.182328835129737854e-01,-5.915190093219280243e-03,1.305444389581680298e-01,1.234989389777183533e-01,-8.209272474050521851e-02,2.386461570858955383e-02,-4.797958582639694214e-02,5.661092698574066162e-02,-1.712708175182342529e-01,-4.201944544911384583e-02,-4.285735264420509338e-02,-1.601213067770004272e-01,-2.955361967906355858e-03,1.329599414020776749e-02,-6.093689799308776855e-02,1.523245722055435181e-01,-2.625001408159732819e-02,-2.217307388782501221e-01,2.021826803684234619e-02,-5.525823310017585754e-02,-1.286087483167648315e-01,2.124650962650775909e-02,1.160284876823425293e-01,-9.164442308247089386e-03,-1.783754676580429077e-01,8.431100845336914062e-02,2.401720881462097168e-01,-3.013456938788294792e-03
6.013292819261550903e-02,-4.164601117372512817e-02,5.539742484688758850e-02,2.047203034162521362e-01,6.975613534450531006e-02,-5.581240355968475342e-02,-7.376850396394729614e-02,-8.520013839006423950e-02,-1.222893521189689636e-01,1.955526024103164673e-01,-1.611966788768768311e-01,-7.668296992778778076e-02,-9.253559261560440063e-02,-2.132151648402214050e-02,-6.336750090122222900e-02,1.672853529453277588e-01,8.289223909378051758e-02,-1.714669018983840942e-01,-5.390063300728797913e-02,7.018425315618515015e-02,1.121657248586416245e-02,3.961996844736859202e-05,4.056213423609733582e-03,-1.850003451108932495e-01,-5.716101825237274170e-02,5.364973098039627075e-03,-1.172095015645027161e-01,1.429598182439804077e-01,1.313941460102796555e-02,4.611523356288671494e-03,-1.000855676829814911e-02,1.779779344797134399e-01,3.963761031627655029e-02,7.689560949802398682e-02,-1.646463572978973389e-02,2.107861638069152832e-01,3.058238141238689423e-02,-1.268734484910964966e-01,5.119863152503967285e-02,-6.575495749711990356e-02,8.657186478376388550e-02,8.509280532598495483e-02,-8.438052237033843994e-02,8.302329480648040771e-02,-1.501757055521011353e-01,-1.895954608917236328e-01,-1.121599972248077393e-01,-2.588970959186553955e-02,-1.996639966964721680e-01,-2.017479389905929565e-01,-6.176988827064633369e-04,8.693996071815490723e-02,1.662540286779403687e-01,3.954141214489936829e-02,6.294836848974227905e-02,-5.031698942184448242e-02,2.123211026191711426e-01,-3.991742804646492004e-02,-1.870638318359851837e-02,7.724053412675857544e-02,-1.397230327129364014e-01,-3.674924746155738831e-02,6.117385253310203552e-02,3.168938681483268738e-02,9.618765860795974731e-02,-1.442718803882598877e-01,-5.600709002465009689e-03,4.452474042773246765e-02,-6.290358956903219223e-03,-7.588855922222137451e-03,-7.779435068368911743e-02,5.800722911953926086e-02,-1.329643130302429199e-01,1.389303505420684814e-01,7.559375464916229248e-02,7.352860271930694580e-02,-1.059604659676551819e-01,-9.136170148849487305e-02,3.894297406077384949e-02,2.055107802152633667e-01,1.362009495496749878e-01,1.729004085063934326e-01,-6.201185286045074463e-02,1.207946017384529114e-01,-2.692213281989097595e-02,5.881879106163978577e-02,8.605695515871047974e-02,-8.843641728162765503e-02,-2.047478258609771729e-01,-6.192094832658767700e-02,2.276729792356491089e-02,1.787918210029602051e-01,-1.632178425788879395e-01,6.085655838251113892e-02,-7.701642066240310669e-02,-7.483328133821487427e-02,1.670917272567749023e-01,-4.077364131808280945e-02,6.290391087532043457e-02,-8.069837931543588638e-04,5.792310088872909546e-02,6.722904741764068604e-02,2.056271880865097046e-01,2.075056731700897217e-01,-8.614709228277206421e-02,-8.136153966188430786e-02,9.950221329927444458e-02,-8.892003446817398071e-02,-8.510279655456542969e-02,-2.056548148393630981e-01,1.928869783878326416e-01,1.880654096603393555e-01,-1.585083901882171631e-01,-5.068648234009742737e-02,-4.745914041996002197e-02,7.673177868127822876e-02,-2.042080163955688477e-01,-3.645877167582511902e-02,-1.361291855573654175e-01,1.986541897058486938e-01,1.104460284113883972e-01,-6.558392196893692017e-02,-1.342391520738601685e-01,9.936624020338058472e-02,-8.430457860231399536e-02,2.331773750483989716e-02,2.386464551091194153e-02,-3.575451672077178955e-02
-2.628789283335208893e-02,8.448047563433647156e-03,1.513907015323638916e-01,3.498769551515579224e-02,7.316659390926361084e-02,2.188380807638168335e-01,-2.746188454329967499e-02,-2.665090747177600861e-02,6.343317031860351562e-02,-1.206304952502250671e-01,-2.138496637344360352e-01,-6.417314987629652023e-03,-1.208023428916931152e-01,-1.335420608520507812e-01,-6.806902587413787842e-02,1.806420683860778809e-01,-3.883638605475425720e-02,-1.055567637085914612e-01,2.314835935831069946e-01,4.688496701419353485e-03,2.837665192782878876e-02,-1.310058832168579102e-01,8.494132012128829956e-02,-9.220235794782638550e-02,7.913121581077575684e-02,4.281460493803024292e-02,-5.629773437976837158e-02,1.585618555545806885e-01,-3.961905464529991150e-02,-5.313737690448760986e-02,5.540114268660545349e-02,1.191416475921869278e-02,1.042065545916557312e-01,-2.062580734491348267e-02,-2.120867371559143066e-01,1.276761889457702637e-01,5.596245639026165009e-03,-9.258789569139480591e-02,-1.009403541684150696e-01,-2.158228307962417603e-02,-7.059280574321746826e-02,-4.741232469677925110e-02,-6.113965809345245361e-02,1.215841248631477356e-01,-9.192161262035369873e-02,-7.569124922156333923e-03,-3.767091408371925354e-02,2.129958868026733398e-01,-8.421646803617477417e-02,-5.841265618801116943e-02,-9.258805215358734131e-02,7.962914183735847473e-03,-2.101725898683071136e-02,1.233090832829475403e-01,2.133004963397979736e-01,3.508081659674644470e-02,1.556189358234405518e-01,1.154958382248878479e-01,-2.189635932445526123e-01,1.121798977255821228e-01,-1.342145949602127075e-01,9.061729162931442261e-02,7.542575895786285400e-02,2.233126573264598846e-02,3.589836508035659790e-02,-6.054135784506797791e-02,-2.268673107028007507e-02,-4.143405705690383911e-02,-1.912847906351089478e-01,1.069858521223068237e-01,2.302838489413261414e-02,-5.474356934428215027e-02,-3.770251572132110596e-02,-3.325661644339561462e-02,-5.212987214326858521e-02,1.281003057956695557e-01,-1.000021802610717714e-04,-9.440734237432479858e-02,-9.795761108398437500e-02,-5.803872644901275635e-02,1.792344823479652405e-02,-5.302505567669868469e-02,8.268998563289642334e-02,1.725763976573944092e-01,-7.235487550497055054e-02,-2.106893956661224365e-01,1.234176531434059143e-01,4.857582971453666687e-02,5.147454887628555298e-02,-1.061662435531616211e-01,-1.229554638266563416e-01,7.798062264919281006e-02,-9.088503569364547729e-02,6.327958405017852783e-02,1.139905825257301331e-01,-4.538777098059654236e-02,2.953246235847473145e-03,4.575167596340179443e-02,-1.063850671052932739e-01,-5.564348772168159485e-02,-2.839212538674473763e-03,-1.259788125753402710e-01,6.012483686208724976e-02,1.735706031322479248e-01,-8.054047822952270508e-02,-1.341184675693511963e-01,9.175244718790054321e-02,-1.183695271611213684e-01,8.860851079225540161e-02,-3.404422104358673096e-02,1.562101207673549652e-02,3.505909070372581482e-02,8.442805707454681396e-02,-8.899819105863571167e-02,-1.115465015172958374e-01,-4.773786664009094238e-02,-8.968654274940490723e-02,-1.712687909603118896e-01,-2.177898138761520386e-01,4.462569206953048706e-02,1.176507174968719482e-01,1.731775701045989990e-01,5.973903462290763855e-02,-6.947244703769683838e-02,2.405518293380737305e-02,-1.951370686292648315e-01,3.152410790789872408e-04,-2.592099457979202271e-02
-6.243060901761054993e-02,8.565890789031982422e-02,2.062639445066452026e-01,1.024522781372070312e-01,9.183994494378566742e-03,1.660338640213012695e-01,-4.649231955409049988e-02,-9.115663170814514160e-02,-7.981391251087188721e-02,-1.384662389755249023e-01,-1.736517413519322872e-03,1.834640204906463623e-01,1.388897448778152466e-01,-1.722781658172607422e-01,1.347563415765762329e-01,-3.776961006224155426e-03,7.924181222915649414e-02,-1.346257030963897705e-01,-8.664485812187194824e-02,-7.671758532524108887e-02,-7.777781784534454346e-02,-1.510655134916305542e-01,7.792127877473831177e-02,-4.249179735779762268e-02,-2.912080846726894379e-03,6.268412806093692780e-03,-2.002355083823204041e-02,5.095784738659858704e-02,-1.301399432122707367e-02,1.530010551214218140e-01,1.671529859304428101e-01,6.251611560583114624e-02,-1.407901346683502197e-01,-1.404642313718795776e-01,-1.029495671391487122e-01,8.614934235811233521e-02,8.585807681083679199e-02,1.006400305777788162e-02,7.146091014146804810e-02,-1.925688087940216064e-01,-1.443243175745010376e-01,-9.317411482334136963e-02,-1.072796434164047241e-01,-7.680438458919525146e-02,-1.462008059024810791e-01,7.898294180631637573e-02,1.220509130507707596e-02,1.192145142704248428e-02,-1.519871316850185394e-02,3.072451613843441010e-02,-2.093049883842468262e-01,1.043497920036315918e-01,-6.934527307748794556e-02,2.822798676788806915e-03,1.054055690765380859e-01,2.854755334556102753e-02,-4.686341807246208191e-02,1.813086271286010742e-01,1.247937530279159546e-01,5.334944650530815125e-02,-1.176470294594764709e-01,-3.812910988926887512e-02,-4.985447973012924194e-02,4.610905423760414124e-02,-1.096355393528938293e-01,-1.149348393082618713e-01,4.504821822047233582e-02,-1.681749224662780762e-01,-6.825102865695953369e-02,5.865329504013061523e-02,5.050281062722206116e-02,1.834900081157684326e-01,-5.103094130754470825e-02,1.549686193466186523e-01,7.755456119775772095e-02,7.174730300903320312e-02,3.810350969433784485e-02,-1.754204928874969482e-01,-1.983593851327896118e-01,1.258451193571090698e-01,1.854386478662490845e-01,9.414537809789180756e-03,-1.724466383457183838e-01,-3.736294806003570557e-03,-4.690729454159736633e-02,-1.661820262670516968e-01,-2.478434145450592041e-02,-9.042583405971527100e-03,-2.106262370944023132e-02,-1.089149489998817444e-01,3.261877596378326416e-02,-9.024640172719955444e-02,-8.689422905445098877e-02,1.262855380773544312e-01,1.479915380477905273e-01,1.456273049116134644e-01,-6.731415539979934692e-02,3.611094504594802856e-02,-1.990766972303390503e-01,1.687786541879177094e-02,-1.534678339958190918e-01,-5.785788595676422119e-02,9.140960127115249634e-02,1.769299358129501343e-01,8.083797246217727661e-02,-4.960433021187782288e-02,2.118443548679351807e-01,1.948434859514236450e-02,-1.694255024194717407e-01,-1.564630120992660522e-01,-9.440118819475173950e-02,8.465974777936935425e-02,-8.253231644630432129e-02,-2.081762850284576416e-01,-2.121279537677764893e-01,-1.625000834465026855e-01,-1.843827813863754272e-01,-6.943122297525405884e-02,5.124009400606155396e-02,-1.075939610600471497e-01,1.976546794176101685e-01,1.220492832362651825e-02,7.827679067850112915e-02,-1.852434687316417694e-02,5.302451178431510925e-02,-1.157781202346086502e-02,-7.637868076562881470e-02,2.064623385667800903e-01
1.518611162900924683e-01,-1.713298857212066650e-01,1.701967418193817139e-01,3.285478800535202026e-02,-1.230980157852172852e-01,1.074999570846557617e-01,9.381990879774093628e-03,8.178286999464035034e-02,-2.092837840318679810e-01,-4.817487299442291260e-02,3.792969137430191040e-02,-5.192238837480545044e-02,6.092276796698570251e-02,-5.244522169232368469e-02,1.351075917482376099e-01,-9.532801061868667603e-02,1.326181460171937943e-02,-1.092650517821311951e-01,6.263630837202072144e-02,1.546866148710250854e-01,-2.426080033183097839e-02,-1.833122521638870239e-01,1.063937842845916748e-01,8.804140985012054443e-02,-7.401434332132339478e-02,-4.737972468137741089e-02,9.289889782667160034e-02,5.804274603724479675e-02,8.775004744529724121e-02,5.138859897851943970e-02,1.119710877537727356e-01,2.469418756663799286e-02,9.631234407424926758e-02,-6.771378964185714722e-02,5.438071489334106445e-02,2.070538252592086792e-01,6.553801894187927246e-02,-7.379370927810668945e-02,9.356313198804855347e-02,-1.308447271585464478e-01,2.413224428892135620e-02,-9.276613593101501465e-02,-1.585618108510971069e-01,-8.967474848031997681e-02,-1.301864814013242722e-02,3.789205476641654968e-02,7.086547464132308960e-02,1.791150569915771484e-01,8.729729056358337402e-02,1.954686827957630157e-02,-2.072711884975433350e-01,-1.024903915822505951e-02,-3.970903530716896057e-02,1.012063249945640564e-01,-8.485898375511169434e-02,1.315445639193058014e-02,1.373314410448074341e-01,1.464668512344360352e-01,-1.849262267351150513e-01,1.419659405946731567e-01,5.019456148147583008e-02,-6.829768419265747070e-03,-2.136194333434104919e-02,1.348797082901000977e-01,1.328416466712951660e-01,-1.090015545487403870e-01,1.077344566583633423e-01,-1.732914596796035767e-01,3.701903298497200012e-02,-2.503333054482936859e-02,1.103575453162193298e-01,-3.634859994053840637e-02,-1.394294649362564087e-01,-2.004193887114524841e-02,1.213189288973808289e-01,-9.197410941123962402e-02,-1.973893642425537109e-01,-6.807062891311943531e-04,2.197323180735111237e-02,1.321139372885227203e-02,8.173025399446487427e-02,5.828399956226348877e-02,5.266101285815238953e-02,-2.591781318187713623e-02,1.760966889560222626e-02,-1.943934857845306396e-01,1.246741190552711487e-01,-2.049880772829055786e-01,-6.641241908073425293e-02,-9.174282848834991455e-02,-1.087820306420326233e-01,3.092472255229949951e-02,-1.288676708936691284e-01,-2.078069187700748444e-02,6.146189942955970764e-02,-7.522112876176834106e-02,1.886314451694488525e-01,-2.098301500082015991e-01,-1.469088494777679443e-01,-5.222789198160171509e-02,6.671302020549774170e-02,-1.332211308181285858e-02,1.165593694895505905e-02,1.639067083597183228e-01,-8.702273666858673096e-02,-1.103575378656387329e-01,-6.759368348866701126e-03,-1.031207144260406494e-01,5.901807919144630432e-02,-1.212824583053588867e-01,-4.751304630190134048e-03,1.626223027706146240e-01,-7.641901075839996338e-02,3.666754812002182007e-03,8.831094205379486084e-02,-1.007473692297935486e-01,-1.946231275796890259e-01,-1.664605438709259033e-01,-1.600706130266189575e-01,1.272596418857574463e-01,4.879741463810205460e-03,-9.138177335262298584e-02,-2.072713673114776611e-01,-3.679146245121955872e-02,-2.363140508532524109e-02,-2.057243138551712036e-01,1.313717216253280640e-01,1.364151984453201294e-01
1.279296875000000000e-01,-1.004416197538375854e-01,1.836844086647033691e-01,-1.954830735921859741e-01,1.422982942312955856e-02,2.044709622859954834e-01,-9.218410402536392212e-02,-8.942498266696929932e-02,-1.601208187639713287e-02,9.233636781573295593e-03,1.100690197199583054e-02,-9.264533966779708862e-02,-3.357666358351707458e-02,-1.558186411857604980e-01,4.595933854579925537e-02,-5.957711860537528992e-02,-1.907934844493865967e-01,-1.396253705024719238e-01,6.743908673524856567e-02,4.293106496334075928e-02,1.599145233631134033e-01,-1.631215810775756836e-01,-9.242240339517593384e-03,2.539008110761642456e-02,5.774753540754318237e-02,8.016230165958404541e-02,-1.072071567177772522e-01,9.295037388801574707e-02,1.527280360460281372e-01,-1.663948297500610352e-01,-9.200160205364227295e-02,6.624361872673034668e-02,7.255333662033081055e-02,-9.742923825979232788e-02,-1.999053359031677246e-02,8.881684392690658569e-03,-6.995987147092819214e-02,-1.630861461162567139e-01,1.330641657114028931e-02,-7.059755176305770874e-02,-1.726056784391403198e-01,-9.531087428331375122e-02,-1.557668149471282959e-01,-1.330480128526687622e-01,-1.060783490538597107e-01,-1.784812510013580322e-01,-9.079768508672714233e-02,-3.498141095042228699e-02,-9.003683924674987793e-02,-3.778620809316635132e-02,-3.700697049498558044e-02,-5.556248873472213745e-02,9.802109748125076294e-02,7.515178620815277100e-02,1.469906270503997803e-01,1.403752434998750687e-02,2.318665012717247009e-02,9.101040661334991455e-02,8.115141838788986206e-02,-3.010160662233829498e-02,4.269148036837577820e-02,1.794821470975875854e-01,-6.603204458951950073e-02,-4.834695160388946533e-02,1.783174425363540649e-01,2.207449823617935181e-02,-2.651013806462287903e-02,-1.764268726110458374e-01,-1.624278575181961060e-01,-8.975680172443389893e-02,-5.708538368344306946e-02,-1.942954584956169128e-02,8.920425549149513245e-03,1.286055296659469604e-01,1.238924413919448853e-01,-8.259278535842895508e-02,-1.778200268745422363e-01,6.117016822099685669e-02,-1.411164402961730957e-01,6.323328614234924316e-02,-3.129860386252403259e-02,-2.056678235530853271e-01,5.385930091142654419e-02,6.169131025671958923e-02,-1.064759567379951477e-01,-1.860204488039016724e-01,-6.813678145408630371e-02,-1.840844601392745972e-01,-1.441038697957992554e-01,-7.008949667215347290e-02,-3.123972564935684204e-03,1.669498831033706665e-01,-6.093442067503929138e-02,1.389757394790649414e-01,3.706687316298484802e-02,-8.943752944469451904e-02,-2.902290970087051392e-02,-5.423243716359138489e-02,-6.573370099067687988e-02,1.548463758081197739e-02,-1.377727370709180832e-02,-1.386072784662246704e-01,9.703353792428970337e-02,-4.612741991877555847e-02,-1.374808698892593384e-01,-2.532938495278358459e-02,1.452384591102600098e-01,-6.012201309204101562e-02,-1.589040011167526245e-01,-1.188627928495407104e-01,8.950278908014297485e-02,1.581772863864898682e-01,-5.878204479813575745e-02,4.901793226599693298e-02,-6.580801308155059814e-02,-1.022366583347320557e-01,-3.006478026509284973e-02,7.282111048698425293e-02,-3.159672021865844727e-02,1.556006669998168945e-01,-4.967230558395385742e-02,1.329261213541030884e-01,-9.044757485389709473e-02,2.793165855109691620e-02,-1.465937644243240356e-01,-9.100284427404403687e-02,-9.034784138202667236e-02,1.121932268142700195e-01
-1.394295841455459595e-01,-4.195728525519371033e-02,2.135313749313354492e-01,-6.342408061027526855e-01,4.224340617656707764e-01,-5.998051762580871582e-01,1.003505513072013855e-01,-1.002838313579559326e-01,4.374920427799224854e-01,2.230486869812011719e-01,2.013807184994220734e-02,-1.701571494340896606e-01,-1.092413887381553650e-01,-7.259640842676162720e-02,-1.237112656235694885e-01,5.403074622154235840e-01,-5.349702239036560059e-01,1.463819853961467743e-02,8.621606230735778809e-01,3.362788558006286621e-01,-2.142954021692276001e-01,5.938489735126495361e-02,-3.548940643668174744e-02,1.751796603202819824e-01,-1.953192753717303276e-03,1.131733357906341553e-01,1.167944520711898804e-01,1.454840451478958130e-01,-5.769843459129333496e-01,2.587901055812835693e-01,1.180523931980133057e-01,6.764795184135437012e-01,6.144182384014129639e-02,-6.968171335756778717e-03,-2.652689516544342041e-01,-1.902330294251441956e-02,-1.668385863304138184e-01,-3.893190324306488037e-01,3.443531990051269531e-01,-1.571735739707946777e-02,3.020420903339982033e-03,-7.340331077575683594e-01,-1.731849908828735352e-01,-3.069134652614593506e-01,6.499814242124557495e-02,-4.739075601100921631e-01,1.632831990718841553e-01,-1.992788314819335938e-01,-1.345339119434356689e-01,2.239485979080200195e-01,3.642339110374450684e-01,-3.194367289543151855e-01,-2.053986191749572754e-01,4.838774800300598145e-01,4.630726277828216553e-01,-5.378301143646240234e-01,-1.920510679483413696e-01,1.737932562828063965e-01,4.896677136421203613e-01,7.129510641098022461e-01,-1.552049368619918823e-01,-4.537178575992584229e-01,1.925955712795257568e-01,5.258673802018165588e-02,-2.298389226198196411e-01,1.843108683824539185e-01,3.314596600830554962e-03,-1.291150003671646118e-01,6.285112351179122925e-02,4.454973340034484863e-02,7.578259706497192383e-01,1.291900575160980225e-01,2.715617045760154724e-02,-2.463348656892776489e-01,-6.682798266410827637e-01,2.996269166469573975e-01,-5.526123642921447754e-01,-2.204774692654609680e-02,6.396711803972721100e-03,-2.350110262632369995e-01,-2.228667140007019043e-01,8.250095695257186890e-02,-1.220322996377944946e-01,-4.337733983993530273e-02,3.325589001178741455e-01,-3.152635395526885986e-01,1.559159308671951294e-01,-1.033352985978126526e-01,-5.172053724527359009e-02,-4.192262887954711914e-02,-3.349336385726928711e-01,3.957527577877044678e-01,-3.794993162155151367e-01,1.346337646245956421e-01,-1.584917157888412476e-01,2.811827957630157471e-01,-7.089767456054687500e-01,8.887645602226257324e-02,-4.897316098213195801e-01,8.863130956888198853e-02,-3.848887681961059570e-01,-4.075539484620094299e-02,-2.020386010408401489e-01,5.522969961166381836e-01,8.703365176916122437e-02,-3.520166128873825073e-02,1.327188611030578613e-01,-4.030292630195617676e-01,-5.769239664077758789e-01,-7.288945466279983521e-02,1.989701837301254272e-01,2.427957355976104736e-01,4.469535648822784424e-01,2.848561704158782959e-01,3.517353236675262451e-01,6.567030549049377441e-01,1.742758899927139282e-01,-6.891186814755201340e-03,-4.307472109794616699e-01,-3.064417652785778046e-02,2.085194177925586700e-02,6.083507537841796875e-01,1.131092086434364319e-01,-1.580658555030822754e-02,1.816318929195404053e-01,6.314444541931152344e-01,5.481494590640068054e-02,3.884149789810180664e-01
